var decoderRaw = {"layers": [[{"weights": [-0.2074972242116928, -0.23250482976436615, 0.290994256734848, -0.005074764136224985, 0.051029328256845474, -0.1890805959701538, 0.0051733762957155704, -0.17469000816345215, -0.050396133214235306], "bias": -0.250159353017807, "activation_function": "RELU"}, {"weights": [0.4365999102592468, 0.7758864760398865, 0.2674221098423004, 0.5394401550292969, -0.06041199713945389, -0.37772947549819946, 0.37261661887168884, -0.21928900480270386, -0.2355402410030365], "bias": 0.4988843500614166, "activation_function": "RELU"}, {"weights": [-0.05540301278233528, 0.4895050823688507, 0.3543115556240082, -0.0020430427975952625, -0.2689359486103058, -0.1906631588935852, 0.2284722775220871, -0.2682371139526367, 0.107930988073349], "bias": -0.013171480037271976, "activation_function": "RELU"}, {"weights": [-0.2395792454481125, 0.038249995559453964, 0.11209972947835922, -0.25457704067230225, -0.3289072513580322, -0.31244540214538574, -0.1362970471382141, -0.06996900588274002, 0.10448995977640152], "bias": -0.04652705416083336, "activation_function": "RELU"}, {"weights": [0.7539247274398804, 0.5940824151039124, -0.04487442597746849, -0.43433043360710144, 0.21305927634239197, -0.5264999866485596, 0.094955675303936, 0.9390830397605896, -0.15465836226940155], "bias": 0.09870734810829163, "activation_function": "RELU"}, {"weights": [-0.21647168695926666, 0.09809097647666931, 0.5006294846534729, 0.796820342540741, 0.21811433136463165, -0.7068986296653748, 0.38163450360298157, -0.4120389223098755, 0.011269452050328255], "bias": 0.22250202298164368, "activation_function": "RELU"}, {"weights": [-0.2553354501724243, -0.2638980448246002, -0.02601410634815693, 0.06126825138926506, -0.10762462764978409, 0.1858673244714737, 0.182087704539299, -0.28751668334007263, 0.17090533673763275], "bias": 0.31785908341407776, "activation_function": "RELU"}, {"weights": [-0.264972448348999, -0.5004324316978455, 0.45970413088798523, 0.5837838053703308, 0.016807103529572487, -0.006264057941734791, -0.004995340947061777, 0.04077814891934395, 0.17831137776374817], "bias": -0.5509064197540283, "activation_function": "RELU"}, {"weights": [-0.32080477476119995, 0.14461123943328857, 0.21379698812961578, 0.46884387731552124, 0.07786596566438675, -0.4447232782840729, 0.3571239709854126, -0.1488521248102188, 0.441019207239151], "bias": 0.10666222870349884, "activation_function": "RELU"}, {"weights": [-0.07942535728216171, -0.3895564675331116, 0.4891919493675232, 0.824268102645874, 0.2834269404411316, 0.16562765836715698, 0.23117803037166595, 0.4545108377933502, 0.10417632013559341], "bias": -0.18582071363925934, "activation_function": "RELU"}, {"weights": [-0.29030489921569824, -0.07152118533849716, -0.5943141579627991, 0.7181240320205688, 0.22116613388061523, -0.7033095359802246, -0.19659747183322906, 1.0371570587158203, -0.19380855560302734], "bias": -0.20177973806858063, "activation_function": "RELU"}, {"weights": [-0.24963708221912384, 0.06121189892292023, -0.46910181641578674, -0.39490029215812683, 0.29596027731895447, -0.14455069601535797, 0.08030511438846588, 0.15661679208278656, -0.29355186223983765], "bias": 0.04453671723604202, "activation_function": "RELU"}, {"weights": [-0.1179782897233963, 0.46138569712638855, 0.10044019669294357, 0.5142499208450317, 0.13275405764579773, -0.8768698573112488, 0.15282218158245087, 0.2501544654369354, 0.03578639402985573], "bias": 0.14704792201519012, "activation_function": "RELU"}, {"weights": [0.018686579540371895, 0.15411604940891266, 0.32360175251960754, 0.15604953467845917, -0.22512856125831604, -0.030269015580415726, 0.33621692657470703, -0.5004415512084961, -0.11030088365077972], "bias": -0.28763070702552795, "activation_function": "RELU"}, {"weights": [0.8191043138504028, -0.2914612591266632, 0.5549140572547913, 0.15089420974254608, 0.7058425545692444, 0.4042412042617798, 0.4132281541824341, 0.8134422302246094, -0.26605477929115295], "bias": 0.10550010204315186, "activation_function": "RELU"}, {"weights": [0.4502759873867035, 0.12483742833137512, 0.920123279094696, 0.7771971821784973, 0.2128976285457611, 0.20992515981197357, 0.5587151646614075, -0.2768588364124298, 0.08539855480194092], "bias": 0.6429439187049866, "activation_function": "RELU"}, {"weights": [-0.13706758618354797, 0.7561015486717224, -0.14579635858535767, 0.28399351239204407, -0.3026834726333618, -0.6547225117683411, 0.25759202241897583, -0.773127019405365, -0.06458126753568649], "bias": 0.895294189453125, "activation_function": "RELU"}, {"weights": [0.07427381724119186, -0.016011210158467293, 0.21681427955627441, 0.4056330919265747, 0.1989918202161789, 0.005906876176595688, -0.14323671162128448, -0.0665932223200798, 0.023062096908688545], "bias": -0.251405268907547, "activation_function": "RELU"}], [{"weights": [-0.0873117595911026, -0.10140068084001541, -0.03513822332024574, -0.13375814259052277, 0.012762780301272869, 0.17637605965137482, 0.15311041474342346, 0.16234274208545685, 0.0016652994090691209, 0.05734630301594734, 0.270651251077652, 0.2247033417224884, -0.06948929280042648, 0.20358790457248688, 0.32815733551979065, -0.12129305303096771, 0.027337616309523582, 0.11740732192993164], "bias": -0.23107090592384338, "activation_function": "RELU"}, {"weights": [0.09553206712007523, 0.19940431416034698, 0.1658174842596054, 0.19465626776218414, 0.217256560921669, 0.16732048988342285, -0.06388188153505325, 0.12462952733039856, -0.20315039157867432, 0.1388988494873047, -0.1898816078901291, 0.22525042295455933, -0.2806532680988312, -0.11857378482818604, 0.29277604818344116, 0.26547378301620483, -0.14402689039707184, 0.23142996430397034], "bias": -0.09382731467485428, "activation_function": "RELU"}, {"weights": [0.12911969423294067, 0.03208271041512489, 0.10660956054925919, 0.07921738177537918, -0.17258243262767792, 0.026816047728061676, -0.09697375446557999, 0.3714101314544678, 0.24939440190792084, 0.5253779888153076, 0.09326530992984772, -0.2427631914615631, 0.25827664136886597, -0.16205976903438568, 0.33326107263565063, 0.5009092688560486, -0.507930338382721, 0.37463340163230896], "bias": 0.03418125957250595, "activation_function": "RELU"}, {"weights": [-0.19252407550811768, 0.19289414584636688, 0.16440345346927643, -0.03705627843737602, 0.02352505922317505, 0.1950465440750122, 0.008415763266384602, 0.1504591703414917, -0.07994512468576431, -0.0659809559583664, -0.22852064669132233, -0.06048143655061722, -0.0336102731525898, 0.09079878777265549, 0.11707203835248947, 0.409384548664093, -0.033713676035404205, 0.012833359651267529], "bias": -0.10903407633304596, "activation_function": "RELU"}, {"weights": [0.12774540483951569, 0.15326598286628723, 0.3037109673023224, 0.15491174161434174, -0.26978668570518494, 0.1281297206878662, 0.18249724805355072, 0.43845418095588684, 0.20706148445606232, 0.29745933413505554, -0.3453042507171631, 0.05654114484786987, -0.10231010615825653, 0.0030995148699730635, 0.31234535574913025, 0.3135286271572113, -0.16457225382328033, 0.023790420964360237], "bias": -0.4009297788143158, "activation_function": "RELU"}, {"weights": [0.11681176722049713, 0.39468470215797424, -0.016300488263368607, 0.1286524534225464, 0.9545148015022278, -0.25221455097198486, -0.08767395466566086, -0.1890062689781189, -0.1388254314661026, -0.32076749205589294, 0.44515520334243774, 0.11805036664009094, 0.37588343024253845, 0.1302163004875183, 0.4338870048522949, -0.34788185358047485, 0.2416796237230301, -0.08374030888080597], "bias": 0.02047094888985157, "activation_function": "RELU"}, {"weights": [0.03910735994577408, -0.026070328429341316, -0.12503449618816376, -0.12442415952682495, -0.2207678258419037, -0.136404886841774, -0.0665912851691246, 0.0017293483251705766, 0.11478939652442932, 0.05756881833076477, -0.17635215818881989, -0.1309940367937088, 0.05916343629360199, -0.11070474237203598, 0.17136195302009583, -0.0829225406050682, -0.01935209147632122, -0.18365703523159027], "bias": -0.07312490046024323, "activation_function": "RELU"}, {"weights": [-0.08568891137838364, 0.29310035705566406, -0.0013885365333408117, 0.15103262662887573, 0.32003796100616455, -0.03145269677042961, 0.044282976537942886, -0.16164672374725342, -0.16048376262187958, -0.23183606564998627, 0.3847678005695343, -0.161399707198143, 0.15403200685977936, -0.2034258097410202, 0.0580594576895237, -0.21498948335647583, 0.39406487345695496, 0.03186444565653801], "bias": 0.6223326921463013, "activation_function": "RELU"}, {"weights": [0.18696904182434082, -0.018955251201987267, 0.09411274641752243, 0.22589004039764404, 0.10954379290342331, 0.39398783445358276, 0.20869798958301544, -0.2309410125017166, 0.1378936469554901, -0.2718687355518341, 0.26828405261039734, -0.013313787057995796, 0.3006304204463959, -0.12927977740764618, -0.06533263623714447, 0.12084589153528214, 0.19129838049411774, -0.051815956830978394], "bias": -0.25530481338500977, "activation_function": "RELU"}, {"weights": [0.08698791265487671, 0.12539070844650269, 0.0024008287582546473, 0.13752955198287964, 0.26995837688446045, 0.08848648518323898, 0.05529987812042236, 0.07492613792419434, 0.1393156796693802, 0.05335290729999542, 0.07988917082548141, 0.17550233006477356, -0.17300809919834137, -0.02603965252637863, -0.17113453149795532, -0.28589126467704773, 0.17975963652133942, -0.18137595057487488], "bias": 0.43600282073020935, "activation_function": "RELU"}, {"weights": [-0.09649861603975296, -0.18667255342006683, 0.15108779072761536, -0.18841460347175598, 0.18935266137123108, 0.23011533915996552, -0.16447332501411438, 0.3030824661254883, -0.06623991578817368, 0.5143513083457947, 0.397743821144104, -0.19545365869998932, 0.021186593919992447, -0.21446044743061066, 0.48076748847961426, 0.2491857409477234, -0.38697171211242676, -0.07897800207138062], "bias": -0.1338539570569992, "activation_function": "RELU"}, {"weights": [-0.042237963527441025, 0.3528525233268738, -0.1635177731513977, -0.23503032326698303, -0.11816569417715073, -0.029222220182418823, 0.0040351939387619495, 0.019170859828591347, -0.06711897253990173, 0.05517593026161194, -0.32101690769195557, 0.07686308026313782, 0.147965207695961, 0.24373076856136322, 0.36732181906700134, 0.46864405274391174, 0.09418696910142899, -0.027085868641734123], "bias": 0.28278443217277527, "activation_function": "RELU"}, {"weights": [-0.13541440665721893, 0.2773269712924957, -0.05535600334405899, 0.14681212604045868, 0.2501632273197174, 0.05669970065355301, 0.1631196141242981, -0.35558971762657166, -0.028031302616000175, -0.19833680987358093, -0.07508283853530884, 0.022235341370105743, 0.3885776698589325, 0.021207332611083984, -0.05663180351257324, 0.3952593505382538, 0.37385687232017517, -0.26486608386039734], "bias": 0.7427917718887329, "activation_function": "RELU"}, {"weights": [0.13770245015621185, -0.2300415337085724, 0.19222337007522583, -0.06523828953504562, 0.08049043267965317, 0.05427952855825424, 0.18543310463428497, -0.19128121435642242, -0.0605236180126667, 0.2416324019432068, -0.19726979732513428, -0.10379467904567719, -0.10794801265001297, -0.1228979080915451, 0.006399419624358416, 0.21924075484275818, -0.14821350574493408, -0.22119098901748657], "bias": -0.03301021456718445, "activation_function": "RELU"}, {"weights": [0.1975490152835846, -0.11181584745645523, 0.15966349840164185, 0.1911763697862625, -0.1868969202041626, -0.13324055075645447, -0.12920019030570984, -0.11001326888799667, -0.11106192320585251, 0.040083497762680054, 0.1750621497631073, 0.11797251552343369, -0.0706682875752449, -0.01241310779005289, -0.13779279589653015, 0.14881600439548492, 0.1665167212486267, 0.009787723422050476], "bias": -0.0653698667883873, "activation_function": "RELU"}, {"weights": [-0.024070901796221733, 0.15294484794139862, -0.11891301721334457, -0.0473305769264698, 0.12913218140602112, 0.14495183527469635, 0.0967945009469986, -0.19694267213344574, -0.04222269728779793, 0.15475952625274658, -0.03494051843881607, 0.1644340306520462, -0.13778434693813324, 0.19108429551124573, -0.24600160121917725, 0.05897608771920204, 0.07249219715595245, -0.06143956258893013], "bias": 0.21991173923015594, "activation_function": "RELU"}, {"weights": [-0.18132399022579193, -0.08187887072563171, -0.2299591302871704, -0.10154607892036438, 0.1030118390917778, -0.3689962923526764, -0.009294064715504646, 0.0695016011595726, -0.1349688619375229, 0.1082472875714302, 0.34712666273117065, 0.3256644606590271, -0.13269445300102234, -0.09312036633491516, 0.2127874791622162, 0.009675814770162106, -0.00776722002774477, -0.0563172921538353], "bias": 0.030190737918019295, "activation_function": "RELU"}, {"weights": [0.1975158303976059, -0.012012696824967861, 0.2442733198404312, 0.027952229604125023, 0.23504330217838287, -0.22848714888095856, 0.16698074340820312, -0.07309313118457794, -0.15336216986179352, 0.09332876652479172, -0.17414739727973938, -0.14393484592437744, 0.026346001774072647, -0.2177923619747162, -0.07168781757354736, 0.23643572628498077, 0.31024369597435, 0.13622699677944183], "bias": -0.20659346878528595, "activation_function": "RELU"}, {"weights": [0.015173696912825108, 0.23257575929164886, -0.14983657002449036, -0.14674879610538483, 0.20501892268657684, 0.33386388421058655, 0.23020794987678528, 0.08454546332359314, 0.1381327360868454, -0.27313321828842163, 0.07703157514333725, 0.233851358294487, 0.4568333923816681, 0.1978989690542221, -0.44253987073898315, -0.2742789089679718, -0.04829031601548195, -0.021802382543683052], "bias": -0.2099337875843048, "activation_function": "RELU"}, {"weights": [0.08336343616247177, 0.42642152309417725, 0.31846553087234497, 0.021461831405758858, 0.046363960951566696, 0.5967398285865784, 0.29319846630096436, 0.013130330480635166, 0.4263251721858978, -0.07770492136478424, 0.2888612747192383, -0.06891817599534988, 0.41070258617401123, -0.15805527567863464, -0.4714834988117218, 0.2514365613460541, 0.7056570053100586, -0.06064066290855408], "bias": 0.5656756162643433, "activation_function": "RELU"}, {"weights": [-0.21430529654026031, -0.03435520455241203, -0.1321101039648056, -0.09723492711782455, 0.20269256830215454, 0.014666435308754444, 0.18527263402938843, -0.22538654506206512, 0.19925497472286224, -0.009154822677373886, -0.14665038883686066, -0.006707186345010996, -0.1475241780281067, 0.1620081067085266, -0.1065351814031601, -0.1964881867170334, 0.09533718228340149, 0.0010403668275102973], "bias": 0.1842021346092224, "activation_function": "RELU"}, {"weights": [-0.16891257464885712, -0.09059978276491165, 0.143523171544075, -0.22514666616916656, 0.23215016722679138, 0.17909029126167297, -0.1558532416820526, 0.07016971707344055, 0.2564667761325836, 0.27885520458221436, 0.5595906972885132, -0.10845371335744858, 0.2670077681541443, -0.17829279601573944, -0.029259614646434784, -0.2582554817199707, -0.059174567461013794, 0.24674202501773834], "bias": -0.536120593547821, "activation_function": "RELU"}, {"weights": [-0.22042876482009888, 0.4468151032924652, 0.03781227022409439, -0.18151190876960754, -0.13749375939369202, -0.04439185559749603, -0.007023186422884464, 0.07934114336967468, 0.054536737501621246, 0.04845389351248741, -0.10450727492570877, -0.036547038704156876, -0.0033595245331525803, -0.32585230469703674, -0.35303449630737305, 0.28083357214927673, 0.35601091384887695, 0.12700676918029785], "bias": 0.45767560601234436, "activation_function": "RELU"}, {"weights": [0.12929189205169678, 0.14263668656349182, -0.09996764361858368, -0.18019446730613708, 0.5693602561950684, -0.1489569991827011, -0.11700872331857681, -0.29391229152679443, -0.04756990075111389, 0.29681482911109924, 0.3043496608734131, -0.13407927751541138, 0.16322393715381622, -0.20972797274589539, 0.7656506896018982, 0.07307962328195572, -0.3294626474380493, -0.12858691811561584], "bias": 0.007071721367537975, "activation_function": "RELU"}, {"weights": [-0.18051612377166748, 0.2545419931411743, 0.21379907429218292, 0.018775949254631996, 0.38630858063697815, -0.016228418797254562, 0.17246855795383453, -0.0362296923995018, -0.05910320207476616, -0.15353018045425415, 0.08302123099565506, -0.2675707936286926, -0.08661746233701706, 0.19427978992462158, -0.13706138730049133, 0.3058488368988037, -0.15053248405456543, -0.15921097993850708], "bias": 0.10940668731927872, "activation_function": "RELU"}, {"weights": [0.07407655566930771, -0.14168871939182281, -0.14044888317584991, 0.039444223046302795, -0.2982597351074219, 0.45769235491752625, 0.12828071415424347, 0.46840134263038635, 0.367443710565567, 0.1872319132089615, 0.21372340619564056, -0.16533885896205902, -0.01547260768711567, -0.059755839407444, 0.08585996180772781, 0.10694914311170578, -0.07802148163318634, -0.01613166183233261], "bias": -0.3163171410560608, "activation_function": "RELU"}, {"weights": [0.15540578961372375, 0.5691277980804443, 0.39402133226394653, -0.2069060057401657, -0.2902339696884155, 0.7339425683021545, -0.0074576991610229015, 0.1495448797941208, 0.48050424456596375, 0.14419196546077728, -0.0016014095162972808, -0.17581114172935486, 0.6037725806236267, 0.11967034637928009, -0.45357847213745117, 0.43059098720550537, 0.8351243138313293, 0.0626160055398941], "bias": 0.3491990864276886, "activation_function": "RELU"}, {"weights": [-0.15992286801338196, 0.07399637252092361, -0.03270868957042694, 0.0023638952989131212, -0.4417801797389984, -0.031692441552877426, -0.0942344069480896, 0.46402084827423096, 0.10710128396749496, 0.4790273606777191, 0.4007628560066223, -0.08309990167617798, 0.08973565697669983, -0.2471809685230255, -0.2193249613046646, 0.19102796912193298, 0.12898707389831543, -0.007638211362063885], "bias": -0.36144185066223145, "activation_function": "RELU"}, {"weights": [0.20752276480197906, 0.4036230146884918, 0.3167545795440674, 0.03080095164477825, -0.032543376088142395, 0.23310719430446625, -0.18777777254581451, -0.17180147767066956, 0.16097846627235413, -0.019439736381173134, -0.1644115000963211, -0.05124180391430855, 0.1886153370141983, 0.12836532294750214, 0.10641074180603027, 0.012378687039017677, 0.26583799719810486, -0.11044128239154816], "bias": 0.2646111845970154, "activation_function": "RELU"}, {"weights": [-0.040162838995456696, 0.15629146993160248, -0.11312032490968704, 0.030191779136657715, -0.21186542510986328, 0.15970733761787415, 0.21565087139606476, -0.19623498618602753, 0.2325448840856552, 0.33497247099876404, 0.253513365983963, -0.23623840510845184, 0.353401780128479, 0.13904935121536255, 0.10542597621679306, -0.10207294672727585, -0.23483173549175262, -0.007284324150532484], "bias": 0.1734781712293625, "activation_function": "RELU"}, {"weights": [-0.15779460966587067, 0.5275949835777283, 0.13862240314483643, 0.11592995375394821, -0.19018900394439697, 0.2416149526834488, -0.07940875738859177, -0.08796627819538116, 0.1304370015859604, 0.34798237681388855, -0.5592179298400879, -0.0672491267323494, -0.045312028378248215, 0.4715527296066284, 0.4787469804286957, 0.9313513040542603, 0.3288176357746124, 0.21766111254692078], "bias": 0.5067998170852661, "activation_function": "RELU"}, {"weights": [-0.23178234696388245, -0.06265353411436081, -0.08464366942644119, -0.20630936324596405, 0.0401177816092968, -0.21612852811813354, 0.1423756629228592, 0.13796129822731018, 0.21954980492591858, -0.20147284865379333, -0.14428794384002686, -0.1592613011598587, -0.023547029122710228, -0.1501389592885971, 0.0488278903067112, -0.026543915271759033, -0.12952545285224915, -0.11344477534294128], "bias": -0.011436400935053825, "activation_function": "RELU"}, {"weights": [-0.053762584924697876, 0.1935221552848816, -0.12525713443756104, 0.06439080089330673, 0.16581761837005615, -0.20010477304458618, -0.020548401400446892, 0.06732314825057983, 0.044990647584199905, 0.2878265380859375, 0.021615374833345413, -0.22509339451789856, -0.20526644587516785, -0.24064089357852936, 0.31687527894973755, 0.20544221997261047, -0.04468848928809166, 0.20034833252429962], "bias": -0.06250284612178802, "activation_function": "RELU"}, {"weights": [-0.06761087477207184, -0.057727936655282974, 0.16070915758609772, 0.00863598007708788, 0.22922281920909882, -0.15197256207466125, 0.012193867936730385, -0.03269772231578827, -0.1287403702735901, 0.11067714542150497, 0.5590638518333435, -0.17706631124019623, 0.28108271956443787, -0.12360506504774094, 0.3255603015422821, -0.2293093204498291, 0.016970766708254814, -0.09462587535381317], "bias": 0.30445995926856995, "activation_function": "RELU"}, {"weights": [0.20112250745296478, -0.1986834555864334, -0.2029026746749878, 0.18979832530021667, 0.07594040036201477, 0.21601423621177673, 0.00604872964322567, -0.1288098692893982, 0.12789210677146912, 0.4029112756252289, 0.35163018107414246, 0.17435704171657562, 0.10889972001314163, 0.025176221504807472, -0.08659903705120087, 0.06331291794776917, -0.06415300816297531, 0.03806786239147186], "bias": 0.16238726675510406, "activation_function": "RELU"}, {"weights": [-0.031023550778627396, 0.023575039580464363, -0.04040456935763359, -0.14155630767345428, -0.3042716383934021, 0.35550057888031006, -0.19945497810840607, 0.17377997934818268, 0.22835862636566162, 0.10317468643188477, 0.4797598123550415, -0.1185450479388237, 0.08716914057731628, -0.18567527830600739, -0.18612077832221985, -0.012282248586416245, -0.19218912720680237, 0.12472707033157349], "bias": 0.21636560559272766, "activation_function": "RELU"}], [{"weights": [0.07793397456407547, -0.09714164584875107, 0.2397795170545578, 0.056748803704977036, -0.049592092633247375, -0.17309878766536713, 0.061011217534542084, 0.015603390522301197, -0.0935373604297638, -0.12877905368804932, 0.06079737842082977, -0.1258355975151062, 0.11623615026473999, -0.1166844442486763, -0.15835687518119812, 0.10495884716510773, -0.09924573451280594, -0.1577734798192978, 0.12831352651119232, -0.05435582995414734, 0.14036782085895538, -0.15869954228401184, 0.15555575489997864, 0.08603464066982269, 0.11689448356628418, 0.07855524867773056, 0.08376646786928177, -0.021178651601076126, 0.08158502727746964, 0.21364834904670715, 0.18396957218647003, 0.15397091209888458, -0.12658868730068207, -0.09749945998191833, 0.046305254101753235, 0.03773527219891548], "bias": 0.1912105530500412, "activation_function": "RELU"}, {"weights": [0.04271725192666054, 0.14180052280426025, 0.15110695362091064, -0.03567836433649063, 0.0516013577580452, -0.251773864030838, -0.16665029525756836, -0.24548006057739258, 0.06734710931777954, -0.1976863443851471, 0.08139349520206451, -0.06426733732223511, -0.1119823232293129, -0.09937313944101334, 0.04387986660003662, 0.0092235766351223, 0.014767782762646675, -0.050671935081481934, -0.1903676837682724, 0.029316585510969162, -0.17765571177005768, -0.13453952968120575, -0.1115524098277092, -0.005906999111175537, 0.051230210810899734, 0.18347270786762238, 0.03725486621260643, 0.11962069571018219, 0.16321521997451782, 0.11597207933664322, 0.08889559656381607, 0.06313085556030273, 0.09193889051675797, -0.1746223270893097, 0.012209832668304443, 0.03551940619945526], "bias": -0.1616687774658203, "activation_function": "RELU"}, {"weights": [0.04601839557290077, -0.15384715795516968, -0.04668182134628296, -0.06488513201475143, -0.14799124002456665, 0.07315969467163086, 0.11226426064968109, -0.17681165039539337, -0.15401829779148102, 0.002862994559109211, -0.08609618991613388, 0.10129518806934357, -0.01858363300561905, -0.007810086477547884, 0.059935323894023895, -0.14145104587078094, -0.02819182723760605, -0.1882091909646988, -0.12569266557693481, -0.10946027934551239, 0.1642569601535797, 0.1424887329339981, 0.1440725177526474, 0.078395314514637, -0.11231669783592224, 0.14048224687576294, 0.1355895698070526, 0.0005860710516571999, 0.14561691880226135, 0.113783098757267, 0.05154969543218613, 0.12309730052947998, 0.05013886094093323, -0.06323903799057007, 0.17873182892799377, 0.15413588285446167], "bias": -0.07505230605602264, "activation_function": "RELU"}, {"weights": [-0.167275071144104, -0.07547543942928314, -0.15616963803768158, 0.06857866793870926, -0.1325661540031433, -0.20346848666667938, -0.005836208816617727, 0.2281605452299118, -0.05174073576927185, -0.040565453469753265, -0.277156800031662, 0.09399469196796417, 0.07277298718690872, 0.09515788406133652, -0.014734474010765553, -0.08385825157165527, -0.06748450547456741, 0.09693203866481781, -0.08512178808450699, 0.422210156917572, -0.005704957060515881, -0.138555645942688, 0.28612297773361206, -0.2869843542575836, 0.16946028172969818, 0.10263192653656006, 0.43475860357284546, -0.05541541799902916, -0.004076335579156876, -0.0818881243467331, 0.2834199070930481, 0.06820795685052872, -0.1071123406291008, -0.1294553130865097, -0.14265091717243195, 0.04100385680794716], "bias": 0.43733394145965576, "activation_function": "RELU"}, {"weights": [0.017449071630835533, -0.14523805677890778, 0.26556968688964844, -0.09398305416107178, -0.05240998789668083, -0.3179812431335449, 0.07135777175426483, 0.011845884844660759, -0.057546719908714294, 0.12214130908250809, 0.04928484559059143, 0.16589175164699554, 0.03516669571399689, -0.07586153596639633, -0.13194602727890015, 0.05504025146365166, -0.04447918012738228, -0.2291044145822525, -0.09359102696180344, 0.2942269444465637, 0.03770017996430397, -0.1727331131696701, 0.231961190700531, -0.19223082065582275, -0.09727923572063446, 0.0755215510725975, 0.34130531549453735, 0.07738247513771057, -0.10520810633897781, 0.029566705226898193, 0.14121992886066437, -0.08389618247747421, -0.08068792521953583, 0.12332779914140701, 0.22226743400096893, 0.23536336421966553], "bias": 0.4662843644618988, "activation_function": "RELU"}, {"weights": [0.05945880338549614, -0.0766252800822258, 0.259324848651886, -0.056148093193769455, -0.029214592650532722, -0.1911984384059906, 0.04467561095952988, 0.012018888257443905, -0.05119119584560394, 0.1909504234790802, -0.06749694794416428, 0.24120435118675232, 0.19436056911945343, 0.002520538168027997, 0.11906608939170837, -0.08670102059841156, -0.08022789657115936, -0.08855520188808441, 0.11424880474805832, 0.12300793826580048, 0.14907748997211456, -0.13060472905635834, 0.03065679408609867, -0.1274903565645218, 0.02948412112891674, -0.08829616010189056, 0.2472316175699234, 0.013934651389718056, 0.10958049446344376, 0.19531051814556122, 0.2657199501991272, 0.01881290227174759, -0.14603713154792786, -0.01889241300523281, -0.061364565044641495, 0.04032145068049431], "bias": 0.35101959109306335, "activation_function": "RELU"}, {"weights": [0.003510752459987998, -0.03722231090068817, 0.007931503467261791, 0.03813417628407478, -0.1980815976858139, -0.08962437510490417, -0.035165928304195404, 0.17879709601402283, 0.164826437830925, -0.0239301435649395, -0.08158307522535324, 0.26102572679519653, 0.33790233731269836, -0.09289415180683136, -0.14079560339450836, 0.14833533763885498, -0.19787533581256866, -0.07749272137880325, -0.10440269112586975, 0.22015498578548431, -0.08194772154092789, 0.034835103899240494, 0.1735106110572815, 0.12666168808937073, 0.14439916610717773, -0.1964997947216034, 0.30795735120773315, -0.2780822813510895, 0.21605870127677917, 0.20389267802238464, 0.29930293560028076, -0.08636051416397095, -0.0681370198726654, -0.11582014709711075, -0.09767740964889526, -0.07536627352237701], "bias": 0.35355591773986816, "activation_function": "RELU"}, {"weights": [0.08435667306184769, 0.12385301291942596, -0.16301144659519196, 0.2653692960739136, 0.27204179763793945, 0.07098876684904099, 0.15460024774074554, -0.00773831270635128, 0.13392919301986694, 0.0609540119767189, -0.14198078215122223, 0.14897067844867706, 0.014510254375636578, 0.1746240109205246, -0.11350341141223907, 0.1452510505914688, 0.07403070479631424, -0.04476506635546684, 0.0024658453185111284, 0.05944586917757988, -0.17105066776275635, -0.1935509592294693, -0.06646111607551575, -0.12069973349571228, -0.07345548272132874, 0.09540262073278427, 0.3146780729293823, -0.11718147248029709, 0.1357421725988388, -0.03884704411029816, 0.2893671989440918, 0.14284521341323853, 0.0877947211265564, -0.2645484209060669, -0.23039735853672028, -0.14165040850639343], "bias": -0.2718525230884552, "activation_function": "RELU"}, {"weights": [-0.12278140336275101, 0.014508075080811977, -0.10851235687732697, -0.07711796462535858, 0.07607864588499069, -0.0529765859246254, -0.07394757121801376, -0.013780765235424042, -0.13683271408081055, -0.09132136404514313, -0.11786829680204391, 0.147941455245018, -0.16961351037025452, -0.1418023258447647, -0.028243642300367355, 0.08045186847448349, -0.162046879529953, 0.0010896959574893117, -0.15274588763713837, -0.11194434762001038, -0.16288499534130096, 0.15455308556556702, -0.15611746907234192, 0.08737924695014954, 0.048062764108181, 0.08782455325126648, 0.014504759572446346, -0.10671049356460571, 0.0594598688185215, 0.055534034967422485, 0.02066332846879959, 0.06389707326889038, 0.09179014712572098, -0.1398996263742447, 0.054139651358127594, 0.11097294837236404], "bias": 0.002508791396394372, "activation_function": "RELU"}, {"weights": [-0.041691817343235016, 0.11018155515193939, 0.19670312106609344, 0.18370263278484344, 0.23327651619911194, 0.04178068786859512, 0.008625557646155357, -0.2289031445980072, -0.170963317155838, 0.08255738019943237, 0.17159055173397064, 0.290946364402771, 0.027210766449570656, -0.09955992549657822, 0.04849721118807793, -0.07213763892650604, 0.28136175870895386, -0.037746649235486984, 0.17081578075885773, -0.272048681974411, -0.1449170708656311, 0.03633882850408554, 0.01629861444234848, 0.155265212059021, 0.004026014357805252, 0.0015129083767533302, -0.0974976196885109, -0.20212391018867493, -0.012284977361559868, -0.15656408667564392, 0.3955613374710083, 0.10992693901062012, 0.042292673140764236, 0.006062530446797609, 0.030318545177578926, -0.2862726151943207], "bias": -0.09374101459980011, "activation_function": "RELU"}, {"weights": [-0.24574662744998932, -0.1966697722673416, -0.11514341086149216, 0.03871289640665054, -0.16152015328407288, 0.028692010790109634, 0.1360202133655548, 0.2769804298877716, 0.06777271628379822, 0.22954972088336945, -0.33967849612236023, 0.10447998344898224, 0.3852553963661194, -0.1080559566617012, 0.11877088248729706, 0.1145990714430809, 0.01570671983063221, -0.12071210145950317, -0.016528161242604256, 0.3924277424812317, -0.05031098797917366, -0.34343191981315613, 0.31457555294036865, -0.01311060506850481, 0.15496666729450226, -0.221651092171669, 0.22966666519641876, -0.2120780348777771, 0.09594164788722992, -0.19551508128643036, 0.16740038990974426, 0.14735858142375946, -0.1069636195898056, 0.06332514435052872, -0.16768845915794373, -0.112060546875], "bias": 0.2854076325893402, "activation_function": "RELU"}, {"weights": [0.1446964144706726, -0.07080422341823578, -0.054902683943510056, -0.08023049682378769, 0.10218740254640579, -0.0870174989104271, -0.1197592243552208, -0.06217154860496521, 0.05543892830610275, -0.037563372403383255, 0.09725576639175415, -0.12705525755882263, -0.10048046708106995, 0.0767085924744606, -0.0836944505572319, 0.026944832876324654, -0.1389165073633194, -0.03540768846869469, 0.13271531462669373, 0.25051644444465637, -0.13642951846122742, 0.33366528153419495, 0.14705397188663483, -0.08277945965528488, -0.12449176609516144, 0.06479300558567047, 0.20776094496250153, 0.36964207887649536, 0.10072596371173859, 0.08466726541519165, -0.09171640127897263, -0.1199537143111229, -0.13625888526439667, -0.07259918749332428, 0.12349607050418854, 0.12074735015630722], "bias": -0.322826623916626, "activation_function": "RELU"}, {"weights": [-0.02829512394964695, 0.11375244706869125, -0.0793645977973938, 0.13866214454174042, -0.1120210587978363, 0.2693869173526764, -0.1152978166937828, 0.038807667791843414, 0.07450523972511292, 0.05694142356514931, 0.16949978470802307, -0.04356784373521805, 0.0020175757817924023, -0.15239936113357544, 0.1227811947464943, -0.1409761905670166, 0.06714131683111191, -0.09178196638822556, -0.29277876019477844, -0.16846653819084167, -0.04834283888339996, 0.11652478575706482, 0.02098720148205757, -0.0116545669734478, 0.19282840192317963, 0.11253080517053604, -0.2135014683008194, -0.09515232592821121, -0.15142486989498138, -0.01014083344489336, -0.1705750972032547, -0.1129990816116333, 0.1171407625079155, -0.06058938056230545, 0.07357744872570038, 0.07234068214893341], "bias": -0.08041433244943619, "activation_function": "RELU"}, {"weights": [-0.012600013986229897, 0.10078545659780502, -0.10611873120069504, -0.05418755114078522, -0.019278785213828087, -0.26672452688217163, -0.023680806159973145, 0.006606120616197586, -0.08921938389539719, 0.1337381899356842, 0.007767902687191963, -0.13020622730255127, 0.1370197981595993, -0.09312300384044647, 0.05093074217438698, -0.10389366000890732, -0.0520145483314991, -0.10140813142061234, 0.06868687272071838, 0.3187575936317444, 0.11243819445371628, 0.03755064308643341, -0.007320035248994827, -0.2497767060995102, -0.020288970321416855, -0.017012398689985275, 0.4228684604167938, 0.031758811324834824, 0.030171385034918785, 0.03331344202160835, 0.03135417774319649, 0.07667923718690872, -0.15470200777053833, -0.06973336637020111, -0.005587839987128973, 0.22347697615623474], "bias": -0.1633727252483368, "activation_function": "RELU"}, {"weights": [-0.1218462586402893, 0.12152281403541565, 0.27897340059280396, -0.004887915216386318, 0.0716838538646698, -0.11628056317567825, 0.07161818444728851, -0.061808668076992035, -0.11723121255636215, 0.10486207902431488, -0.0936402752995491, 0.01885647140443325, 0.018742628395557404, 0.1015305444598198, -0.10935510694980621, 0.12165684998035431, 0.09959679841995239, -0.09824879467487335, 0.08703222125768661, 0.11417656391859055, 0.029073869809508324, -0.013250982388854027, -0.052869170904159546, 0.04586084559559822, 0.04573272913694382, 0.1344742774963379, 0.0018000889103859663, -0.08715085685253143, 0.07763252407312393, 0.09236221760511398, 0.2588537931442261, 0.1620156615972519, 0.1035613939166069, -0.04596906900405884, 0.06448807567358017, -0.029874103143811226], "bias": 0.3156781792640686, "activation_function": "RELU"}, {"weights": [0.04512060806155205, -0.12857773900032043, 0.07460615783929825, 0.05762471631169319, -0.11682673543691635, 0.173524409532547, -0.08391108363866806, 0.04393667355179787, -0.1572907269001007, -0.15338876843452454, 0.10748039931058884, -0.1723826378583908, 0.08378252387046814, 0.06250960379838943, 0.15604142844676971, 0.12435319274663925, 0.02138538472354412, 0.10091738402843475, 0.1275096982717514, -0.021838665008544922, -0.005204292014241219, -0.10248274356126785, 0.06946131587028503, 0.2324523776769638, -0.12451416254043579, -0.11961996555328369, -0.06564460694789886, 0.12474806606769562, 0.10377035290002823, 0.235215961933136, -0.08852756768465042, -0.09151673316955566, 0.11928657442331314, 0.3074820637702942, 0.09468086063861847, 0.004069765098392963], "bias": 0.35875895619392395, "activation_function": "RELU"}, {"weights": [0.14274613559246063, 0.2034129500389099, 0.006739180535078049, 0.15388177335262299, 0.28770342469215393, -0.09704521298408508, -0.09747684001922607, -0.1332448124885559, -0.14210067689418793, -0.13916726410388947, 0.2041487991809845, 0.18123410642147064, -0.28137069940567017, -0.03256221115589142, -0.10926493257284164, -0.02663271315395832, 0.036268506199121475, 0.17655865848064423, -0.050474170595407486, -0.29412150382995605, -0.1325482428073883, 0.024380119517445564, -0.14155831933021545, -0.1303284764289856, -0.030209099873900414, -0.03513393551111221, -0.05859491974115372, 0.24465163052082062, -0.1363830715417862, -0.06192665547132492, 0.36822912096977234, -0.11294382810592651, 0.11356434971094131, -0.005634635221213102, -0.11495599150657654, 0.017173735424876213], "bias": -0.2940758466720581, "activation_function": "RELU"}, {"weights": [0.03834306448698044, -0.0721815899014473, 0.19845780730247498, 0.07809483259916306, -0.010360720567405224, -0.12640707194805145, -0.123860202729702, -0.0452716089785099, 0.000523408642038703, 0.15296560525894165, 0.04775231331586838, -0.07331345975399017, 0.059594377875328064, -0.029610056430101395, -0.08128654956817627, -0.021491190418601036, -0.06490951031446457, -0.035731080919504166, -0.13170060515403748, 0.18042157590389252, 0.14521963894367218, 0.145368754863739, 0.094456747174263, 0.001317953341640532, -0.17640139162540436, 0.060935623943805695, -0.0027563495095819235, 0.044843170791864395, -0.06582464277744293, 0.15863512456417084, 0.09423889219760895, 0.05992480739951134, -0.04665691778063774, -0.10300263017416, -0.05713020637631416, 0.2437247782945633], "bias": -0.2970941662788391, "activation_function": "RELU"}, {"weights": [0.039040807634592056, -0.03645559027791023, 0.29181811213493347, -0.19589784741401672, -0.036208197474479675, 0.03925514593720436, 0.04412569850683212, -0.11444912105798721, -0.00018470922077540308, 0.05971579626202583, 0.04124927893280983, -0.06415967643260956, -0.20897184312343597, -0.021006446331739426, -0.02494761347770691, 0.029804321005940437, -0.11107177287340164, -0.14714603126049042, 0.0304642915725708, -0.10850269347429276, 0.09459011256694794, 0.2987200617790222, -0.19163484871387482, 0.23710648715496063, 0.11463676393032074, 0.23820601403713226, 0.1926966905593872, -0.00579339312389493, 0.09013261646032333, 0.20360462367534637, -0.24352644383907318, 0.06953836977481842, -0.07248816639184952, 0.1671067774295807, 0.23723892867565155, -0.04167039319872856], "bias": -0.008617154322564602, "activation_function": "RELU"}, {"weights": [-0.016330623999238014, -0.14808624982833862, -0.13387000560760498, -0.08649417012929916, 0.04285335913300514, 0.05423936992883682, 0.12555429339408875, 0.14344578981399536, 0.2925991117954254, 0.028612585738301277, -0.07494103908538818, -0.19908516108989716, 0.08644462376832962, -0.08475258201360703, -0.1529296636581421, 0.003112965961918235, -0.09590670466423035, -0.11956501752138138, 0.36496928334236145, 0.4520098865032196, 0.1439383327960968, 0.16494359076023102, 0.03278724476695061, -0.15369169414043427, 0.09014420211315155, 0.0063343532383441925, 0.5021659731864929, 0.2545869052410126, -0.012278581038117409, 0.008326251059770584, -0.2699568271636963, -0.08733295649290085, 0.02209930680692196, -0.16424621641635895, -0.11769013851881027, 0.021217484027147293], "bias": -0.30020660161972046, "activation_function": "RELU"}, {"weights": [0.10330062359571457, 0.04439647123217583, -0.0914960727095604, -0.04767124354839325, 0.1571412980556488, 0.35020190477371216, -0.005612256471067667, -0.09621031582355499, 0.07522837072610855, 0.1730288565158844, -0.10938937216997147, 0.2021133452653885, 0.25889506936073303, -0.11210165172815323, 0.014319758862257004, -0.011528987437486649, 0.15429659187793732, 0.10557744652032852, 0.19518977403640747, -0.018160995095968246, 0.12317732721567154, -0.1865052729845047, -0.19128330051898956, 0.028038889169692993, 0.23479939997196198, -0.214852437376976, 0.011170857585966587, -0.2597547173500061, 0.11906921863555908, -0.06787508726119995, 0.227772057056427, 0.00011643051402643323, -0.0645487904548645, 0.12136152386665344, 0.052786994725465775, -0.2016335129737854], "bias": -0.10413390398025513, "activation_function": "RELU"}, {"weights": [0.037230025976896286, -0.0654079020023346, -0.008059450425207615, -0.13433648645877838, -0.20220418274402618, 0.3269127905368805, -0.1089501827955246, 0.25940433144569397, 0.3101349472999573, -0.018982384353876114, 0.19810761511325836, -0.24079661071300507, -0.0691973865032196, -0.10491693764925003, 0.07743313163518906, -0.04025668278336525, -0.061125341802835464, -0.16493631899356842, -0.07895536720752716, 0.15064017474651337, 0.020508700981736183, 0.3648838400840759, 0.20182214677333832, 0.05597309768199921, -0.050731923431158066, -0.12493312358856201, 0.12168136984109879, -0.15103892982006073, 0.1497640311717987, 0.2552471160888672, -0.39360836148262024, -0.02137014828622341, 0.10313131660223007, 0.3463273346424103, 0.16887494921684265, 0.08395123481750488], "bias": 0.3839471638202667, "activation_function": "RELU"}, {"weights": [-0.09082213044166565, -0.06903335452079773, -0.23494088649749756, -0.19228877127170563, -0.06937691569328308, 0.1728747934103012, 0.06805384159088135, 0.36308324337005615, 0.03178408741950989, 0.2502199709415436, -0.09963372349739075, 0.00800073891878128, 0.05827325955033302, -0.036957498639822006, 0.07419402152299881, -0.01294040773063898, 0.026492130011320114, 0.04630373418331146, 0.13699877262115479, 0.32969221472740173, 0.04359165206551552, 0.09198421239852905, 0.20333360135555267, -0.26253190636634827, 0.1301347315311432, 0.12109407782554626, 0.3510414659976959, 0.05040930211544037, -0.007955403998494148, 0.03634750470519066, -0.41795074939727783, -0.10849180072546005, -0.2608715295791626, 0.18636170029640198, 0.2333478331565857, 0.2279796153306961], "bias": 0.4161726236343384, "activation_function": "RELU"}, {"weights": [0.1834511011838913, 0.11237867921590805, 0.16862131655216217, -0.126207634806633, -0.22026288509368896, 0.11475391685962677, 0.03319970890879631, 0.20955580472946167, -0.10977382957935333, -0.005220085848122835, 0.1687031388282776, 0.06372705847024918, 0.30692315101623535, 0.08389350026845932, 0.1377454400062561, -0.04299595206975937, 0.10602632164955139, -0.14323295652866364, -0.11843323707580566, -0.007106349803507328, 0.05248096585273743, 0.08461694419384003, -0.030180437490344048, 0.4177928864955902, -0.01865951158106327, -0.09833237528800964, -0.12947604060173035, -0.3071924149990082, 0.17378823459148407, 0.134309783577919, -0.015538277104496956, 0.021277399733662605, -0.061932336539030075, 0.05489753559231758, 0.21536587178707123, -0.031533900648355484], "bias": 0.5853047966957092, "activation_function": "RELU"}, {"weights": [0.020854096859693527, -0.12213864177465439, -0.12979914247989655, -0.09105150401592255, 0.0420820415019989, 0.4029594957828522, -0.04751918837428093, -0.015154404565691948, -0.0276076328009367, 0.05160096660256386, 0.1863989233970642, -0.09660180658102036, 0.13189443945884705, -0.06631708890199661, 0.0054227374494075775, 0.15968911349773407, 0.1873479038476944, -0.023090174421668053, -0.11252123862504959, 0.05511321872472763, -0.1547018438577652, 0.13787122070789337, -0.0548616498708725, 0.16209636628627777, -0.08725889027118683, -0.10641958564519882, -0.18830005824565887, -0.2148447483778, 0.013576927594840527, 0.10051541030406952, -0.2252865880727768, -0.13854539394378662, -0.0625183954834938, 0.03186161816120148, 0.028552375733852386, -0.1310213804244995], "bias": -0.14626000821590424, "activation_function": "RELU"}, {"weights": [0.11226139217615128, -0.07452120631933212, 0.03446812927722931, 0.17853078246116638, 0.04932823032140732, -0.18201790750026703, -0.047969281673431396, -0.24732592701911926, 0.16576674580574036, -0.08237588405609131, -0.005958560388535261, 0.087728351354599, 0.03723049908876419, -0.04149952903389931, -0.15815719962120056, -0.022304724901914597, 0.15018194913864136, 0.1494021713733673, 0.2787178158760071, -0.008106173016130924, 0.027789471670985222, -0.03450385853648186, -0.14692971110343933, -0.0980432778596878, 0.12076662480831146, 0.09116896241903305, 0.161752849817276, -0.02051394246518612, 0.07897383719682693, 0.09632452577352524, 0.23959416151046753, -0.013934822753071785, 0.055645983666181564, -0.26712921261787415, 0.058682411909103394, 0.09727694094181061], "bias": -0.35403668880462646, "activation_function": "RELU"}, {"weights": [-0.03956810012459755, -0.08735953271389008, -0.1278332769870758, -0.10824242234230042, -0.12099012732505798, 0.041234374046325684, 0.11467182636260986, 0.15947462618350983, 0.14519263803958893, 0.007514601107686758, -0.00490501569584012, 0.13211393356323242, -0.023657189682126045, 0.017154458910226822, 0.12273707985877991, 0.03818011283874512, -0.08970781415700912, 0.06307376176118851, 0.017437169328331947, -0.01984022557735443, 0.1368926614522934, 0.11952736973762512, -0.10512793809175491, 0.05136270821094513, -0.16591964662075043, 0.05042542517185211, -0.2383471429347992, 0.09104262292385101, 0.10039050877094269, 0.03434537351131439, -0.07743722200393677, 0.11480995267629623, -0.1401723027229309, 0.06576469540596008, 0.10807577520608902, -0.04725859686732292], "bias": 0.031185850501060486, "activation_function": "RELU"}, {"weights": [0.07598958909511566, 0.026066038757562637, -0.45652082562446594, -0.13402311503887177, -0.1667635142803192, 0.1795686036348343, -0.0052919588051736355, -0.003795358119532466, 0.09107337892055511, 0.17010754346847534, -0.4012535810470581, -0.021649731323122978, 0.3646523654460907, 0.06591290980577469, 0.13149461150169373, 0.14359311759471893, 0.20787060260772705, -0.1074555367231369, 0.17507404088974, 0.17485354840755463, 0.1395779550075531, -0.05713294446468353, 0.19874481856822968, -0.32547512650489807, 0.005740522872656584, -0.28118276596069336, 0.27737653255462646, -0.18626438081264496, -0.019416483119130135, 0.04697801545262337, 0.14193591475486755, -0.09701484441757202, -4.125138730159961e-05, -0.016648398712277412, 0.06940650939941406, 0.02617677114903927], "bias": 0.34467360377311707, "activation_function": "RELU"}, {"weights": [-0.101241834461689, 0.035066284239292145, -0.050102803856134415, -0.16500721871852875, -0.1318056583404541, 0.03216094896197319, 0.07440899312496185, 0.18967045843601227, 0.045707184821367264, 0.008659064769744873, 0.08611351996660233, 0.1361275315284729, 0.08363445103168488, 0.10013290494680405, 0.11173529177904129, -0.08045770227909088, 0.06717837601900101, 0.02818947099149227, -0.14370527863502502, 0.19550518691539764, 0.004279310815036297, -0.24244262278079987, -0.04991283640265465, 0.029079750180244446, -0.07939065992832184, -0.1411791294813156, 0.15944544970989227, -0.11312643438577652, 0.04097447171807289, 0.015247865580022335, 0.22429980337619781, 0.14240586757659912, -0.018861159682273865, 0.14133967459201813, -0.1430078148841858, -0.004951470997184515], "bias": 0.3345547616481781, "activation_function": "RELU"}, {"weights": [-0.09892994165420532, -0.030353447422385216, 0.08003326505422592, -0.04075608775019646, -0.16396211087703705, -0.05324413627386093, 0.033672790974378586, -0.15351621806621552, 0.13741318881511688, -0.024491768330335617, 0.06949935853481293, -0.16569951176643372, 0.012960871681571007, 0.012845615856349468, 0.10679358243942261, 0.07797932624816895, -0.06366642564535141, 0.15156684815883636, -0.15688952803611755, 0.05933980271220207, -0.05434008687734604, -0.1386878788471222, 0.13659128546714783, 0.06671413034200668, -0.07539284229278564, -0.03751105070114136, -0.15250727534294128, -0.013869285583496094, -0.16409337520599365, 0.043657682836055756, 0.01641072891652584, -0.15849271416664124, -0.10345703363418579, -0.13199011981487274, -0.008550207130610943, -0.06050992012023926], "bias": -0.1412758082151413, "activation_function": "RELU"}, {"weights": [0.010165858082473278, -0.2155255824327469, -0.19272306561470032, -0.04631423577666283, 0.05701056867837906, 0.018080078065395355, -0.10064232349395752, 0.053828198462724686, 0.09228368103504181, -0.10361224412918091, -0.0921478122472763, 0.02007020264863968, -0.032237812876701355, -0.14857007563114166, 0.15339374542236328, -0.05819016322493553, -0.0324767604470253, -0.04414331167936325, 0.15285490453243256, 0.2305476814508438, -0.022963600233197212, -0.20795638859272003, 0.0031015570275485516, -0.11418555676937103, -0.04816283658146858, 0.11354638636112213, 0.20532290637493134, -0.04979901760816574, -0.1353086233139038, 0.0711868479847908, 0.07302434742450714, -0.007478708401322365, -0.19439104199409485, -0.11618176847696304, -0.1304941475391388, 0.16467620432376862], "bias": 0.06595804542303085, "activation_function": "RELU"}, {"weights": [0.1531781554222107, 0.2866670787334442, 0.3296346962451935, 0.08062144368886948, 0.35302606225013733, -0.023224355652928352, -0.10138989984989166, -0.01809154637157917, -0.12075122445821762, -0.027159834280610085, 0.32545748353004456, -0.06677255779504776, -0.3912101686000824, -0.054703157395124435, -0.14521674811840057, -0.11955000460147858, 0.27844542264938354, -0.18586601316928864, -0.050966378301382065, -0.46780237555503845, 0.18498778343200684, 0.2234894335269928, 0.08953605592250824, 0.36860522627830505, -0.09294671565294266, 0.14795911312103271, -0.27707964181900024, -0.032450802624225616, -0.29265090823173523, -0.12811283767223358, -0.18503925204277039, 0.12443195283412933, 0.26956576108932495, 0.1150919497013092, 0.024900954216718674, 0.040367648005485535], "bias": -0.10333453863859177, "activation_function": "RELU"}, {"weights": [-0.1754823625087738, -0.16194993257522583, -0.08856586366891861, 0.13810251653194427, 0.11443157494068146, -0.22966833412647247, 0.058328770101070404, -0.09213834255933762, 0.09995456039905548, 0.06853248178958893, -0.1162504330277443, 0.051997195929288864, -0.041097141802310944, -0.05002110078930855, 0.009445716626942158, 0.11415688693523407, -0.08452881872653961, 0.015390999615192413, -0.11422450095415115, 0.04950648173689842, -0.029789762571454048, -0.02340102568268776, -0.08853480219841003, -0.2650681436061859, -0.006823069415986538, -0.02692406065762043, 0.25043514370918274, 0.03184707835316658, 0.041143354028463364, 0.04095835238695145, 0.25346049666404724, 0.036240722984075546, -0.2251710742712021, -0.011504660360515118, -0.08722906559705734, -0.08620914071798325], "bias": -0.10615681856870651, "activation_function": "RELU"}, {"weights": [-0.10440249741077423, 0.050016358494758606, -0.0023393677547574043, 0.07948453724384308, -0.16675573587417603, -0.32541537284851074, -0.13518452644348145, -0.10820628702640533, -0.05258209630846977, -0.07366563379764557, -0.022462401539087296, 0.2562197148799896, 0.13325825333595276, 0.04131211340427399, -0.07151197642087936, 0.18910682201385498, -0.0622723363339901, -0.16364586353302002, -0.05883647873997688, 0.12618446350097656, -0.09993333369493484, -0.10083185136318207, 0.014701596461236477, 0.03922513872385025, -0.009349580854177475, 0.05523937940597534, 0.16532771289348602, 0.11636123061180115, -0.01857735589146614, 0.09834269434213638, 0.2979588806629181, -0.1051599457859993, 0.18080487847328186, 0.061163827776908875, 0.04353514313697815, 0.06800831854343414], "bias": 0.5910866856575012, "activation_function": "RELU"}, {"weights": [0.20884324610233307, -0.017214855179190636, 0.23364630341529846, -0.10734215378761292, 0.20875126123428345, -0.07001988589763641, 0.026599658653140068, -0.12439662218093872, 0.02891758643090725, 0.08034957200288773, 0.019697152078151703, -0.13997676968574524, 0.032931189984083176, 0.05559149384498596, -0.10581142455339432, -0.17088301479816437, -0.07170450687408447, 0.08661473542451859, 0.12755195796489716, 0.0523085780441761, -0.12679317593574524, 0.06248543784022331, -0.13485054671764374, 0.07236067950725555, -0.22543010115623474, 0.24602150917053223, 0.27295735478401184, 0.08416053652763367, 0.06992034614086151, -0.03039199858903885, 0.06482914835214615, 0.04958820343017578, 0.08727260679006577, -0.09165989607572556, -0.03889229893684387, -0.015099256299436092], "bias": -0.313277930021286, "activation_function": "RELU"}, {"weights": [-0.10117362439632416, -0.02586686611175537, 0.09995824098587036, -0.04970782250165939, 0.13224700093269348, 0.17234846949577332, 0.07688222825527191, 0.00503133237361908, -0.021593593060970306, -0.1200118213891983, -0.0291131604462862, 0.044966887682676315, 0.26939862966537476, -0.1485424041748047, -0.0795954167842865, -0.05404749885201454, -0.16874480247497559, 0.03295517712831497, 0.00866489578038454, 0.017667358741164207, -0.00680403271690011, -0.08898324519395828, -0.033597566187381744, -0.012115598656237125, 0.13088898360729218, -0.22416414320468903, 0.2341744750738144, -0.26516762375831604, 0.18253573775291443, -0.04303528741002083, 0.3261512815952301, 0.15528354048728943, 0.1295188069343567, -0.1693303883075714, 0.12163564562797546, -0.162167489528656], "bias": 0.28669247031211853, "activation_function": "RELU"}, {"weights": [-0.12609261274337769, 0.11314398050308228, 0.23385418951511383, 0.18105663359165192, 0.16825179755687714, -0.38257184624671936, -0.15409666299819946, -0.287313848733902, -0.09009425342082977, 0.0008694723946973681, 0.15131498873233795, 0.16801460087299347, -0.12822233140468597, 0.05427676811814308, -0.10490884631872177, -0.09346947818994522, 0.09345747530460358, -0.1819208711385727, 0.2643622159957886, 0.07460173964500427, -0.18043211102485657, 0.14964599907398224, -0.12185030430555344, -0.20379480719566345, -0.14663858711719513, 0.2566598951816559, 0.2305397391319275, 0.15242035686969757, -0.002779879607260227, 0.11274997144937515, 0.15934446454048157, -0.12315540760755539, -0.1413733959197998, -0.2624984085559845, 0.19223904609680176, 0.09738938510417938], "bias": -0.0552639476954937, "activation_function": "RELU"}, {"weights": [-0.09079170227050781, -0.07765821367502213, 0.04797704890370369, 0.08682788908481598, -0.0317101776599884, 0.03452889993786812, 0.0947517603635788, -0.171584352850914, 0.2372751086950302, -0.1216847151517868, -0.0856190174818039, 0.10261449962854385, 0.005707512143999338, -0.1301267296075821, -0.16254526376724243, 0.054996244609355927, 0.07236985117197037, 0.12758904695510864, -0.05854647606611252, 0.17538854479789734, -0.07570941746234894, 0.0717039480805397, -0.09437182545661926, 0.09212834388017654, 0.07285340875387192, 0.05960015580058098, 0.24771563708782196, 0.04914434254169464, -0.00909663736820221, 0.1687379628419876, -0.0691332295536995, 0.15080179274082184, -0.1981942355632782, -0.1418796181678772, 0.19837908446788788, 0.04686860740184784], "bias": -0.23978136479854584, "activation_function": "RELU"}, {"weights": [0.007962365634739399, -0.03622065484523773, -0.13019022345542908, 0.010245297104120255, 0.012813766486942768, -0.08994290232658386, -0.16342388093471527, 0.21873514354228973, 0.1414283812046051, 0.20070651173591614, -0.2816303074359894, -0.012187264859676361, 0.167138010263443, -0.11405669897794724, -0.015843216329813004, -0.07476013898849487, 0.042820703238248825, -0.14243100583553314, 0.04368601366877556, 0.1317950189113617, 0.19699512422084808, -0.01219337247312069, 0.10538830608129501, -0.09172564744949341, 0.10158927738666534, -0.22290019690990448, 0.29647767543792725, 0.10555098205804825, -0.10747796297073364, -0.17311875522136688, 0.044675469398498535, 0.04817894473671913, 0.008279290981590748, -0.07470482587814331, -0.08869104832410812, -0.1415548473596573], "bias": 0.1067422553896904, "activation_function": "RELU"}, {"weights": [0.02601093053817749, 0.1492106169462204, -0.112507663667202, 0.05221990868449211, -0.03462183475494385, 0.04471886157989502, 0.16038332879543304, 0.020176848396658897, 0.019267380237579346, 0.08192925155162811, 0.04549872875213623, -0.0493839792907238, -0.07293053716421127, -0.016944866627454758, -0.001153071760199964, 0.09888573735952377, -0.1609015315771103, 0.05187676474452019, 0.09180092811584473, -0.15369242429733276, -0.14496706426143646, -0.030225973576307297, 0.04979697987437248, -0.03321317955851555, -0.12906667590141296, -0.09175527095794678, -0.06053110212087631, 0.16210034489631653, -0.05324932187795639, -0.06172577664256096, -0.07105392217636108, 0.09216427803039551, -0.009656071662902832, -0.031290750950574875, -0.00855825375765562, -0.1218305230140686], "bias": 0.022998273372650146, "activation_function": "RELU"}, {"weights": [-0.03124806098639965, -0.05787724256515503, 0.20398607850074768, 0.0868174284696579, -0.08092007040977478, -0.06608272343873978, -0.038718461990356445, 0.040900278836488724, -0.0748697966337204, 0.10874025523662567, 0.010574250482022762, 0.15584306418895721, 0.10576174408197403, -0.14943261444568634, 0.10221263021230698, 0.08613256365060806, 0.06701378524303436, 0.07754891365766525, -0.13077253103256226, -0.06566445529460907, -0.12242044508457184, 0.035249561071395874, -0.16820521652698517, 0.03300841525197029, -0.1521327644586563, 0.09298396855592728, 0.04460274800658226, -0.17592619359493256, 0.02081567980349064, 0.18210084736347198, 0.04710116982460022, 0.08281204104423523, -0.01784489117562771, -0.039900775998830795, 0.011113268323242664, 0.15020525455474854], "bias": -0.1962580680847168, "activation_function": "RELU"}, {"weights": [-0.04446209594607353, 0.06697358191013336, -0.0936921164393425, -0.04912274703383446, -0.0681636855006218, -0.0018969849916175008, -0.15016679465770721, -0.08266305923461914, 0.13637837767601013, -0.15890441834926605, -0.1599605530500412, -0.09957964718341827, -0.09747359156608582, 0.1387576162815094, -0.09584677219390869, -0.114593006670475, 0.0881185531616211, -0.020702369511127472, 0.1015586331486702, -0.13380780816078186, 0.033317845314741135, 0.04426625743508339, 0.036580249667167664, -0.017064044252038002, 0.011873424053192139, -0.07410276681184769, 0.05211584270000458, 0.14625442028045654, 0.1220468133687973, 0.006082586944103241, 0.10547324270009995, 0.07788016647100449, -0.13412690162658691, -0.1474156528711319, 0.11691447347402573, -0.004975475370883942], "bias": 0.055497121065855026, "activation_function": "RELU"}, {"weights": [-0.1667870730161667, -0.014355483464896679, -0.28706541657447815, 0.09831861406564713, -0.1251363903284073, 0.3951161205768585, 0.07508321851491928, 0.18261325359344482, 0.17286501824855804, -0.04563528299331665, -0.2171136736869812, 0.12269629538059235, 0.007761205546557903, -0.13024163246154785, 0.03516065329313278, 0.050359152257442474, -0.12745174765586853, 0.1044895201921463, 0.15565811097621918, 0.019414523616433144, 0.13616256415843964, -0.037862472236156464, -0.015772338956594467, 0.08252423256635666, 0.03938697278499603, -0.19393931329250336, 0.17159084975719452, -0.09779630601406097, -0.07301387935876846, -0.08067061007022858, -0.06768348813056946, 0.07778813689947128, 0.10054720193147659, 0.08024429529905319, -0.04159696772694588, -0.1547359675168991], "bias": -0.16434232890605927, "activation_function": "RELU"}, {"weights": [-0.1285945475101471, -0.16541704535484314, 0.04056243225932121, -0.040976401418447495, -0.10190999507904053, 0.0745500773191452, -0.12298309803009033, -0.041959457099437714, 0.043334752321243286, 0.09220021963119507, 0.0838877484202385, -0.12612326443195343, -0.14748305082321167, 0.06915400922298431, -0.0018742104293778539, -0.09914956986904144, -0.04834986850619316, -0.08424556255340576, 0.15044432878494263, -0.03517806902527809, 0.06934162974357605, 0.040980756282806396, 0.011739186011254787, -0.027113523334264755, -0.12259197235107422, -0.08593306690454483, -0.05082457885146141, -0.032427024096250534, -0.13059887290000916, -0.06532181054353714, 0.06496177613735199, -0.13228195905685425, -0.1384439319372177, -0.005996985360980034, 0.11326112598180771, 0.08000659942626953], "bias": -0.13191533088684082, "activation_function": "RELU"}, {"weights": [-0.16423872113227844, -0.018116170540452003, -0.05882219970226288, 0.17559176683425903, 0.1684989184141159, -0.004927157890051603, 0.03321222588419914, -0.0293576642870903, 0.13322828710079193, 0.19422678649425507, -0.22686848044395447, 0.23212261497974396, 0.03279738500714302, 0.040249891579151154, 0.15317261219024658, 0.08926317095756531, 0.01750219240784645, 0.04674231633543968, 0.10918834060430527, 0.3897327780723572, -0.09081510454416275, -0.20820406079292297, 0.03003140538930893, -0.36714351177215576, -0.049909040331840515, -0.10268031805753708, 0.4251960217952728, -0.11970886588096619, 0.1473006308078766, 0.012328407727181911, 0.057466428726911545, -0.09080564975738525, -0.23481492698192596, -0.014436502940952778, -0.15684694051742554, -0.192990243434906], "bias": -0.20542895793914795, "activation_function": "RELU"}, {"weights": [-0.15958626568317413, -0.13971304893493652, -0.19183292984962463, 0.000504033116158098, -0.0010789333609864116, -0.16776631772518158, -0.06410740315914154, -0.09047123789787292, -0.011773371137678623, -0.05057493597269058, -0.050799351185560226, 0.09274553507566452, 0.2356007993221283, 0.12207002937793732, 0.03619103878736496, 0.08012065291404724, -0.019917048513889313, -0.11780083179473877, 0.04777948185801506, 0.2807754576206207, -0.10169293731451035, -0.036018308252096176, -0.005143272690474987, -0.3100263774394989, -0.12214312702417374, 0.02585490047931671, 0.18230925500392914, -0.02750411257147789, 0.11502572149038315, 0.040426913648843765, 0.14987915754318237, -0.035142749547958374, -0.07330232113599777, 0.002317345468327403, 0.013996857218444347, 0.16633304953575134], "bias": 0.18987956643104553, "activation_function": "RELU"}, {"weights": [-0.12633123993873596, 0.08907833695411682, -0.24823975563049316, -0.09159887582063675, -0.07289545238018036, -0.12270040065050125, 0.041496336460113525, 0.13082502782344818, -0.13463038206100464, -0.022041110321879387, -0.21712073683738708, -0.015477963723242283, -0.008161114528775215, -0.12151491641998291, 0.16423511505126953, 0.07000011950731277, 0.07385040819644928, 0.029545824974775314, 0.003164486028254032, 0.3256312310695648, 0.001476589241065085, -0.2785782814025879, 0.1783664971590042, -0.2106550633907318, -0.06564625352621078, 0.015934862196445465, 0.3719612956047058, 0.06712891906499863, 0.2272193729877472, -0.22427517175674438, 0.1032971441745758, 0.1573270857334137, -0.06042802706360817, -0.22590602934360504, -0.16508828103542328, -0.058513883501291275], "bias": 0.21055983006954193, "activation_function": "RELU"}, {"weights": [-0.05214850232005119, -0.13618707656860352, -0.08762510120868683, -0.13018332421779633, -0.21368642151355743, 0.11268387734889984, 0.03501627966761589, 0.2055380642414093, 0.10323281586170197, 0.2548629939556122, -0.16757957637310028, -0.1515675187110901, 0.3026617765426636, 0.11615380644798279, -0.15005362033843994, 0.07061643898487091, 0.16860605776309967, -0.08985888957977295, 0.11823905259370804, 0.284013956785202, 0.15536174178123474, 0.0515204519033432, 0.10641919076442719, -0.0958283543586731, -0.14343523979187012, -0.19710437953472137, 0.11637512594461441, 0.07968185842037201, 0.10528929531574249, -0.08754948526620865, -0.29472625255584717, 0.0024482489097863436, -0.18971270322799683, 0.29993197321891785, 0.07106974720954895, 0.2171996533870697], "bias": 0.2986254096031189, "activation_function": "RELU"}, {"weights": [0.0658668503165245, -0.08088000863790512, 0.03309822082519531, -0.14346376061439514, -0.161871537566185, 0.014624297618865967, -0.012143234722316265, -0.007431586738675833, -0.0625142902135849, 0.10126867145299911, -0.11232086271047592, 0.09141524881124496, -0.053188323974609375, 0.03361984342336655, 0.002336402889341116, 0.06175726652145386, 0.007827560417354107, 0.13608279824256897, 0.027941923588514328, -0.11876213550567627, 0.12010856717824936, -0.10190671682357788, -0.02941840887069702, -0.05416927859187126, -0.07725735753774643, 0.14664000272750854, -0.09357031434774399, 0.04135429859161377, -0.10544073581695557, -0.1314462274312973, 0.07124137878417969, -0.0008006095886230469, -0.0020563206635415554, 0.1439361423254013, -0.09193074703216553, -0.15527251362800598], "bias": -0.03021152876317501, "activation_function": "RELU"}, {"weights": [-0.07025166600942612, -0.13207374513149261, -0.12623022496700287, -0.1559228003025055, -0.06318902969360352, -0.08319306373596191, 0.0319250226020813, -0.05928438901901245, -0.003519515274092555, 0.16651272773742676, 0.10052232444286346, -0.021133601665496826, -0.018028637394309044, 0.03406568616628647, -0.041378043591976166, -0.05381353944540024, 0.05195222422480583, -0.07459789514541626, -0.024867117404937744, -0.04483221098780632, -0.030563514679670334, -0.09265010058879852, 0.06448932737112045, -0.08150448650121689, 0.057118892669677734, -0.07280445098876953, -0.010936260223388672, -0.02118813991546631, -0.12005309760570526, 0.10265233367681503, -0.13133525848388672, 0.030463676899671555, -0.13403044641017914, 0.04041232913732529, 0.11303117126226425, 0.14110402762889862], "bias": -0.07662093639373779, "activation_function": "RELU"}, {"weights": [-0.06732434779405594, -0.06481511890888214, 0.03735465183854103, 0.11391593515872955, 0.06250698864459991, -0.08456998318433762, 0.16410237550735474, -0.2432333379983902, 0.1197674497961998, 0.18280960619449615, -0.23539917171001434, -0.1786305010318756, 0.0637117251753807, 0.09191688150167465, -0.06973999738693237, 0.09451344609260559, -0.17984730005264282, -0.05061923712491989, -0.07189173996448517, 0.41223013401031494, 0.18487684428691864, 0.2929088771343231, 0.2629297077655792, -0.43171119689941406, 0.1400662660598755, 0.2726265490055084, 0.5785501599311829, 0.3352191746234894, 0.11424757540225983, -0.0709848552942276, 0.12031058967113495, 0.036165300756692886, -0.14061026275157928, -0.2317369133234024, 0.05662623792886734, 0.18881887197494507], "bias": -0.12417249381542206, "activation_function": "RELU"}, {"weights": [0.12185149639844894, 0.013897093012928963, -0.020407676696777344, -0.11736703664064407, -0.06598880887031555, -0.11231695115566254, 0.15371446311473846, -0.12269820272922516, -0.019727012142539024, 0.0663428083062172, -0.13490667939186096, 0.005626598838716745, -0.13086915016174316, -0.07504443824291229, 0.047047510743141174, -0.09155113250017166, -0.11865600198507309, 0.07185762375593185, 0.02331998012959957, -0.10386425256729126, -0.011656180024147034, -0.039319295436143875, 0.0629175454378128, 0.10321895033121109, -0.038534972816705704, 0.010670997202396393, -0.10933494567871094, 0.113247811794281, 0.13762617111206055, 0.035286664962768555, -0.15316441655158997, -0.08989064395427704, 0.02963567152619362, 0.005283487495034933, 0.09154391288757324, -0.14418765902519226], "bias": 0.1429881900548935, "activation_function": "RELU"}, {"weights": [-0.10472139716148376, 0.0031380122527480125, 0.19023571908473969, -0.030325936153531075, -0.007979239337146282, 0.1588386446237564, -0.058286152780056, -0.10913416743278503, 0.022200999781489372, 0.12954077124595642, 0.2112152874469757, 0.0463126003742218, -0.06772301346063614, 0.06622824817895889, 0.11174116283655167, -0.08678305894136429, -0.03297632932662964, -0.18348513543605804, -0.13852843642234802, -0.21151766180992126, 0.008918259292840958, 0.016549497842788696, 0.17639563977718353, 0.12408676743507385, -0.15740270912647247, 0.15830248594284058, -0.012829415500164032, 0.06476210057735443, -0.24300673604011536, 0.22752173244953156, -0.08292630314826965, -0.0797024518251419, 0.19052168726921082, -0.022981788963079453, 0.07780753076076508, 0.2107168287038803], "bias": 0.2063775360584259, "activation_function": "RELU"}, {"weights": [-0.11372800916433334, 0.12373441457748413, -0.02929709479212761, 0.07407566159963608, -0.03266511484980583, -0.14617586135864258, 0.04413841292262077, -0.07699398696422577, 0.16476546227931976, 0.16000127792358398, 0.011290749534964561, 0.12797990441322327, 0.07126204669475555, -0.09637252986431122, -0.12049146741628647, 0.03202466294169426, 0.11436975002288818, -0.0643417090177536, 0.05037339776754379, 0.0003992915153503418, -0.1495436280965805, -0.06930746883153915, -0.07708142697811127, -0.047903381288051605, -0.1257297396659851, -0.16615311801433563, -0.1456245630979538, -0.027373095974326134, 0.055563729256391525, -0.050919175148010254, 0.02185666561126709, 0.048886738717556, 0.08769206702709198, 0.06005839630961418, -0.15648101270198822, 0.002882500644773245], "bias": -0.10768803209066391, "activation_function": "RELU"}, {"weights": [0.045905206352472305, 0.0003095419378951192, -0.0676916167140007, -0.19223766028881073, -0.051501281559467316, 0.5762651562690735, 0.08466953039169312, 0.24074962735176086, 0.1895391047000885, -0.002101294929161668, 0.11048509925603867, -0.19487033784389496, -0.04962662234902382, -0.08299105614423752, 0.0423404797911644, -0.007201347965747118, 0.1279572695493698, 0.20537114143371582, -0.1150018721818924, -0.07129189372062683, -0.04548347368836403, 0.2787569761276245, -0.08740142732858658, 0.27523285150527954, 0.10730160027742386, -0.07634638994932175, -0.11763463914394379, 0.07313181459903717, 0.0082153445109725, 0.1435195952653885, -0.4184555411338806, -0.010810082778334618, 0.012027710676193237, 0.32285821437835693, -0.01625143364071846, -0.05727008357644081], "bias": 0.009114189073443413, "activation_function": "RELU"}, {"weights": [0.07263818383216858, 0.12943650782108307, 0.07915924489498138, -0.13782082498073578, 0.03291582316160202, -0.042165715247392654, 0.048823654651641846, -0.15568336844444275, 0.15640580654144287, 0.014487833715975285, 0.15838797390460968, -0.009340581484138966, -0.10498650372028351, -0.1656346470117569, 0.05656514689326286, -0.09981364011764526, 0.04494073987007141, 0.14192645251750946, 0.0818404108285904, -0.02721749246120453, -0.05458969250321388, -0.08839771896600723, -0.0986919179558754, 0.10210265219211578, 0.07029145956039429, -0.06190209463238716, 0.16615857183933258, -0.10533710569143295, 0.11602127552032471, 0.22902382910251617, 0.07291579991579056, 0.11527087539434433, -0.04318426176905632, -0.08137582987546921, -0.10967649519443512, -0.013196315616369247], "bias": -0.16235637664794922, "activation_function": "RELU"}, {"weights": [-0.19635100662708282, 0.10673359036445618, 0.11927420645952225, 0.15449613332748413, 0.12712302803993225, -0.07335267961025238, 0.15152758359909058, 0.040288686752319336, 0.1313953697681427, -0.15960407257080078, 0.1078077033162117, 0.08568307757377625, 0.26382774114608765, -0.13118793070316315, 0.031249437481164932, -0.10918587446212769, 0.0017979665426537395, 0.12915855646133423, -0.03293239697813988, 0.18027405440807343, -0.15746156871318817, -0.1828429102897644, -0.08576656877994537, -0.07715003937482834, 0.16850446164608002, -0.027577565982937813, 0.38127100467681885, -0.1431368589401245, 0.31954899430274963, 0.15695935487747192, 0.44868773221969604, 0.15576307475566864, -0.08855846524238586, -0.18312619626522064, 0.008972212672233582, -0.02873663417994976], "bias": 0.12990465760231018, "activation_function": "RELU"}, {"weights": [0.2076062262058258, -0.17016322910785675, -0.08342041075229645, -0.16141442954540253, -0.14539767801761627, 0.25419700145721436, -0.026081323623657227, 0.2724781632423401, -0.2021387815475464, 0.015804018825292587, 0.22287322580814362, -0.1803964525461197, 0.11556334048509598, 0.1162579357624054, 0.16037285327911377, 0.09027323871850967, 0.23080825805664062, 0.13013435900211334, 0.23119127750396729, -0.175871342420578, -0.03109762817621231, 0.09158825129270554, -0.009057948365807533, 0.24004973471164703, -0.03584511950612068, -0.19972607493400574, -0.43957623839378357, 0.1155921220779419, -0.11063457280397415, 0.08524058014154434, -0.11591330170631409, 0.10065802931785583, 0.03257977217435837, 0.06456820666790009, -0.024165330454707146, -0.061817217618227005], "bias": 0.17284122109413147, "activation_function": "RELU"}, {"weights": [-0.0841037780046463, -0.0755869448184967, 0.10128087550401688, -0.1575697511434555, -0.06178960204124451, -0.14707747101783752, -0.031190117821097374, -0.08284372836351395, -0.04887423291802406, -0.06813281774520874, -0.10413350909948349, -0.02929631434381008, -0.043418191373348236, -0.06098970025777817, 0.13503751158714294, 0.08530925214290619, 0.008239983581006527, -0.07177820056676865, -0.14251255989074707, -0.05500217527151108, -0.15984661877155304, 0.15336334705352783, 0.12310286611318588, 0.1442006528377533, -0.04329707473516464, -0.14825652539730072, -0.16156677901744843, 0.062365274876356125, -0.10610686987638474, -0.11329163610935211, -0.1388222575187683, 0.011500458233058453, 0.07091119885444641, -0.00684517715126276, -0.1472913771867752, -0.14115194976329803], "bias": 0.08988048881292343, "activation_function": "RELU"}, {"weights": [0.05343043804168701, -0.020957311615347862, 0.10545635223388672, 0.03920404240489006, 0.00018550953245721757, -0.04711216688156128, 0.14764563739299774, -0.15513387322425842, 0.16291092336177826, -0.14543484151363373, -0.11030992120504379, -0.12303011119365692, -0.019863685593008995, 0.16438089311122894, 0.02045075222849846, -0.13225045800209045, 0.05829133838415146, -0.07728873193264008, 0.08050809800624847, 0.022815465927124023, -0.04879496619105339, -0.0874999612569809, 0.07989289611577988, 0.06245603412389755, -0.09017976373434067, -0.12385646998882294, -0.1118459552526474, -0.01170625351369381, 0.0808987021446228, -0.003394107101485133, 0.00033169984817504883, -0.09161502122879028, -0.13281863927841187, -0.13199935853481293, -0.030671855434775352, 0.08169335126876831], "bias": -0.028709392994642258, "activation_function": "RELU"}, {"weights": [-0.03821088746190071, 0.06140050292015076, 0.09205403923988342, -0.05186834931373596, -0.0071531194262206554, -0.018523285165429115, -0.10371482372283936, -0.025946998968720436, -0.12975133955478668, -0.00629572244361043, 0.22657199203968048, 0.1403249204158783, -0.22061116993427277, -0.017623567953705788, -0.1569719910621643, -0.11036327481269836, 0.10861712694168091, 0.024279743432998657, 0.1590067595243454, -0.0015302792889997363, -0.15103957056999207, -0.034517619758844376, -0.16958306729793549, 0.09124027192592621, 0.12008005380630493, 0.08676166832447052, 0.006981509272009134, 0.017419833689928055, -0.023746103048324585, 0.06886061280965805, -0.18710048496723175, -0.08688317239284515, 0.0011888931039720774, -0.0578894168138504, 0.15809977054595947, 0.11264462023973465], "bias": -0.20251181721687317, "activation_function": "RELU"}, {"weights": [-0.10582491755485535, 0.13606786727905273, -0.2360004484653473, -0.014451940543949604, 0.07612966746091843, 0.03223260119557381, -0.07957931607961655, 0.05975630506873131, -0.04974810406565666, 0.0886058509349823, 0.10176370292901993, 0.11952744424343109, 0.11230721324682236, 0.03452961891889572, 0.0011839665239676833, -0.010679908096790314, 0.020691335201263428, -0.016804838553071022, -0.07179329544305801, 0.060267332941293716, -0.08000373095273972, 0.1269155889749527, 0.06805124878883362, 0.1986052691936493, 0.08382519334554672, -0.16281552612781525, -0.17954427003860474, -0.11401450634002686, 0.10964635759592056, -0.17918863892555237, -0.1943615972995758, -0.030776819214224815, -0.16200760006904602, 0.16853193938732147, -0.012077505700290203, -0.10682179778814316], "bias": 0.03339302912354469, "activation_function": "RELU"}, {"weights": [-0.05163329467177391, 0.25245100259780884, 0.22490672767162323, 0.09162167459726334, 0.37186360359191895, -0.23261623084545135, -0.15276555716991425, -0.2530179023742676, -0.21399685740470886, -0.08833011239767075, 0.14610344171524048, 0.23892205953598022, -0.09642518311738968, -0.035646338015794754, -0.1252201348543167, -0.03826824948191643, -0.12362201511859894, -0.12889410555362701, -0.009660723619163036, -0.323832243680954, 0.1390262395143509, -0.06625362485647202, -0.05422230064868927, 0.08302878588438034, -0.09699308127164841, 0.06320624053478241, -0.1298413872718811, 0.1715182065963745, 0.03342214971780777, -0.04142714664340019, 0.42192041873931885, 0.03688810393214226, 0.02669207751750946, -0.25281208753585815, -0.08866802603006363, -0.04687396064400673], "bias": -0.10409067571163177, "activation_function": "RELU"}, {"weights": [0.12857238948345184, -0.1529276967048645, 0.10687615722417831, 0.004689512308686972, 0.26028352975845337, -0.5005170106887817, -0.05668151378631592, -0.21175238490104675, 0.08558853715658188, -0.16369138658046722, 0.16039146482944489, -0.04056220129132271, -0.18471939861774445, 0.12426017224788666, -0.12821263074874878, 0.0002975285751745105, 0.07238809019327164, -0.1949196606874466, 0.1823645532131195, 0.088422492146492, 0.13243095576763153, 0.1384347677230835, 0.20509648323059082, -0.29868611693382263, -0.25586459040641785, 0.08099275827407837, 0.21768097579479218, 0.21108533442020416, -0.08534013479948044, 0.03618082404136658, 0.050335973501205444, -0.0917045846581459, 0.10456423461437225, 0.08300070464611053, 0.1254519522190094, 0.0547187365591526], "bias": -0.16887083649635315, "activation_function": "RELU"}], [{"weights": [-0.06854105740785599, 0.08260849863290787, -0.0393795445561409, -0.0590071976184845, 0.017514217644929886, -0.04635006934404373, -0.04786335676908493, 0.06624968349933624, 0.10065961629152298, -0.01017095148563385, -0.07069753110408783, -0.0821671113371849, 0.09156858175992966, -0.06637494266033173, 0.09726874530315399, -0.02848493866622448, 0.005045040510594845, 0.10595215857028961, -0.03656214475631714, 0.04989936947822571, 0.01289012748748064, -0.06331475079059601, 0.13456861674785614, -0.058563459664583206, 0.03872346132993698, 0.09110846370458603, -0.0238975677639246, 0.12550099194049835, 0.04691070690751076, 0.05179296433925629, -0.04825369268655777, -0.08503975719213486, 0.0065917083993554115, 0.13406360149383545, 0.07419218122959137, 0.05655532702803612, -0.061585187911987305, 0.019545698538422585, 0.12945769727230072, 0.10255831480026245, -0.08019732683897018, 0.05012357607483864, 0.1319075971841812, -0.007000774145126343, 0.06637077778577805, 0.1494477242231369, 0.024003801867365837, 0.0203032735735178, -0.09205392003059387, -0.0542229562997818, 0.06463369727134705, -0.0032291775569319725, -0.024657290428876877, 0.053778961300849915, 0.12615661323070526, 0.08718975633382797, -0.06810979545116425, 0.1289636194705963, 0.08030467480421066, 0.0005000829696655273, -0.03807787224650383, -0.10320540517568588, -0.01284037809818983, 0.06775584071874619], "bias": 0.2169632613658905, "activation_function": "RELU"}, {"weights": [0.119392991065979, 0.013717739842832088, 0.1270534098148346, -0.017200445756316185, 0.06626211851835251, 0.01140512153506279, 0.1777021586894989, -0.04898437112569809, 0.11731737107038498, 0.07761247456073761, -0.019160686060786247, -0.12253842502832413, 0.05654451251029968, -0.13319745659828186, 0.039192620664834976, -0.057527221739292145, 0.0637371763586998, 0.020864760503172874, 0.13217027485370636, 0.05142299830913544, -0.10390715301036835, -0.001391966943629086, -0.04354308173060417, 0.1462218463420868, 0.04485665261745453, 0.07098951190710068, -0.10836512595415115, 0.04168723523616791, 0.14792153239250183, 0.12367101013660431, 0.05660494416952133, 0.0946120172739029, -0.07115869224071503, 0.10910386592149734, -0.08691384643316269, 0.00577141810208559, 0.10671376436948776, -0.07795541733503342, -0.039547719061374664, -0.12267535924911499, 0.15725621581077576, -0.05044804513454437, -0.014347439631819725, -0.10153944045305252, -0.09551585465669632, 0.029457882046699524, 0.03597936034202576, -0.03035985305905342, -0.0515403151512146, 0.08745431900024414, -0.20229989290237427, -0.03365088999271393, -0.07869336009025574, 0.0813809335231781, -0.18050964176654816, 0.032362788915634155, 0.12680840492248535, -0.0698566809296608, -0.03128853067755699, 0.0008372962474822998, 0.043721117079257965, -0.036229208111763, 0.027889730408787727, -0.029722589999437332], "bias": 0.33771681785583496, "activation_function": "RELU"}, {"weights": [0.06718318164348602, 0.10791192948818207, 0.10380672663450241, -0.2345457673072815, 0.033259183168411255, -0.12821494042873383, -0.11339796334505081, -0.20268204808235168, -0.0776282474398613, 0.12951642274856567, -0.09420014172792435, -0.08410870283842087, -0.11899176985025406, -0.023571066558361053, 0.12700875103473663, 0.07427434623241425, 0.19967690110206604, -0.059716083109378815, 0.01948450691998005, 0.17149433493614197, 0.03531133756041527, 0.14734730124473572, 0.024395281448960304, -0.033611372113227844, 0.13102011382579803, -0.01726955734193325, 0.09900657087564468, 0.02326602302491665, -0.09691198915243149, 0.08180029690265656, -0.176913782954216, 0.023328104987740517, 0.03307190164923668, 0.07493389397859573, 0.02546076290309429, -0.02266746573150158, -0.07868437469005585, -0.09946513921022415, -0.03436409309506416, -0.08668968081474304, -0.06125746667385101, 0.007519140839576721, -0.025609923526644707, 0.014002591371536255, -0.25349685549736023, -0.10056611895561218, 0.008584688417613506, 0.05375786870718002, -0.04589332640171051, -0.10577666759490967, -0.11504039168357849, 0.06427156180143356, -0.056503765285015106, 0.07714545726776123, 0.10038603842258453, 0.07400839030742645, 0.026990240439772606, 0.029544861987233162, -0.10165004432201385, 0.05186142027378082, 0.06199336796998978, 0.10402926057577133, 0.023814639076590538, 0.047974396497011185], "bias": -0.017387038096785545, "activation_function": "RELU"}, {"weights": [-0.08620867133140564, -0.10086651891469955, -0.06834007054567337, 0.07740175724029541, -0.09905155748128891, -0.028349915519356728, -0.1808725893497467, 0.07610127329826355, -0.014238640666007996, -0.08379580825567245, -0.017777953296899796, -0.04324369132518768, -0.0384419783949852, -0.00031159105128608644, -0.04336892068386078, 0.12188127636909485, -0.18261398375034332, 0.05276753753423691, 0.041155993938446045, -0.21168044209480286, -0.034578870981931686, 0.13984224200248718, -0.003921571187674999, 0.250406950712204, 0.018892867490649223, -0.1930350363254547, -0.12331036478281021, 0.08702726662158966, -0.07932421565055847, -0.007948651909828186, 0.03197431191802025, 0.07374142110347748, 0.07653184235095978, -0.10979163646697998, -0.15371142327785492, -0.17445820569992065, -0.17786483466625214, 0.017757989466190338, 0.07005965709686279, 0.030481070280075073, -0.07145196199417114, -0.0681380182504654, -0.09621919691562653, 0.02800430916249752, -0.06325653940439224, -0.0744347795844078, -0.07626381516456604, -0.05947326123714447, 0.02935849130153656, 0.09130395948886871, -0.09483399987220764, -0.035340312868356705, 0.18371830880641937, -0.06763443350791931, 0.0504491813480854, 0.021177781745791435, -0.18578015267848969, 0.03172669559717178, -0.023889202624559402, 0.023339390754699707, -0.030900118872523308, 0.11313347518444061, -0.16503994166851044, 0.013771372847259045], "bias": 0.05046144872903824, "activation_function": "RELU"}, {"weights": [-0.1211274266242981, -0.10418283939361572, -0.12471561878919601, 0.06160508096218109, -0.11001931875944138, 0.03890063613653183, -0.06907928735017776, 0.11774320155382156, 0.03851349279284477, 0.02841331996023655, 0.2205715775489807, -0.02881944179534912, 0.08470823615789413, -0.1453230082988739, 0.04136107116937637, 0.05688725411891937, -0.05960213765501976, -0.13564088940620422, -0.05081546679139137, 0.05870186164975166, -0.10865835100412369, 0.08132278919219971, 0.009025645442306995, 0.019488433375954628, 0.11910220235586166, -0.010732520371675491, -0.11571168154478073, 0.2824881374835968, -0.10646309703588486, -0.06147505342960358, -0.017026476562023163, 0.14807333052158356, 0.11662520468235016, -0.10893045365810394, 0.06451644748449326, 0.006499804090708494, -0.0020749694667756557, 0.0352189838886261, 0.08912457525730133, -0.04665553569793701, 0.078679159283638, 0.06738730520009995, 0.15443481504917145, -0.11392558366060257, 0.0589500293135643, 0.1722990870475769, 0.17256207764148712, -0.04919205978512764, 0.058304235339164734, 0.011565074324607849, -0.05843650549650192, 0.12260226905345917, 0.0041871825233101845, 0.0919031947851181, 0.06710463762283325, -0.027551012113690376, 0.07509249448776245, -0.045669689774513245, -0.10768035799264908, 0.05083088576793671, 0.04311176389455795, -0.07762579619884491, 0.013248668052256107, 0.0005661061150021851], "bias": 0.0782497450709343, "activation_function": "RELU"}, {"weights": [0.0417213961482048, -0.1476871818304062, 0.015473597683012486, -0.08673577755689621, -0.02022884041070938, -0.10637005418539047, -0.001179189421236515, -0.08609696477651596, 0.021719500422477722, -0.11959344893693924, 0.016734778881072998, -0.13291576504707336, 0.08421853929758072, 0.022338394075632095, -0.1181878000497818, 0.152088463306427, -0.033445920795202255, -0.13970431685447693, 0.04798034578561783, -0.020084422081708908, -0.05135846510529518, 0.07763620465993881, 0.06686947494745255, 0.09530020505189896, -0.06487520784139633, -0.21550343930721283, 0.05519832670688629, 0.06931165605783463, -0.02668636664748192, -0.05157555639743805, 0.11273851245641708, 0.020397888496518135, 0.051524817943573, 0.0454435758292675, -0.1469353437423706, -0.05282678082585335, -0.03588511422276497, -0.03607583045959473, -0.024212218821048737, 0.04918159544467926, 0.08066144585609436, -0.09587106108665466, -0.07340749353170395, -0.05333659052848816, -0.04268303140997887, 0.051722452044487, -0.11293566226959229, -0.08850409090518951, -0.07508812844753265, 0.06585073471069336, 0.055335648357868195, -0.08579429239034653, 0.0231765229254961, -0.025377675890922546, 0.06678594648838043, 0.045797690749168396, -0.09951572120189667, -0.07322770357131958, -0.12420722842216492, -0.0475170761346817, 0.11053142696619034, -0.12275715917348862, -0.06930962949991226, 0.05320730805397034], "bias": 0.1459091156721115, "activation_function": "RELU"}, {"weights": [0.08365888893604279, -0.09757295250892639, -0.056468285620212555, 0.16799266636371613, 0.24431750178337097, -0.023593612015247345, 0.07821808755397797, -0.024739976972341537, -0.09184733033180237, -0.035442180931568146, 0.27713748812675476, -0.01080926414579153, -0.013685428537428379, -0.049539100378751755, -0.12551157176494598, -0.07528859376907349, 0.019549323245882988, -0.12427657097578049, -0.23300740122795105, -0.07191210985183716, -0.09495137631893158, 0.05118740350008011, 0.12178190797567368, -0.19575420022010803, -0.13784141838550568, -0.018939480185508728, 0.07351174205541611, 0.0879998654127121, 0.09916304796934128, 0.007927745580673218, 0.10995189845561981, -0.11472800374031067, -0.08796446770429611, -0.004006244242191315, -0.03609481081366539, -0.11806327849626541, 0.014111156575381756, 0.006043309345841408, 0.18897807598114014, -0.052315518260002136, -0.060360319912433624, -0.01934599131345749, -0.00580226257443428, -0.04202897101640701, 0.0869460329413414, 0.09637139737606049, 0.03290402889251709, 0.1123913824558258, -0.004957452416419983, -0.008569732308387756, 0.21892347931861877, 0.10760396718978882, -0.021356670185923576, -0.056192994117736816, -0.22390182316303253, -0.02131359465420246, -0.04239823669195175, 0.13265372812747955, -0.01686440408229828, -0.044353991746902466, -0.166085347533226, 0.1338055431842804, 0.12503767013549805, 0.07312601804733276], "bias": 0.09857133775949478, "activation_function": "RELU"}, {"weights": [0.10741569846868515, -0.028796914964914322, 0.11655579507350922, -0.06440424174070358, -0.04366498813033104, 0.02849731594324112, 0.10145628452301025, -0.1142527312040329, 0.11143361032009125, 0.031495600938797, -0.16251562535762787, 0.1812875121831894, 0.027437521144747734, 0.09852424263954163, -0.06138485670089722, 0.045199714601039886, -0.10026676207780838, 0.027714291587471962, 0.11541842669248581, 0.08638103306293488, -0.026581507176160812, 0.06544356793165207, -0.16663730144500732, -0.07981231808662415, -0.031299859285354614, 0.004026351496577263, -0.011387484148144722, -0.10995935648679733, -0.10298238694667816, 0.07970695197582245, 0.045833759009838104, -0.10760442167520523, 0.01399418618530035, -0.06595568358898163, -0.011134467087686062, -0.08553650230169296, 0.0689736157655716, -0.02480733022093773, -0.02000230737030506, -0.02993933856487274, -0.061847541481256485, 0.12408238649368286, 0.006281422916799784, -0.09297873824834824, 0.0743279829621315, 0.10102133452892303, -0.004682644736021757, -0.02714051678776741, -0.06798169016838074, -0.09904463589191437, 0.023488584905862808, 0.0467354990541935, -0.04734273627400398, -0.046352922916412354, 0.03597423434257507, 0.09878979623317719, 0.11442277580499649, 0.1576729714870453, 0.11801481246948242, 0.018218249082565308, 0.06071625277400017, 0.13015113770961761, -0.12717479467391968, 0.05401146039366722], "bias": -0.19213953614234924, "activation_function": "RELU"}, {"weights": [0.009768620133399963, 0.09552173316478729, -0.08002769947052002, 0.122333824634552, -0.10798424482345581, 0.020219430327415466, -0.045719876885414124, -0.05980995297431946, 0.07895424962043762, -0.09490887820720673, -0.08017966151237488, -0.08082595467567444, 0.07473418116569519, -0.08076383173465729, -0.055992141366004944, -0.06479521095752716, -0.1209016889333725, -0.0060515254735946655, -0.03394564986228943, -0.0984807163476944, -0.07439175248146057, -0.0495993047952652, -0.11043065786361694, -0.03587396442890167, -0.09948599338531494, 0.052486762404441833, -0.09521137177944183, -0.03912615776062012, -0.03806924819946289, -0.041807979345321655, 0.08573193848133087, -0.03133496642112732, -0.041360318660736084, 0.04464538395404816, -0.09853377938270569, 0.08086253702640533, -0.08952927589416504, 0.1133614331483841, 0.03315684199333191, -0.04956299066543579, 0.03235834836959839, -0.0813317745923996, 0.11919404566287994, 0.038685739040374756, -0.010394155979156494, 0.03793923556804657, -0.015333592891693115, 0.04564332962036133, 0.08266156911849976, 0.07806935906410217, 0.0547475665807724, -0.002302825450897217, 0.047127291560173035, 0.03690898418426514, -0.09262241423130035, -0.0085534006357193, -0.02472291886806488, -0.006765469908714294, -0.12212637066841125, -0.10761673748493195, 0.07866007089614868, -0.07028578221797943, 0.11708414554595947, -0.044222235679626465], "bias": 0.022506222128868103, "activation_function": "RELU"}, {"weights": [-0.06770309060811996, -0.04106712341308594, 0.05681148171424866, -0.1198217123746872, 0.013834686018526554, -0.11772239953279495, 0.08096354454755783, 0.06370232999324799, -0.1226663589477539, 0.036250703036785126, -0.09476123005151749, -0.0483667366206646, -0.06836467236280441, 0.06479480117559433, -0.12653478980064392, -0.09103281050920486, 0.09346450865268707, -0.11423628777265549, -0.010093479417264462, -0.03484401851892471, -0.061128366738557816, 0.0671878531575203, -0.04367464408278465, -0.10033462196588516, 0.0587739422917366, 0.05733171105384827, 0.047143615782260895, 0.0351598747074604, 0.1237184926867485, -0.04927849769592285, 0.07798969000577927, 0.041274577379226685, 0.118763267993927, 0.03482045605778694, -0.06573554873466492, 0.05802255868911743, -0.09198062121868134, 0.11401350051164627, -0.0037973246071487665, 0.08178336918354034, -0.11844902485609055, 0.012033030390739441, -0.02535431832075119, -0.0004337003920227289, -0.10559196770191193, 0.11084602028131485, -0.10632570087909698, 0.12269134819507599, -0.010109245777130127, -0.008743539452552795, -0.0928017795085907, -0.0007708732155151665, -0.03846049681305885, -0.05048660933971405, 0.08496490865945816, 0.030938006937503815, -0.07293055951595306, 0.06380884349346161, -0.09044152498245239, 0.04555581510066986, 0.11733045428991318, -0.07891176640987396, 0.06903906166553497, 0.0462610237300396], "bias": -0.05082641541957855, "activation_function": "RELU"}, {"weights": [-0.06008009612560272, -0.027429133653640747, 0.013615923002362251, -0.025143470615148544, -0.16344015300273895, -0.058309946209192276, -0.017056327313184738, 0.08906623721122742, 0.1228327751159668, 0.15333224833011627, 0.1044493317604065, 0.0016009318642318249, -0.05139634385704994, -0.010703541338443756, -0.04113912954926491, 0.08360076695680618, 0.06025421619415283, -0.1459270566701889, 0.04616846144199371, -0.04419020563364029, 0.14725883305072784, -0.0582604706287384, 0.15101872384548187, 0.08080581575632095, 0.12615682184696198, 0.05517356097698212, 0.06606464087963104, 0.094166100025177, 0.021773913875222206, -0.07440324127674103, -0.09970781207084656, 0.1306469589471817, 0.13577647507190704, -0.005216334480792284, -0.016528552398085594, 0.017655998468399048, -0.036932360380887985, -0.031876128166913986, -0.046891286969184875, -0.013321220874786377, -0.10596508532762527, 0.06703194975852966, 0.009041956625878811, -0.08526639640331268, 0.16151878237724304, 0.017546994611620903, 0.23294159770011902, 0.08212447911500931, 0.06906282901763916, 0.057252585887908936, -0.014889593236148357, -0.009650285355746746, -0.12001033127307892, -0.08497457206249237, 0.15777568519115448, -0.009050206281244755, -0.04699113219976425, 0.10054030269384384, 0.09403344243764877, -0.029322132468223572, -0.000992101151496172, 0.031050555408000946, -0.013690081425011158, 0.05012759938836098], "bias": -0.13964535295963287, "activation_function": "RELU"}, {"weights": [-0.04659627005457878, 0.04082784056663513, 0.08542133122682571, 0.151109516620636, -0.10800828039646149, 0.07697668671607971, -0.2257654219865799, -0.10916318744421005, 0.06274566799402237, -1.5882162188063376e-05, 0.21900412440299988, -0.0645962581038475, -0.01566050946712494, -0.12502674758434296, 0.1081584021449089, 0.13100865483283997, 0.06932565569877625, -0.029935108497738838, 0.19028615951538086, -0.0047762286849319935, -0.04861016944050789, 0.0767044946551323, -0.1935225874185562, 0.1655675172805786, -0.009615232236683369, 0.10182907432317734, -0.050257571041584015, 0.22324196994304657, -0.14956414699554443, 0.023755371570587158, 0.030425455421209335, 0.4143258035182953, -0.08040982484817505, -0.08052399754524231, 0.013403576798737049, -0.196618914604187, 0.15209472179412842, 0.061895862221717834, 0.1855589747428894, -0.11571681499481201, -0.08130881935358047, -0.0866921991109848, 0.09229273349046707, -0.06652551144361496, 0.09829786419868469, 0.21945631504058838, -0.10865576565265656, 0.11335764080286026, -0.04677778482437134, -0.11960625648498535, -0.007139097899198532, 0.06819552183151245, 0.12040582299232483, 0.0831640213727951, 0.03235112503170967, -0.05175510048866272, -0.17196600139141083, -0.017646968364715576, -0.08077733218669891, 0.06423193216323853, -0.0986333042383194, -0.07229144871234894, 0.025696679949760437, 0.23389023542404175], "bias": 0.10699327290058136, "activation_function": "RELU"}, {"weights": [0.122273750603199, 0.05068705603480339, -0.08340609818696976, -0.09598787128925323, -0.04978565499186516, 0.019037965685129166, -0.009487070143222809, 0.1380031406879425, -0.033187385648489, 0.026632070541381836, -0.1263505071401596, -0.13059215247631073, -0.021571671590209007, -0.009806270711123943, 0.13250429928302765, -0.014213157817721367, -0.15582911670207977, -0.09385465085506439, 0.09465210884809494, 0.018962344154715538, 0.1756516993045807, -0.016175398603081703, 0.073178730905056, 0.17238369584083557, -0.05961070954799652, -0.034939732402563095, -0.05765027925372124, -0.06979815661907196, 0.16059096157550812, 0.09657680988311768, -0.08483406156301498, -0.007385765668004751, -0.05949888005852699, -0.022235991433262825, 0.027912354096770287, 0.021773358806967735, -0.034104835242033005, 0.05443951487541199, -0.1328095644712448, -0.10928475856781006, -0.045675985515117645, 0.10667058825492859, -0.057090383023023605, -0.05673355981707573, 0.016925983130931854, -0.028622744604945183, 0.10517403483390808, -0.031124748289585114, -0.08080427348613739, -0.05810786783695221, -0.05338624492287636, -0.11067190766334534, -0.07647477090358734, 0.09344786405563354, 0.010945630259811878, 0.07374972105026245, 0.1988111436367035, -0.0244436077773571, -0.052023038268089294, 0.06947197020053864, 0.03580064699053764, -0.17029856145381927, -0.02320869266986847, -0.14287611842155457], "bias": 0.06729897111654282, "activation_function": "RELU"}, {"weights": [-0.11054421216249466, -0.050838783383369446, 0.09184078872203827, 0.05976209044456482, -0.07794754207134247, 0.11440438032150269, -0.10104867070913315, -0.09728702902793884, -0.04935543239116669, -0.11857687681913376, 0.06187970191240311, 0.009482577443122864, -0.01739843189716339, -0.11908961832523346, -0.09907630831003189, -0.10223262757062912, -0.0464547723531723, 0.06543627381324768, -0.0007191167678683996, 0.05424058437347412, 0.058814674615859985, -0.028028061613440514, 0.02048601396381855, -0.029171902686357498, 0.09819307923316956, 0.10793985426425934, -0.011069163680076599, -0.12954755127429962, -0.11128474026918411, 0.04853975772857666, -0.05163368582725525, 0.024556398391723633, -0.10177479684352875, 0.0806785449385643, -0.08866475522518158, -0.013149245642125607, -0.025600465014576912, 0.007688120007514954, -0.08105401694774628, -0.10429280996322632, -0.0686909407377243, 0.025391116738319397, 0.058902591466903687, 0.07966119050979614, -0.04963289201259613, 0.09647809714078903, -0.04984197020530701, 0.0818282812833786, -0.06181071698665619, -0.0799231082201004, -0.060976576060056686, -0.062364619225263596, -0.08006471395492554, -0.013896152377128601, -0.10744570195674896, -0.06920287013053894, 0.05772434547543526, -0.03314061462879181, -0.05988916754722595, -0.07462280988693237, -0.08320923149585724, 0.023439327254891396, 0.050171032547950745, 0.1051253080368042], "bias": 0.09608550369739532, "activation_function": "RELU"}, {"weights": [0.04963444173336029, -0.015814006328582764, -0.017374519258737564, -0.12001876533031464, 0.027000389993190765, -0.0016921316273510456, -0.007496247533708811, 0.025426462292671204, 0.05755449831485748, 0.01605209708213806, -0.012653213925659657, -0.054838184267282486, 0.02049124985933304, 0.004107803106307983, -0.12180903553962708, -0.08628933131694794, -0.06081729382276535, -0.10019952058792114, 0.0389213003218174, 0.055227939039468765, 0.09810789674520493, 0.011360323056578636, 0.0007022296776995063, 0.07569364458322525, -0.03404342383146286, -0.1107640191912651, -0.12365701794624329, -0.050095029175281525, -0.1231129840016365, -0.05952736735343933, -0.012704044580459595, -0.07316849380731583, -0.056769177317619324, -0.07037006318569183, -0.02460307627916336, -0.013992367312312126, -0.10089331865310669, 0.022562196478247643, 0.1012069433927536, -0.04874587059020996, 0.07482447475194931, 0.05999217927455902, -0.100795678794384, -0.09151685237884521, -0.07533791661262512, -0.07892000675201416, 0.01538953185081482, -0.023443497717380524, 0.1163419634103775, 0.11994129419326782, -0.04471273720264435, -0.05633579194545746, 0.10450652241706848, -0.06697575747966766, 0.030618036165833473, 0.12073451280593872, -0.03303831070661545, -0.038418810814619064, 0.03829038143157959, -0.1065140962600708, -0.10304518789052963, -0.02284158207476139, -0.03682481870055199, -0.01079241931438446], "bias": 0.031476348638534546, "activation_function": "RELU"}, {"weights": [0.10518627613782883, -0.006806908641010523, 0.07406315952539444, 0.08846849948167801, 0.05785347893834114, 0.007764025591313839, -0.18593546748161316, 0.0029380933847278357, -0.03974853456020355, 0.038209956139326096, 0.0038311032112687826, -0.05101143196225166, 0.07776883244514465, -0.1607980728149414, 0.1260664463043213, 0.03998444229364395, -0.03510582447052002, -0.049229323863983154, 0.05889800563454628, 0.17685449123382568, -0.17308196425437927, 0.14697624742984772, 0.08774979412555695, 0.10170355439186096, -0.08920322358608246, 0.08052700012922287, -0.029469361528754234, 0.19678173959255219, 0.017192315310239792, -0.0947674959897995, 0.15317438542842865, 0.13844181597232819, -0.12682925164699554, 0.11151514202356339, -0.0733315572142601, 0.05999037250876427, 0.07141400873661041, -0.13864603638648987, -0.013883785344660282, -0.0541246235370636, -0.10803130269050598, -0.03425071761012077, -0.09057602286338806, -0.11690433323383331, -0.06820937991142273, 0.14679208397865295, 0.0014131140196695924, -0.06081673502922058, 0.018857136368751526, 0.09816169738769531, 0.05432634800672531, -0.050167303532361984, 0.05067511275410652, 0.0028419941663742065, 0.08783943206071854, 0.0016508009284734726, -0.2531304955482483, 0.04254859313368797, 0.030671827495098114, -0.032886967062950134, -0.0036944400053471327, -0.02360563352704048, -0.01465347409248352, 0.1277654767036438], "bias": 0.41343411803245544, "activation_function": "RELU"}, {"weights": [0.0850527212023735, -0.014774356968700886, 0.04093140736222267, -0.11534524708986282, -0.14764702320098877, -0.12671849131584167, -0.033760953694581985, -0.0495789609849453, 0.028256550431251526, 0.14406898617744446, -0.07081514596939087, 0.049050454050302505, 0.05718573182821274, -0.10336838662624359, -0.034133393317461014, -0.03065432235598564, -0.08997007459402084, 0.0010842347983270884, 0.06549258530139923, 0.04390691593289375, 0.09559992700815201, 0.011618366464972496, -0.00867485161870718, 0.05389035865664482, -0.1262492835521698, -0.1163698062300682, -0.11510924249887466, -0.09059738367795944, -0.13131392002105713, -0.12225721776485443, -0.015356576070189476, -0.04290381819009781, -0.03960545361042023, 0.02219211868941784, 0.0837220773100853, -0.1295938789844513, 0.09657906740903854, -0.0009095973800867796, 0.05965656042098999, 0.046211451292037964, -0.07353869080543518, -0.04350857436656952, 0.08457712084054947, 0.05810946598649025, 0.07714138925075531, 