var encoderRaw = {"layers": [[{"weights": [-0.017149101942777634, -0.012021329253911972, 0.011134366504848003, 0.006931932643055916, 0.0049284896813333035, 0.012116272933781147, 0.000843284884467721, -0.029438409954309464, -0.03513011708855629, 0.030406374484300613, 0.02194938249886036, 0.014108213596045971, -0.003626408753916621, 0.015584314242005348, -0.011503222398459911, 0.022090906277298927, 0.021173693239688873, -0.019274629652500153, -0.007965962402522564, -0.02783380262553692, -0.00855740811675787, -0.008770287036895752, 0.02335708774626255, -0.002109011635184288, 0.021792476996779442, -0.017927521839737892, 0.0010615433566272259, 0.004305537324398756, -0.0020562470890581608, 0.02416166290640831, -0.02246721275150776, -0.027414292097091675, 0.02413835935294628, -0.009670695289969444, -0.028632020577788353, 0.008069632574915886, -0.013666309416294098, -0.01196136325597763, 0.0022160711232572794, -0.011439490132033825, -0.014127354137599468, -0.02087557129561901, 0.034319695085287094, -0.006400866433978081, 0.015085493214428425, 0.03705698624253273, 0.0009920698357746005, -0.009561828337609768, -0.014779961667954922, -0.009292641654610634, -0.0037474429700523615, -0.031880933791399, 0.00048717594472691417, -0.022666312754154205, 0.017703481018543243, 0.01622689887881279, 0.033154673874378204, -0.005351420491933823, 0.03256260231137276, -0.01611417718231678, -0.030648697167634964, -0.016966821625828743, -0.015324335545301437, -0.04764699935913086, -0.021048307418823242, 0.03443894907832146, 0.008886491879820824, 0.02958519011735916, -0.008254104293882847, 0.03078417293727398, 0.032278820872306824, 0.02762174792587757, -0.015362130478024483, 0.03442695364356041, -0.006716025527566671, -0.015596611425280571, -0.01351854857057333, 0.01064840517938137, -0.04925374686717987, -0.010706143453717232, -0.03416067734360695, -0.03559902310371399, -0.009568192064762115, -0.028665000572800636, 0.012280907481908798, 0.029865454882383347, -0.03467804566025734, 0.03537649288773537, 0.01148284412920475, -0.019429422914981842, -0.04031618684530258, -0.04810059443116188, -0.015190663747489452, -0.024848295375704765, -0.020218336954712868, -0.010878298431634903, -0.020418738946318626, 0.009066606871783733, 0.006305625196546316, 0.013942180201411247, 0.01058687549084425, 0.00856631901115179, 0.019573930650949478, -0.03890208154916763, 0.016337094828486443, -0.02829315885901451, -0.034802813082933426, -0.004133411217480898, -0.016055213287472725, -0.018603339791297913, 0.03214745968580246, 0.030028076842427254, 0.027803460136055946, -0.021458396688103676, -1.243782025994733e-05, -0.011128434911370277, -0.03270445019006729, -0.025360213592648506, -0.0031635176856070757, -0.039585188031196594, 0.010295439511537552, 0.0021938197314739227, 0.006093129049986601, 0.021538201719522476, -0.0404980294406414, -0.006494955159723759, -0.029977040365338326, 0.016123050823807716, 0.02484256587922573, -0.01646481454372406, -0.01761755160987377, -0.010564125142991543, -0.032356902956962585, -0.007286064326763153, 0.0030766278505325317, -0.03703916817903519, -0.020495280623435974, -0.01625063270330429, 0.03148890659213066, -0.025463346391916275, -0.029234139248728752, 0.010735872201621532, 0.016887875273823738, 0.01122159045189619, -0.03205609321594238, -0.04211701452732086, -0.038858864456415176, -0.03890444338321686, -0.03405393660068512, 0.015223304741084576, -0.03395777940750122, -0.02125721052289009, -0.03066915087401867, 0.03458544984459877, -0.02593955583870411, -0.036973897367715836, 0.021080853417515755, 0.006746713537722826, -0.028271976858377457, -0.03580688685178757, -0.013459909707307816, -0.04361612722277641, 0.002531572477892041, -0.02671656757593155, -0.0026747139636427164, 0.0013782799942418933, 0.0039709885604679585, -0.020040927454829216, -0.03388744592666626, -0.009651451371610165, -0.01558467373251915, -0.04326656088232994, -0.02020774781703949, 0.014461785554885864, 0.008384771645069122, -0.005029756110161543, -0.028559131547808647, 0.013677883893251419, 0.010236518457531929, 0.008594310842454433, -0.004875010345131159, 0.004101357888430357, -0.019582396373152733, -0.00041561186662875116, 0.0031968976836651564, -0.04087404906749725, -0.002672068774700165, 0.017915809527039528, -0.015232037752866745, -0.044820770621299744, -0.0009998346213251352, 0.013421655632555485, 0.015503118745982647, 0.0293167382478714, 0.004601192660629749, -0.02076674811542034, -0.003608710365369916, 0.014984328299760818, -0.007310994900763035, 0.003065369790419936, 0.017791111022233963, 0.008843098767101765, 0.0073412503115832806, -0.0009566960507072508, -0.015283840708434582, -0.02226974070072174, -0.02602783963084221, 0.02799006924033165, -0.004026071168482304, -0.00017559439584147185, 0.017669228836894035, 0.0028466384392231703, 0.02048278972506523, -0.0014158326666802168, -0.0082026282325387, -0.02725561335682869, 0.017332453280687332, 0.006899373605847359, -0.038718726485967636, -0.02402763068675995, -0.010785861872136593, 0.018749460577964783, 0.016308529302477837, -0.02760513685643673, 0.00033066587639041245, 0.003503326326608658, 0.00740060955286026, 0.02306157536804676, -0.018620988354086876, -0.01612447388470173, -0.01665462553501129, 0.016322392970323563, -0.004065911751240492, 0.016758808866143227, -0.02481522411108017, 0.0030967560596764088, 0.016895120963454247, 0.007014626171439886, 0.006106375250965357, 0.00828290730714798, 0.01014229841530323, 0.003732220269739628, -0.024081669747829437, 0.016253726556897163, 0.028274811804294586, -0.019418757408857346, 0.0016266581369563937, 8.615758997621015e-05, 0.0031920114997774363, -0.006815725471824408, -0.010060086846351624, -0.03165080398321152, 0.031072232872247696, 0.024480633437633514, 0.002311198739334941, 0.01652776077389717, -0.001118113868869841, 0.019436001777648926, 0.014486877247691154, 0.004962670151144266, 0.029288409277796745, -0.005868420470505953, -0.02588072046637535, -0.02342602051794529, -0.028281621634960175, -0.005276076961308718, -0.01989542879164219, -0.0016528709093108773, -0.019295893609523773, -0.0061016688123345375, -0.0349486768245697, 0.01753045991063118, 0.02579563856124878, -0.005679433699697256, -0.03972036764025688, 0.023920658975839615, -0.029291795566678047, -0.03634186089038849, 0.0011659542797133327, 0.024260498583316803, -0.03564384579658508, -0.014416064135730267, -0.031122904270887375, -0.019185420125722885, -0.015019961632788181, -0.005168470088392496, -0.005013229325413704, 0.04046915844082832, 0.013431191444396973, -0.01700414903461933, -0.0024707482662051916, 0.01649174839258194, -0.0006639748462475836, 0.010105214081704617, -0.0008784314268268645, -0.011439122259616852, -0.01786223240196705, 0.006679296959191561, 0.0126115707680583, 0.004476110450923443, -0.0064405882731080055, 0.004005374852567911, -0.035384777933359146, -0.002552432008087635, 0.013648689724504948, -0.017706459388136864, -0.012062574736773968, -0.00967674795538187, -0.007500924170017242, 0.026123719289898872, 0.01813741773366928, 0.01605851948261261, 0.027202628552913666, -0.015948669984936714, -0.005848607514053583, 0.0026441856753081083, 0.027201645076274872, 0.02701539359986782, -0.002589736133813858, -0.011015280149877071, 0.008471734821796417, -0.01963214948773384, 0.00095362588763237, 0.00687480578199029, 0.016857856884598732, -0.008837227709591389, -0.04015817865729332, 0.008644089102745056, -0.016664912924170494, 0.03191510960459709, -0.010105333290994167, 0.027556482702493668, 0.02433948963880539, -0.006657691672444344, 0.01596088521182537, 0.015260006301105022, 0.01728994771838188, -0.01932528428733349, -0.026910964399576187, 0.02788090892136097, -0.035925570875406265, -0.014403634704649448, -0.02493256889283657, 0.030341850593686104, 0.01496716309338808, -0.026659097522497177, 0.03155364468693733, 0.014945784583687782, -0.024815084412693977, 0.0149160698056221, -0.015398268587887287, -0.006204225588589907, -3.875783022522228e-06, 0.013135679066181183, -0.03375554457306862, -0.028236838057637215, 0.010913645848631859, 0.006286936812102795, 0.005698815919458866, -0.016284259036183357, -0.006424040999263525, -0.030190052464604378, 0.013574488461017609, -0.008726715110242367, 0.02471604198217392, 0.03385651856660843, -0.012232420034706593, -0.016501527279615402, -0.03676886484026909, -0.01946144737303257, -0.026896389201283455, 0.022456618025898933, 0.012236284092068672, 0.013054484501481056, 0.015540613792836666, -0.017865406349301338, -0.005195001605898142, 0.003061644732952118, 0.004284161143004894, 0.01188791636377573, 0.0022367374040186405, -0.0051272897981107235, -0.028134632855653763, -0.013231638818979263, 0.005324939265847206, 0.004592399578541517, -0.010205652564764023, 0.0007441075285896659, -0.020536918193101883, -0.01662963256239891, -0.03571072965860367, -0.01985524222254753, 0.02908998727798462, 0.003202140564098954, 0.016955077648162842, -0.03543907403945923, -0.002122292760759592, -0.003074813634157181, -0.006008232943713665, -0.004351023118942976, 0.0047813099808990955, -0.010282198898494244, -0.017799273133277893, -0.02509368769824505, -0.010594343766570091, 0.02940218150615692, -0.004577444866299629, -0.019618220627307892, -0.009772994555532932, 0.006170523352921009, -0.03564125671982765, -0.04885364696383476, 0.02890571393072605, 0.02312317118048668, -0.02980681136250496, -0.025705035775899887, -0.006715839263051748, 0.011444943025708199, -0.03414616733789444, -0.00454496406018734, 0.006425029598176479, 0.01424508634954691, -0.02097333036363125, -0.0414280965924263, -0.01783435046672821, -0.02602928690612316, -0.022491922602057457, -0.0051415590569376945, 0.012184089981019497, -0.002022648463025689, 0.012887557037174702, 0.02689424529671669, -0.030218161642551422, 0.03091590292751789, -0.010709920898079872, -0.03020467981696129, -0.021126534789800644, -0.01677626185119152, 0.00392925227060914, -0.01499772910028696, -0.04295365884900093, 0.008668177761137486, 0.018735762685537338, 0.01833495683968067, -0.03804817423224449, 0.014533366076648235, -0.03120206482708454, 0.011173914186656475, -0.02955564111471176, -0.01113841962069273, 0.011365702375769615, 0.011815991252660751, -0.015572264790534973, 0.013591899536550045, 0.010213707573711872, 0.033378709107637405, 0.014962454326450825, 0.010801007971167564, 0.008035794831812382, 0.017265191301703453, -0.01643410697579384, -0.019705677404999733, 0.010832713916897774, -0.01296224631369114, -0.04917507618665695, 0.007408634293824434, -0.004011188633739948, -0.06041176989674568, -0.010928787291049957, -0.005203284788876772, 0.024822678416967392, -0.00929337553679943, -0.018789192661643028, -0.04004146531224251, -0.028275106102228165, 0.02198095992207527, -0.035172440111637115, -0.007663755211979151, 0.015749521553516388, -0.02880920097231865, -0.03069717064499855, 0.010496310889720917, -0.009250099770724773, 0.014448552392423153, -0.007367290556430817, 0.019868088886141777, -0.011783188208937645, -0.004942297004163265, 0.011687739752233028, 0.0018865680322051048, -0.022518159821629524, 0.01529693603515625, -0.023226724937558174, -0.03634737432003021, 0.012867260724306107, 0.0021724198013544083, 0.012425296008586884, 0.01993800513446331, -0.04138491675257683, -0.03541896864771843, -0.041462693363428116, 0.02182004414498806, -0.010232783854007721, 0.013838844373822212, 0.014401502907276154, -0.02049972116947174, 0.030416857451200485, -0.0316087044775486, -0.018570376560091972, -0.017296569421887398, 0.014325683005154133, -0.005294957663863897, -0.03805820643901825, -0.019696373492479324, 0.0023599041160196066, -0.014292453415691853, -0.041777655482292175, 0.02517799288034439, 0.034523673355579376, -0.020087338984012604, 0.0018288044957444072, 0.005609649233520031, 0.009213357232511044, -0.011394161731004715, 0.0012552168918773532, 0.00613732635974884, 0.00809129886329174, -0.026392405852675438, 0.01852300576865673, -0.04014500603079796, 0.008675826713442802, 0.016883661970496178, -0.03568657860159874, -0.011747263371944427, 0.012812742963433266, -0.023165656253695488, -0.030389374122023582, -0.01123223640024662, -0.02073560282588005, 0.020851559937000275, -0.0007153283804655075, 0.027240149676799774, -0.028196215629577637, 0.026791369542479515, 0.024001136422157288, -0.004961157683283091, 0.04510848969221115, 0.008730770088732243, 0.00881925318390131, 0.011096836999058723, 0.004853289108723402, -0.046501483768224716, -0.038524121046066284, -0.010949431918561459, 0.012296989560127258, -0.011508207768201828, -0.0035416241735219955, 0.007798049133270979, -0.014814074151217937, 0.024731773883104324, -0.01769339293241501, -0.027430374175310135, 0.006577560678124428, -0.007929527200758457, -0.031889673322439194, -0.015372145920991898, -0.0066243186593055725, -0.018909428268671036, 0.014927402138710022, 0.020776471123099327, 0.03486865758895874, -0.021074924618005753, 0.017554447054862976, -0.0004921993822790682, 0.05571647360920906, -0.01615414395928383, 0.03749675676226616, 0.010330610908567905, 0.008391515351831913, -0.03354714810848236, 0.014500458724796772, -0.014789771288633347, -0.00011106122110504657, 0.010354804806411266, -0.04118501767516136, 0.011234643869102001, 0.00070104596670717, -0.016577772796154022, -0.004925309680402279, 0.013795766048133373, -0.021755680441856384, 0.0030461426358669996, -0.004732279572635889, -0.02879621833562851, 0.021668916568160057, -0.012158505618572235, 0.005701509304344654, 0.02688528038561344, 0.013712389394640923, 0.008248575031757355, 0.03232709690928459, 0.04681079089641571, 0.009577609598636627, 0.01972842775285244, 0.013250673189759254, -0.01871723122894764, -0.013904488645493984, -0.016374409198760986, 0.013470018282532692, -0.014059575274586678, -0.02707299031317234, -0.011796259321272373, -0.017626570537686348, -0.04024449735879898, 0.0006066943751648068, -0.013511981815099716, 0.003998839762061834, -0.03627718240022659, 0.025842249393463135, 0.008163930848240852, -0.005607109051197767, -0.041520871222019196, 0.009561091661453247, -0.012773110531270504, -0.007427338510751724, 0.0030587681103497744, 0.03878535330295563, 0.00488684419542551, 0.04321243613958359, 0.019915414974093437, 0.02475689724087715, 0.0073095085099339485, 0.011075714603066444, -0.01859145797789097, 0.037524983286857605, 0.0007634379435330629, -0.03554217889904976, -0.003369335550814867, 0.0025392407551407814, -0.006020364351570606, -0.01285373605787754, -0.013707421720027924, 0.009760974906384945, -0.011385622434318066, -0.02934105135500431, -0.017405066639184952, -0.00639762356877327, -0.02620413340628147, -0.03234901651740074, -0.049277156591415405, -0.04302334040403366, 0.01907382532954216, 0.016257096081972122, 0.006331554614007473, 0.001905902405269444, 0.03121061623096466, 0.027681713923811913, 0.00210026022978127, 0.031841445714235306, 0.02759251743555069, -0.004006636794656515, 0.014773095026612282, 0.028039729222655296, 0.03245454281568527, 0.005032859742641449, -0.03103729896247387, -0.003182696644216776, -0.034782130271196365, -0.00722673162817955, -0.03957759961485863, -0.035674795508384705, -0.011605897918343544, -0.027976710349321365, 0.03483671322464943, -0.019133562222123146, -0.015891235321760178, 0.008078532293438911, -0.004783942364156246, -0.049890968948602676, -0.04537839815020561, 0.03761256858706474, 0.02385917492210865, 0.034505702555179596, 0.03529447317123413, 0.029616128653287888, 0.05278642103075981, 0.0161391943693161, 0.03114081546664238, 0.049742404371500015, 0.05553844943642616, 0.00033534501562826335, 0.024410605430603027, -0.013173571787774563, -0.002340247156098485, -0.049331508576869965, -0.026140300557017326, -0.007550476118922234, -0.002158831339329481, -0.02356267347931862, -0.002549900906160474, 0.0021075971890240908, 0.03632356598973274, -0.009211202152073383, -0.020126130431890488, -0.03577222302556038, -0.045162126421928406, -0.048395343124866486, -0.016837527975440025, 0.01951783150434494, 0.04685501381754875, -0.0022974065504968166, 0.05135701969265938, 0.03466907516121864, 0.05644433572888374, 0.01859199069440365, 0.0295109823346138, 0.053326964378356934, 0.03691614419221878, -0.0075987777672708035, 0.04093306139111519, -0.008377228863537312, -0.0212301854044199, -0.015575108118355274, 0.00442342646420002, 0.026099054142832756, 0.0022528504487127066, 0.015375971794128418, -0.023868681862950325, 0.024584930390119553, 0.005365773569792509, -0.021651899442076683, 0.020825054496526718, -0.023194804787635803, -0.05178707838058472, -0.0315297432243824, 0.0014600233407691121, 0.05219731479883194, 0.009299934841692448, 0.0734233483672142, 0.07847656309604645, 0.010477470234036446, 0.03182300552725792, 0.053146135061979294, 0.013848395086824894, 0.027202241122722626, 0.017694903537631035, 0.040978629142045975, 0.051410187035799026, -0.01031072810292244, -0.03213169798254967, -0.03370087966322899, 0.0003953290870413184, -0.024819472804665565, -0.026395337656140327, 0.03201830014586449, 0.010608096607029438, 0.01102374866604805, -0.0009932398097589612, -0.03555440157651901, -0.02872602455317974, 0.021335501223802567, -0.0262223482131958, -0.024769168347120285, 0.0003212053852621466, 0.020044036209583282, 0.026918744668364525, 0.036612339317798615, 0.0007128498400561512, -0.010230474174022675, 0.020810004323720932, 0.042219921946525574, 0.012081753462553024, 0.05068860203027725, -0.0012942489702254534, 0.007478879299014807, 0.033398207277059555, -0.0003140964254271239, -0.029396843165159225, 0.007070240564644337, 0.01640894077718258, -0.024914799258112907, -0.02737041376531124, -0.022587375715374947, 0.027899987995624542], "bias": 0.14975881576538086, "activation_function": "RELU"}, {"weights": [0.013427657075226307, -0.02669042907655239, -0.02444368228316307, 0.03273538500070572, 0.02676890604197979, -0.015500500798225403, -0.017956530675292015, 0.012799826450645924, 0.028303684666752815, 0.02917163074016571, 0.002553958212956786, -0.0024399608373641968, 0.013989429920911789, -0.013224237598478794, -0.0028330425266176462, 0.008528285659849644, 0.021598365157842636, 0.008103503845632076, 0.02019641175866127, -0.0007522141677327454, 0.012884813360869884, -0.01988343335688114, -0.020159825682640076, -0.0014494661008939147, 0.027159398421645164, 0.010896850377321243, 0.013398108072578907, -0.008486329577863216, -0.03413774445652962, -0.01926434226334095, 0.02413417398929596, 0.022222226485610008, 0.045557621866464615, 0.030884338542819023, 0.027728930115699768, 0.03804936632514, 0.024727992713451385, -0.02267829328775406, -0.00749674066901207, 0.009255018085241318, 0.014057551510632038, 0.013879181817173958, 0.014775688759982586, -0.00171403877902776, 0.002918913960456848, 0.057647064328193665, 0.022147031500935555, 0.024017563089728355, -0.013157149776816368, 0.004331556148827076, -0.013940972276031971, 0.023555101826786995, 0.008949553593993187, -0.01857995055615902, -0.020937195047736168, 0.0073318080976605415, 0.02703017182648182, 0.01598752848803997, -0.014342007227241993, 0.0012192096328362823, -0.011515633203089237, 0.04435739293694496, 0.02065570279955864, 0.004042693879455328, 0.0036452123895287514, 0.015681492164731026, -0.016420753672719002, 0.031610582023859024, -0.004454364068806171, -0.017964622005820274, 0.03573042154312134, -0.008825131691992283, -0.00930948369204998, 0.007465687580406666, 0.0009934812551364303, 0.041863519698381424, 0.003584866877645254, 0.024861468002200127, 0.03238002955913544, 0.01757092960178852, 0.008175159804522991, 0.02376704104244709, 0.01490385178476572, 0.012196970172226429, 0.031226033344864845, -0.026472393423318863, -0.02782614529132843, 0.003950346726924181, -0.012967175804078579, -0.022441724315285683, 0.0015916790580376983, -0.0008818942005746067, 0.005220472346991301, 0.035561420023441315, -0.01232889574021101, -0.00968058779835701, -0.034519415348768234, -0.014529220759868622, -0.007447543554008007, 0.036412302404642105, -0.015764154493808746, 0.001710823504254222, 0.011456373147666454, -0.00042857235530391335, -0.006704986095428467, 0.015674661844968796, 0.009819774888455868, 0.005900992546230555, 0.0049612317234277725, -0.03572966903448105, 0.031165799126029015, -0.017659608274698257, -0.030386770144104958, -0.030072452500462532, 0.012015566229820251, -0.03415530174970627, 0.03253522887825966, 0.019308291375637054, 0.009819304570555687, -0.004623109009116888, 0.010728268884122372, -0.008482448756694794, 0.01828259974718094, 0.034214090555906296, -0.008221575058996677, 0.01664135418832302, -0.014841906726360321, -0.018778331577777863, -0.012428667396306992, 0.026356199756264687, -0.007038536015897989, -0.005585692822933197, -0.00576317822560668, 0.021854067221283913, -0.02320021577179432, -0.033606551587581635, -0.025870412588119507, 0.02499520406126976, 0.015976740047335625, 0.0211324542760849, -0.03231354057788849, -0.010134737938642502, 0.00687502883374691, 0.02095736190676689, -0.020346621051430702, -0.0220365971326828, -0.018118757754564285, -0.027289457619190216, 0.03367422893643379, -0.006798798684030771, -0.009911268018186092, -0.019143670797348022, 0.018711242824792862, -0.022368429228663445, -0.003964095842093229, 0.029013516381382942, -0.014902536757290363, -0.0006879185675643384, -0.014076145365834236, -0.016943275928497314, -0.010602608323097229, -0.012751440517604351, 0.01182516198605299, 0.019535625353455544, -0.021730566397309303, -0.01884833164513111, -0.025642313063144684, -0.03021174855530262, -0.004085943568497896, 0.015361885540187359, -0.02380944788455963, -0.031619150191545486, -0.008565399795770645, -0.004639473743736744, -0.004118898417800665, -0.014950067736208439, 0.011349678970873356, 0.011755202896893024, 0.0019384791376069188, 0.00837927870452404, -0.010629537515342236, 0.02309540845453739, -0.0027478975243866444, -0.015996836125850677, -0.011362522840499878, 0.010410399176180363, -0.004638083279132843, -0.016776714473962784, -0.005223109386861324, 0.030918603762984276, -0.016244040802121162, 0.005070098210126162, -0.012016158550977707, -0.010255271568894386, -0.02158910408616066, 0.022363461554050446, -0.011983615346252918, -0.02035125344991684, -0.013582396320998669, 0.0009812400676310062, 0.0030786392744630575, 0.02271253615617752, -0.014233882538974285, 0.007239693310111761, 0.0038352489937096834, 0.036675382405519485, -0.01572509855031967, -0.0019021406769752502, -0.008955338038504124, 0.010080982930958271, 0.020161200314760208, 0.013392545282840729, 0.007966465316712856, 0.003897405229508877, -0.02045881748199463, 0.035782381892204285, 0.02870747074484825, -0.02315651811659336, -0.020551234483718872, -0.002106990898028016, -0.025438891723752022, -0.02894587628543377, -0.0019143990939483047, -0.029359787702560425, 0.01609351672232151, -0.015167806297540665, 0.01069592870771885, -0.03440196067094803, 0.027726665139198303, 0.019115954637527466, -0.0020118975080549717, 0.03543107211589813, 0.02951931580901146, -0.0024015482049435377, 0.02059200033545494, -0.006056658923625946, -0.00048090494237840176, -0.013631727546453476, 0.01801416277885437, 0.024007881060242653, 0.0019446619553491473, 0.03288690000772476, -0.0019712739158421755, 0.019305802881717682, -0.0014136877143755555, 0.034139491617679596, 0.002747397171333432, 0.018067821860313416, 0.0005597995477728546, -0.025086011737585068, 0.0037306707818061113, -0.010827799327671528, -0.0006116662989370525, 0.002494308166205883, -0.025449223816394806, -0.02329901233315468, 0.03235325217247009, 0.020035788416862488, 0.01015206053853035, -0.00828633178025484, 0.018702171742916107, 0.007313658017665148, 0.016023695468902588, 0.008187983185052872, 0.0028752998914569616, 0.006270873825997114, -0.008405505679547787, -0.011328525841236115, -0.01382041722536087, 0.01588132418692112, 0.014482010155916214, 0.03598345071077347, 0.001160749583505094, 0.037926580756902695, 0.015794383361935616, 0.006029022857546806, -0.006310836877673864, -0.04992806538939476, 0.004524743650108576, 0.03481493517756462, 0.00868532620370388, -0.004966177046298981, -0.007722270675003529, -0.019445715472102165, 0.010852059349417686, 0.0244376752525568, 0.03481249511241913, 0.04790911823511124, -0.031940024346113205, -0.003620225703343749, 0.02255905792117119, 0.017903093248605728, -0.029182832688093185, -0.01868407055735588, -0.009663890115916729, 0.021879415959119797, 0.020808925852179527, 0.01695353351533413, 0.011887287721037865, 0.010971952229738235, -0.027223028242588043, 0.023051761090755463, -0.00519443629309535, 0.011007674969732761, -0.019871436059474945, 0.020456695929169655, -0.004418147727847099, 0.0188459362834692, -0.025917422026395798, -0.038814153522253036, 0.01085488311946392, -0.006580092944204807, 0.036813560873270035, -0.00589036475867033, 0.007342399563640356, 0.030403656885027885, -0.008808864280581474, 0.0027753247413784266, 0.025278836488723755, -0.01995273120701313, -0.02076311782002449, 0.024098163470625877, 0.005647363606840372, 0.004635372199118137, 0.006308240815997124, -0.02122642658650875, 0.03027818165719509, -0.0008183019235730171, 0.008464298211038113, 0.0358785018324852, 0.0222488883882761, 0.015613339841365814, 0.018015509471297264, 0.00933180283755064, -0.03599754720926285, -0.016422027722001076, 0.017786579206585884, -0.020633403211832047, 0.012780499644577503, -0.006664881948381662, 0.018560955300927162, 0.03898840770125389, 0.02272859588265419, 0.03533000871539116, -0.012233447283506393, 0.009183434769511223, -0.04472310468554497, 0.013702096417546272, 0.015332594513893127, -0.019791563972830772, -0.019331110641360283, 0.015632836148142815, 0.025811947882175446, -0.008466647006571293, 0.04584213346242905, -0.0011245007626712322, 0.0026632731314748526, 0.008582305163145065, 0.02838783524930477, -0.015944229438900948, -0.022959740832448006, -0.0074440124444663525, 0.005699722561985254, -0.026346350088715553, 0.022126831114292145, 0.012947192415595055, 0.027658402919769287, 0.022619271650910378, -0.007241122890263796, -0.0006758759263902903, -0.015526752918958664, 0.0052460115402936935, -0.014816457405686378, 0.03195924311876297, -0.03984403237700462, -0.009695426560938358, 0.001371039543300867, 0.02631317265331745, -0.04408445954322815, -0.017463698983192444, 0.03681023418903351, 0.028986364603042603, -0.014702517539262772, 0.01894676685333252, 0.028832444921135902, 0.03175152838230133, 0.017336497083306313, 0.037791188806295395, -0.0038554975762963295, -0.006323875859379768, 0.017268480733036995, -0.013428647071123123, -0.0007765144109725952, 0.02262536622583866, 0.024382632225751877, -0.01807623915374279, -0.02024279348552227, -0.022618209943175316, 0.008632222190499306, -0.03542548418045044, -0.014060497283935547, -0.007058380171656609, -0.01928018219769001, 0.01853056438267231, 0.033617231994867325, 0.024789661169052124, 0.015963297337293625, 0.02081601694226265, 0.00752126844599843, 0.004703756887465715, 0.02661816217005253, -0.001038059708662331, -0.005223442800343037, 0.005169776733964682, 0.03254321962594986, 0.004146148916333914, 0.025746027007699013, -0.006541016045957804, -0.006935547571629286, 0.0110159358009696, 0.020927120000123978, -0.014089478179812431, -0.0014669947559013963, -0.00698534119874239, -0.014684321358799934, -0.012566118501126766, 0.009341857396066189, -0.023700207471847534, 0.021586373448371887, 0.012814250774681568, 0.0036330826114863157, 0.007455827668309212, 0.0030881615821272135, 0.018297933042049408, 0.01824900321662426, -0.033659428358078, 0.04455222561955452, 0.030543578788638115, 0.03826550766825676, 0.04422187805175781, -0.007944955490529537, -0.004541020840406418, -0.0008054086356423795, 0.010379956103861332, 0.008574910461902618, -0.01542497519403696, -0.029674580320715904, 0.012815145775675774, 0.0021714919712394476, -0.04222964495420456, 0.02388961985707283, -0.009018585085868835, -0.02099783904850483, 0.023481767624616623, -0.014758782461285591, 0.015315215103328228, -0.013366005383431911, -0.0033883480355143547, -0.009818577207624912, 0.006886612623929977, 0.030805164948105812, -0.00010748786735348403, -0.01085979025810957, 0.0034814712125808, 0.016293669119477272, -0.00016143661923706532, 0.03512418270111084, -0.007844154722988605, -0.0003886238264385611, -0.002085451502352953, -0.026843011379241943, 0.026944082230329514, -0.0003457898856140673, 0.014757356606423855, 0.004648193717002869, -0.0029488021973520517, -0.0296640507876873, 0.010870498605072498, -0.01731887273490429, 0.02065199986100197, -0.0035079489462077618, -0.009212144650518894, 0.02643788792192936, 0.03658801689743996, 0.019565876573324203, 0.01855190470814705, -0.008799049071967602, -0.004482484422624111, 0.017872584983706474, -0.015395713038742542, 0.012523626908659935, 0.030460625886917114, 0.0367206409573555, 0.041682105511426926, 0.013319006189703941, -0.005155522841960192, 0.01712767221033573, 0.00188125716522336, -0.0015165813965722919, 0.026028700172901154, 0.002865295624360442, 0.018753468990325928, -0.026597781106829643, -0.029827384278178215, -0.011295863427221775, -0.009582558646798134, -0.013837615959346294, 0.03272613510489464, 0.013414197601377964, -0.018203087151050568, 0.00766751216724515, -0.03654371201992035, 0.015962917357683182, 0.003325729863718152, 0.03938687592744827, 0.007326063234359026, -0.02900777943432331, 0.02682439796626568, 0.004371322691440582, -0.025640372186899185, 0.04992962256073952, 0.045056894421577454, 0.006368867587298155, 0.02644319273531437, 0.03358539938926697, 0.03227400407195091, 0.005429246928542852, 0.023744706064462662, 0.005892852786928415, 0.014963324181735516, 0.013833252713084221, 0.01363362930715084, 0.02424306608736515, -0.013942820951342583, -0.029513763263821602, -0.026381205767393112, -0.0338570699095726, 0.03353165090084076, 0.028909755870699883, 0.007417719811201096, 0.030745310708880424, 0.005255422089248896, 0.005738698411732912, -0.0013481853529810905, -0.010600716806948185, -0.009964121505618095, 0.010755844414234161, 0.015859492123126984, -0.007270931266248226, 0.04003201797604561, 0.010526034981012344, 0.018320320174098015, 0.004351107869297266, -0.0025167525745928288, 0.0059279873967170715, 0.00708376569673419, 0.012778260745108128, 0.008655592799186707, 0.03409864380955696, -0.014485015533864498, -0.019932113587856293, -0.03582209348678589, 0.014803349040448666, 0.014823379926383495, 0.006355872843414545, 0.020458532497286797, 0.008993503637611866, 0.0017436734633520246, -0.018085822463035583, 0.012945913709700108, 0.024929942563176155, -0.004321296699345112, -0.005658910144120455, 0.022379184141755104, 0.025531189516186714, 0.013818859122693539, 0.03341341391205788, -0.011929458007216454, -0.014687305316329002, 0.038301244378089905, 0.04130249843001366, -0.01470586471259594, 0.020963139832019806, 0.015481078065931797, -0.00949584599584341, -0.0027711933944374323, -0.007903470657765865, -0.01571156270802021, -0.011893358081579208, -0.039621997624635696, 0.005439222790300846, 0.0062873391434550285, -0.03147154301404953, -0.013101519085466862, -0.022806953638792038, 0.013154612854123116, 0.02400970831513405, -0.022214839234948158, 0.02223343215882778, 0.049470361322164536, 0.0037290386389940977, -0.01322171650826931, 0.0258394256234169, -0.01728219911456108, -0.019758621230721474, 0.006565411109477282, 0.01196326408535242, -0.0061495620757341385, 0.0364399254322052, -0.018516065552830696, 0.002714986214414239, -0.00936962105333805, 0.029105274006724358, 0.01842169091105461, 0.027502046898007393, 0.022484704852104187, -0.011812476441264153, -0.005642653442919254, 0.024095000699162483, -0.015872418880462646, 0.004154534544795752, 0.023351913318037987, -2.055483855656348e-05, 0.02914448268711567, 0.03542035445570946, -0.007172301411628723, -0.01435638777911663, -0.018990542739629745, -0.016779938712716103, 0.001051827217452228, -0.023650426417589188, 0.0007355082198046148, 0.022989537566900253, 0.021921325474977493, 0.02494383044540882, -0.0019758264534175396, -0.018944084644317627, 0.0009762202389538288, -0.004423110280185938, -0.03806431218981743, -0.00930137187242508, 0.01685626059770584, 0.022387325763702393, 0.006787740625441074, 0.00429494259878993, 0.0193571075797081, 0.009175145998597145, -0.022352758795022964, -0.002394646406173706, 0.015104958787560463, 0.015483394265174866, -0.020605243742465973, 0.005940298084169626, -0.03210186958312988, 0.0050708940252661705, 0.020101748406887054, -0.023275861516594887, 0.015717431902885437, -0.022570224478840828, -0.0279412679374218, 0.02550113946199417, 0.00902430061250925, -0.011461404152214527, -0.04328330606222153, -0.0009945571655407548, 0.01753106340765953, 0.008123232051730156, 0.008043905720114708, 0.01753181219100952, 0.005217305850237608, -0.020944762974977493, -0.021272337064146996, 0.006524089723825455, 0.00019682536367326975, -0.027402035892009735, 0.015206603333353996, -0.0430268831551075, -0.02005068026483059, -0.01111477892845869, 0.01447165384888649, 0.00746031291782856, 0.020560819655656815, -0.017265917733311653, 0.015332140028476715, 0.018395354971289635, -0.022532058879733086, -0.02896682545542717, 0.003460110165178776, 0.03265652060508728, -0.013025643303990364, 0.02669551782310009, -0.011167400516569614, 0.015861764550209045, 0.018282556906342506, 0.0021708239801228046, -0.02548971399664879, 0.017295973375439644, 0.0025406626518815756, -0.0036176678258925676, 0.017792297527194023, 0.029666464775800705, -0.01412511058151722, 0.01187549065798521, 0.0040491190738976, -0.000630119233392179, -0.0024465653114020824, -0.014651097357273102, 0.04113154485821724, -0.0009161302587017417, -0.02182471938431263, -0.021315112709999084, 0.021769560873508453, -0.018840020522475243, -0.033544279634952545, -0.020231828093528748, -0.004412265494465828, -0.001540230237878859, 0.022891391068696976, -0.005515320226550102, -0.018748605623841286, 0.021654684096574783, 0.03878309205174446, 0.011598937213420868, 0.029711030423641205, 0.013062232173979282, -0.0063920714892446995, 0.002604562556371093, 0.03403002768754959, 0.022232087329030037, 0.01499087456613779, 0.00414018239825964, 0.014880936592817307, 0.015388292260468006, -0.014298512600362301, -0.008428329601883888, 0.004296762868762016, -0.020106559619307518, -0.016512619331479073, 0.019721444696187973, -0.03182164207100868, -0.018963390961289406, 0.002221834147349, -0.04654037579894066, 0.013922609388828278, 0.026054758578538895, -0.01749144122004509, 0.024690205231308937, -0.03441109135746956, 0.003420404624193907, -0.009432166814804077, 0.02098570577800274, -0.007282026577740908, -0.030958300456404686, 0.013708584010601044, 0.01936371438205242, 0.02027537114918232, -0.01216669101268053, -0.019445551559329033, 0.014032918028533459, 0.012645616196095943, -0.0007621371769346297, -0.02215556986629963, -0.029097819700837135, 0.0009340323740616441, 0.00818642694503069, -0.028411105275154114, 0.005676328670233488, -0.02115870639681816, -0.03918027505278587, 0.02933373488485813, -0.02023692987859249, -0.017294928431510925, 0.02266347035765648, -0.0008904699934646487, -0.004274530336260796, 0.00640663830563426, -0.00467887707054615, 0.007479817606508732, 0.0038977726362645626, -0.03423793241381645, 0.010436851531267166, -0.03491809219121933, -0.0035131622571498156, -0.0017020493978634477], "bias": 0.13556505739688873, "activation_function": "RELU"}, {"weights": [-0.025838637724518776, 0.00028560953796841204, -0.004096273332834244, -0.01573173515498638, 0.008281259797513485, -0.03490535542368889, -0.024169309064745903, -0.031249796971678734, -0.0006273085018619895, -0.004111113026738167, -0.027777155861258507, -0.025461183860898018, -0.008645801804959774, -0.03847893327474594, -0.03515682369470596, -0.029989218339323997, -0.03644547611474991, 0.01812988892197609, -0.031328219920396805, -0.024664713069796562, -0.007435584906488657, 0.008104641921818256, -0.023979194462299347, 0.02544359862804413, 0.028108108788728714, 0.00475552212446928, -0.010098368860781193, -0.0028152414597570896, 0.019567841663956642, -0.013276848010718822, 0.005724226124584675, 0.018027210608124733, 0.02313070558011532, 0.015957387164235115, -0.0002565524191595614, -0.011141101829707623, -0.026457199826836586, -0.022905124351382256, -0.0377671979367733, -0.02624470368027687, -0.05310313031077385, -0.03640953451395035, -0.07646428793668747, -0.03913012146949768, -0.017361421138048172, -0.02247421257197857, -0.014143391512334347, -0.0420849584043026, 0.011671366170048714, -0.007588352542370558, -0.02502317540347576, 0.006806035526096821, -0.025889523327350616, -0.022174866870045662, 0.020930558443069458, 0.0037109623663127422, 0.018043557181954384, -0.023345893248915672, -0.03494317829608917, -0.03442348167300224, -0.008571617305278778, -0.0004202370182611048, 0.02656707726418972, 0.013087698258459568, -0.04101229086518288, -0.01497154776006937, -0.004194393754005432, -0.02205844596028328, -0.03774649277329445, -0.01903681829571724, -0.06040405109524727, -0.05010678619146347, -0.005616453476250172, -0.04213337600231171, -0.0360027439892292, 0.003896624781191349, -0.03639722615480423, -0.04333707317709923, -0.022263554856181145, 0.022021647542715073, -0.03850063681602478, 0.020036257803440094, 0.025530222803354263, 0.00784367322921753, -0.026462774723768234, 0.022979076951742172, 0.01354488916695118, 0.011306891217827797, -0.01785210147500038, 0.03187853842973709, -0.013383015990257263, -0.05347561091184616, -0.02866501733660698, -0.03980419412255287, -0.042443275451660156, -0.010357551276683807, -0.01902267150580883, -0.03268909826874733, -0.0014611745718866587, -0.012669717893004417, -0.003251823363825679, -0.04611238092184067, -0.06527118384838104, -0.024213746190071106, -0.006206123623996973, -0.03014972433447838, -0.0011911686742678285, -0.03550240024924278, 0.028471754863858223, 0.024551400914788246, 0.016626736149191856, 0.01448945701122284, -0.017261315137147903, 0.007517676800489426, -0.019176138564944267, 0.026435479521751404, 0.008140102960169315, -0.005848767701536417, -0.025772057473659515, -0.01641346700489521, -0.062431663274765015, -0.012643358670175076, -0.056057948619127274, 0.0048081581480801105, -0.0026869301218539476, -0.04003400728106499, -0.0276381466537714, 0.00963496882468462, 0.013618158176541328, -0.0224092286080122, -0.04719075188040733, -0.020814210176467896, -0.026794781908392906, 0.00012204227823531255, -0.03468721732497215, 0.03561651334166527, -0.012680713087320328, -0.01899556815624237, 0.03346860781311989, -0.0026348785031586885, -0.013430253602564335, 0.0009524674387648702, -0.014063135720789433, 0.03206391632556915, 0.008701411075890064, 0.022037949413061142, -0.013107378967106342, -0.017597682774066925, -0.007813201285898685, -0.063286192715168, -0.03633284941315651, 0.007449911441653967, 0.007034205365926027, -0.030487284064292908, -0.01444620918482542, 0.02046978287398815, -0.026709046214818954, -0.03334712237119675, -0.0006070096278563142, -0.06424349546432495, -0.040898606181144714, -0.030472761020064354, -0.03137142211198807, -0.03000580705702305, -0.020267557352781296, -0.013070033863186836, -0.00887110736221075, -0.027861837297677994, 0.033993300050497055, -0.03278474137187004, -0.02206507883965969, -0.027060039341449738, 0.023178111761808395, -0.0432051457464695, -0.053874921053647995, -0.013112708926200867, -0.040939200669527054, -0.05504005774855614, -0.03365306183695793, -0.013659671880304813, -0.019114723429083824, -0.04304898530244827, 0.005252642557024956, -0.03479466587305069, -0.038957562297582626, 0.011096562258899212, -0.02616189792752266, -0.06371630728244781, -0.04645555093884468, -0.015163696371018887, 0.013482699170708656, -0.003984047565609217, 0.0125022754073143, 0.0026256798300892115, 0.014669309370219707, 0.009215747006237507, -0.034292470663785934, -0.016921306028962135, -0.008936603553593159, -0.02327520027756691, -0.02503432147204876, 0.013776521198451519, -0.015229999087750912, -0.028647596016526222, 0.002829062519595027, -0.025485681369900703, -0.05186352878808975, -0.024974660947918892, -0.03507816791534424, -0.029799770563840866, -0.0452268049120903, -0.010639294050633907, 0.004687488079071045, -0.042624615132808685, -0.015919486060738564, -0.008184517733752728, -0.033831626176834106, -0.06098853051662445, -0.0038611425552517176, -0.019263479858636856, 0.0017858309438452125, -0.009504630230367184, -0.031550053507089615, -0.02668282389640808, 0.0046716672368347645, 0.016010021790862083, 0.025640716776251793, -0.006410045083612204, 0.030259355902671814, 0.02868582494556904, -0.023440640419721603, -0.0513380765914917, -0.025886481627821922, -0.03181770071387291, -0.011142035014927387, -0.03989176079630852, 0.030632581561803818, 0.020063668489456177, 0.007959066890180111, -0.006822424475103617, 0.025379709899425507, -0.017152849584817886, -0.038989607244729996, -0.04386252909898758, 0.0020534791983664036, -0.024258682504296303, 0.0199678223580122, -0.03364706411957741, 0.04499312490224838, 0.010552112013101578, 0.003826442174613476, -0.029752099886536598, 0.0012010465143248439, -0.029055818915367126, -0.02602573111653328, 0.03398457169532776, 0.0022234085481613874, -0.028034953400492668, -0.026678383350372314, -0.06426742672920227, 0.0022050635889172554, -0.02056691236793995, -0.025489481166005135, -0.03336217254400253, -0.02374565415084362, -0.035441379994153976, -0.012371625751256943, 0.01686917431652546, -0.02741667628288269, 0.009747669100761414, -0.03823305293917656, -0.03536628559231758, -0.05352063104510307, -0.04040166735649109, -0.008351090364158154, -0.013755514286458492, -0.0009041722514666617, -0.020920105278491974, 0.0026763181667774916, -0.03616240993142128, -0.0300447940826416, -0.026349343359470367, 0.037176940590143204, 0.048687711358070374, 0.003286894876509905, 0.03111906535923481, 0.004122775513678789, -0.05852824077010155, -8.946251909947023e-05, -0.04391402378678322, 0.01065666414797306, 0.03633587807416916, 0.03102036751806736, 0.03153286874294281, -0.04399707913398743, -0.010071620345115662, 0.009668138809502125, 0.02534584514796734, -0.00304200011305511, -0.02084333449602127, -0.04512985423207283, -0.05160507932305336, -0.008004388771951199, -0.028087632730603218, -0.02300885133445263, 0.005031702108681202, 0.017263568937778473, -0.023003581911325455, -0.028815485537052155, -0.03339702636003494, 0.039921872317790985, 0.016946611925959587, 0.0015254983445629478, 0.015116652473807335, -0.01423353049904108, -0.007367968559265137, -0.04964582994580269, -0.03740444406867027, -0.016179781407117844, 0.00786216463893652, -0.014089531265199184, 0.018335603177547455, -0.030520262196660042, 0.011728966608643532, 0.019057076424360275, -0.010564991272985935, -0.0014514896320179105, -0.03819211199879646, -0.025676291435956955, -0.06565544009208679, 0.01817067340016365, -0.02025333233177662, -0.027765335515141487, -0.03111993335187435, -0.01398356631398201, -0.03581308200955391, -0.022231610491871834, 0.0031378946732729673, -0.009548534639179707, -0.004170069005340338, -0.0267005804926157, -0.0007393105770461261, -0.05214487016201019, -0.014473284594714642, -0.018600575625896454, -0.04097188636660576, -0.00992098543792963, 0.03232555091381073, -0.0008180679869838059, 0.02560226432979107, -0.011484507471323013, 0.001967628253623843, 0.03890717402100563, -0.010734045878052711, 0.018980776891112328, -0.009808121249079704, -0.020043540745973587, -0.005545902065932751, 0.012046224437654018, -0.0037542402278631926, -0.01747323013842106, 0.021346256136894226, -0.001312132109887898, -0.035171832889318466, -0.005059099290519953, 0.016145342960953712, 0.023143727332353592, 0.03420879691839218, 0.015077058225870132, -0.015810050070285797, -0.04501410201191902, -0.012906807474792004, -0.022488588467240334, -0.019212927669286728, -0.0349150225520134, 0.03748573362827301, 0.019572727382183075, 0.005819468293339014, -0.013584297150373459, -0.005726592615246773, 0.004561691544950008, 0.004618080798536539, 0.04392411559820175, -0.010549317114055157, -0.04103291034698486, -0.021811190992593765, -0.029255259782075882, -0.016689764335751534, 0.016159433871507645, -0.04148191958665848, 0.016355503350496292, 0.01878621056675911, 0.027979658916592598, 0.01717619225382805, 0.003824838437139988, 0.0047733839601278305, -0.010413817130029202, 0.0018461847212165594, -0.045399922877550125, -0.04735829681158066, -0.024267615750432014, -0.0035852924920618534, 0.00726526603102684, 0.007330415304750204, 0.02276841178536415, 0.013126545585691929, 0.017580106854438782, -0.007866076193749905, 0.02148684300482273, -0.009920069947838783, 0.02594299055635929, 0.024398338049650192, 0.009392236359417439, -0.0332992784678936, -0.03413546457886696, -0.010013452731072903, -0.011146031320095062, -0.04835253581404686, 0.004791073966771364, 0.020923512056469917, -0.028878692537546158, -0.02432604506611824, -0.02761310338973999, -0.030528077855706215, 0.009156445041298866, -0.013354417867958546, -0.03625115379691124, -0.020314378663897514, 0.006980166304856539, 0.023511020466685295, 0.005822694394737482, 0.01588337868452072, 0.02750476263463497, -0.0059991683810949326, 0.015869710594415665, 0.024113863706588745, 0.0386773906648159, 0.0006944775232113898, 0.02202366478741169, 0.03446686640381813, -0.027614401653409004, -0.02573607861995697, -0.004419423174113035, -0.017025163397192955, -0.03281792998313904, -0.05069105327129364, 0.00784899853169918, -0.038231030106544495, 0.007095827255398035, 0.006478510797023773, 0.026997335255146027, -0.025950532406568527, -0.0016573145985603333, -0.044681306928396225, -0.06583776324987411, -4.1579249227652326e-05, -0.027395213022828102, -0.01884118840098381, -0.03106112778186798, -0.0011918421369045973, 0.0063905478455126286, 0.0007144805858843029, 0.009115448221564293, 0.02143842913210392, 0.029372019693255424, 0.05089423060417175, -0.00028952755383215845, 0.04551839083433151, -0.0017683934420347214, 0.0015758525114506483, -0.009100645780563354, -0.050336334854364395, -0.003982035908848047, -0.04122419282793999, -0.03308381512761116, -0.013873779214918613, 0.029264014214277267, -0.0008281898335553706, 0.00624589528888464, -0.04968935251235962, -0.041075535118579865, -0.013655373826622963, -0.055863041430711746, -0.042679306119680405, -0.029001303017139435, -0.0023384494706988335, 0.021416151896119118, 0.05978817492723465, 0.00772794708609581, 0.02445611171424389, 0.03133818507194519, 0.008036253042519093, -0.00060105393640697, 0.04581379145383835, 0.0007809513481333852, -0.001585402525961399, -0.007426931988447905, -0.02386425994336605, -0.05513031408190727, -0.06068607047200203, -0.051780782639980316, -0.040470339357852936, -0.03578636795282364, 0.013994975946843624, 0.01645553857088089, -0.03768947347998619, -0.03126080334186554, -0.062504842877388, -0.06930681318044662, -0.03387109190225601, -0.03385327011346817, -0.026754161342978477, 0.013857654295861721, 0.002242819406092167, -0.006433999165892601, 0.034608952701091766, 0.009543851017951965, 0.025875532999634743, 0.028516478836536407, 0.04530750960111618, 0.017342673614621162, 0.009565641172230244, 0.0022965790703892708, -0.006380777340382338, 0.00027602692716754973, -0.04863719642162323, -0.030939796939492226, -0.014490027911961079, -0.022862952202558517, -0.030685925856232643, -0.0542638786137104, -0.002224367344751954, 0.006157137919217348, -0.03158441185951233, 0.005564823281019926, -0.032228320837020874, -0.0427977591753006, -0.03695407882332802, -0.04380125552415848, 0.0014962494606152177, -0.021680044010281563, -0.00659558130428195, 0.033453475683927536, 0.031002813950181007, 0.004762026481330395, 0.055631984025239944, 0.00827629305422306, 0.0337577648460865, 0.011760680936276913, 0.005978386849164963, -0.004236958455294371, -0.0012302916729822755, 0.019044285640120506, -0.06406048685312271, -0.01658445969223976, -0.004406849388033152, -0.00610375264659524, -0.0415789820253849, -0.04104866832494736, -0.025851910933852196, -0.012124096043407917, -0.011515697464346886, -0.008077559061348438, -0.04752303287386894, -0.02747315727174282, -0.014066467992961407, -0.042983073741197586, -0.0225567277520895, 0.03113335371017456, 0.005335618741810322, -0.02402329631149769, 0.05470816418528557, 0.02507093735039234, 0.050530675798654556, -0.002547905780375004, 0.04909412935376167, -0.00697676744312048, 0.002761945128440857, 0.018654339015483856, 0.010304500348865986, 0.016602838411927223, -0.05138561502099037, -0.03837450593709946, -0.05071701854467392, -0.0213308148086071, -0.020343948155641556, -0.02360720932483673, -0.026972100138664246, -0.014323933981359005, -0.032002680003643036, -0.02146792784333229, -0.0445057712495327, -0.022758014500141144, -0.03482639789581299, -0.049102604389190674, -0.0033719674684107304, 0.017761802300810814, 0.034606628119945526, 0.004715924151241779, 0.01648300141096115, 0.013239249587059021, 0.03253816068172455, 0.03542643412947655, 0.00691877119243145, -0.007155593018978834, 0.0027859460096806288, 0.04154997691512108, 0.014093786478042603, -0.03534889221191406, -0.04303770884871483, -0.08469456434249878, -0.03972376510500908, -0.012694157660007477, -0.00035965320421382785, -0.03793683275580406, 0.006792618427425623, 0.0171243567019701, -0.04064178466796875, 7.02346587786451e-05, 0.014084971509873867, -0.015584101900458336, -0.03558181971311569, -0.031154775992035866, -0.02158532291650772, 0.01190460380166769, 0.04104910045862198, 0.007977450266480446, 0.06047038733959198, 0.0067335763014853, 0.024097472429275513, 0.014327805489301682, -0.00649682292714715, 0.034059301018714905, 0.047139838337898254, 0.004615096841007471, -0.010690093040466309, -0.0007713448139838874, -0.011637669987976551, -0.06519125401973724, -0.007443272043019533, 0.003340533236041665, 0.0008856633794493973, 0.021289590746164322, 0.01702560856938362, 0.024661874398589134, -0.004988004919141531, 0.015752824023365974, -0.012373924255371094, -0.05960671976208687, -0.07333530485630035, -0.025512030348181725, -0.041461315006017685, 0.0075475480407476425, -0.026263641193509102, -0.020090298727154732, 0.03647133335471153, 0.01024565752595663, 0.037052955478429794, 0.04586190730333328, 0.03264867141842842, 0.03616119921207428, -0.009411273524165154, 0.002834388054907322, 0.03860272467136383, -0.019642967730760574, -0.02667258493602276, -0.026628047227859497, -0.059135809540748596, -0.03294320032000542, -0.021995820105075836, 0.019021058455109596, 0.00291139492765069, -0.00347359967418015, -0.0021065655164420605, 0.004210007376968861, -0.024951312690973282, -0.025783125311136246, -0.026954470202326775, -0.060265228152275085, -0.0460624136030674, 0.019582878798246384, -0.01898200809955597, 0.037920501083135605, 0.0036395431961864233, 0.025335853919386864, -0.0052627320401370525, 0.01090296357870102, 0.017955485731363297, 0.016036750748753548, -0.012430569157004356, 0.03298443183302879, 0.018439501523971558, 0.013424116186797619, -0.01992630586028099, -0.03912689909338951, -0.025889936834573746, 0.012886801734566689, -0.033254798501729965, 0.00745854526758194, -0.006946289911866188, 0.027983635663986206, 0.006007780786603689, -0.023073015734553337, -0.02447110041975975, -0.05737368389964104, -0.027906525880098343, -0.019173098728060722, 0.011160220950841904, -0.008365314453840256, 0.01620718464255333, -0.018299289047718048, 0.005738964769989252, 0.008370288647711277, 0.05665476992726326, 0.033210307359695435, 0.002333917422220111, 0.016922907903790474, -0.019326062873005867, -0.022575410082936287, 0.035903431475162506, -0.032741401344537735, -0.05310268700122833, -0.03030480444431305, -0.05658065527677536, -0.047409459948539734, 0.013520208187401295, -0.03336590155959129, -0.03439179062843323, 0.010794425383210182, 0.03203613683581352, 0.023916682228446007, -0.014118240214884281, 0.01101252157241106, -0.016534151509404182, -0.03093346394598484, -0.01784346252679825, 0.012074940837919712, 0.0037312526255846024, 0.02481512911617756, 0.025074755772948265, 0.04918324574828148, 0.03061116859316826, 0.013005208224058151, 0.01194818876683712, 0.031428758054971695, -0.01704128459095955, -0.02785475365817547, 0.007064057979732752, -0.022006386891007423, -0.041387952864170074, -0.04373495280742645, -0.04540373012423515, -0.011550790630280972, -0.036621108651161194, -0.015621254220604897, -0.013121295720338821, -0.012923398055136204, -0.035482779145240784, -0.028584925457835197, 0.03153645992279053, 0.008508146740496159, -0.005263766273856163, -0.015643659979104996, 0.006750878412276506, 0.003542303340509534, -0.03159928694367409, -0.004317831713706255, 0.02639820985496044, -0.0007631281623616815, 0.045999109745025635, -0.015322515740990639, 0.02810690551996231, 0.02334604598581791, 0.015638181939721107, 0.006161604076623917, -0.014398072846233845, -0.0008268753881566226, -0.0069658770225942135, -0.013084111735224724, -0.026118095964193344, -0.007223031017929316, 0.01945308968424797, 0.022900350391864777, 0.007752681151032448], "bias": -0.036391790956258774, "activation_function": "RELU"}, {"weights": [0.007336602080613375, -0.0013991446467116475, -0.007722061593085527, 0.012407428584992886, -0.022377045825123787, -0.01757274754345417, 0.02937817946076393, 0.03013170138001442, -0.018280677497386932, 0.022081924602389336, -0.019394857808947563, 0.007272549904882908, -0.0009697495843283832, -0.020053725689649582, 0.027728958055377007, 0.012705706059932709, -0.010566512122750282, 0.020578928291797638, -0.008022301830351353, 0.007298072334378958, -0.019432002678513527, -0.001670017489232123, -0.014579923823475838, 0.03176192194223404, -0.0013147244462743402, 0.03550822660326958, -0.0019653572235256433, -0.030548840761184692, 0.007749808486551046, 0.010470611043274403, -0.023436089977622032, 0.03572656586766243, -0.00790749117732048, -0.005098734516650438, 0.009584634564816952, 0.02372388169169426, 0.03554481267929077, 0.008713042363524437, -0.002873026067391038, 0.003323194570839405, 0.004367540590465069, -0.004227888770401478, -0.024329060688614845, 0.03769006207585335, -0.012024433352053165, 0.029704177752137184, 0.02293994277715683, 0.016687564551830292, 0.02397255040705204, 0.006368226371705532, 0.004264636430889368, 0.01813133805990219, -0.016518637537956238, -0.0001210405898746103, 0.0004884324735030532, 0.015321433544158936, 0.019851576536893845, 0.0311227198690176, -0.03544024005532265, -0.02747010812163353, -0.03176606073975563, 0.0266238022595644, 0.029644789174199104, -0.014470803551375866, -0.020293569192290306, 0.014567368663847446, 0.019777964800596237, 0.01074681431055069, -0.0012529296800494194, -0.025335274636745453, 0.017339468002319336, -0.021234702318906784, 0.015838000923395157, -0.005802175495773554, 0.008127404376864433, -0.008465835824608803, 0.00668227206915617, 0.0225361417979002, 0.008712878450751305, 0.006963999010622501, 0.03771577402949333, 0.023892279714345932, -0.020544717088341713, 0.0292276032269001, 0.027346646413207054, -0.02342882938683033, 0.011865503154695034, 0.02593020349740982, 0.02460363693535328, -0.026740962639451027, -0.021961400285363197, 0.007797700818628073, -0.0027115691918879747, 0.004841566551476717, -0.003587340237572789, 0.017475619912147522, 0.00813960563391447, -0.010999991558492184, 0.0006654903991147876, 0.00790278147906065, 0.014638835564255714, 0.0345449335873127, -0.02915732003748417, -0.015158556401729584, -0.016350729390978813, 0.022744987159967422, -0.02780386246740818, -0.004586322233080864, -0.010893902741372585, 0.019248969852924347, 0.0077125513926148415, 0.016450710594654083, -0.029824189841747284, -0.0012999133905395865, -0.027852606028318405, -0.0075860959477722645, 0.004411481786519289, 0.011309516616165638, -0.03238186985254288, 0.011338511481881142, -0.01002486702054739, 0.008427217602729797, 0.008643967099487782, -0.007098111789673567, -0.008277004584670067, 0.0572395958006382, 0.030063163489103317, 0.0302240252494812, -0.022455604746937752, -0.018366197124123573, -0.02270384505391121, 0.018507521599531174, -0.021199539303779602, -0.025888051837682724, -0.021836206316947937, -0.019061200320720673, 0.009249523282051086, 0.015579872764647007, 0.013313832692801952, 0.015965862199664116, -0.010931802913546562, -0.03173300251364708, -0.012262503616511822, -0.008280099369585514, -0.04640389606356621, -0.006649380084127188, -0.0165314469486475, -0.01617375761270523, 0.030483892187476158, -0.029199523851275444, -0.0011720957700163126, 0.02388518489897251, 0.03873848542571068, -0.010559368878602982, -0.0044664256274700165, 0.032440878450870514, 0.023235740140080452, 0.030016804113984108, -0.0012480296427384019, -0.03186836838722229, -0.011245178990066051, 0.03281649202108383, 0.01295873150229454, 0.006127886939793825, 0.019509585574269295, 0.008367440663278103, 0.005593499168753624, -0.026257745921611786, -0.01498320046812296, -0.015236873179674149, 0.031617119908332825, -0.01613512448966503, 0.01226675696671009, -0.016104580834507942, 0.020431743934750557, -0.012046675197780132, 0.01038083340972662, -0.017812294885516167, 0.032567255198955536, 0.026866275817155838, -0.0026205312460660934, 0.050328969955444336, 0.030603842809796333, -0.005006063729524612, 0.030968237668275833, -0.012692993506789207, -0.011406075209379196, 0.00688658794388175, 0.020439157262444496, 0.005336899776011705, 0.024212872609496117, 0.014901036396622658, -0.0018457075348123908, -0.005667753517627716, -0.016463307663798332, -0.008271252736449242, -0.008168813772499561, 0.013942998833954334, -0.025664102286100388, 0.026164723560214043, 0.004236812237650156, -0.021579310297966003, -0.011146003380417824, 0.035574235022068024, 0.041743576526641846, 0.013654042966663837, -0.019325830042362213, 0.03401581570506096, -0.0007794763660058379, -0.01032942719757557, 0.028558911755681038, -0.0067930882796645164, -0.016244368627667427, -0.014232233166694641, 0.040461357682943344, 0.010201883502304554, 0.03388690948486328, 0.011726218275725842, 0.04656265676021576, 0.01566842570900917, -0.026999780908226967, 0.011392645537853241, 0.018671967089176178, 0.02676217071712017, -0.02469053864479065, 0.0017582144355401397, -0.02119964174926281, -0.041296616196632385, -0.004080593585968018, -0.007382417097687721, 0.04058811068534851, -0.005512992385774851, -0.00538512971252203, -0.02143223024904728, 0.004707552958279848, 0.0012447325279936194, 0.027492523193359375, 0.02089887484908104, 0.017124442383646965, -0.003710593096911907, 0.015416539274156094, 0.018404128029942513, 0.004035094287246466, -0.0025462948251515627, 0.02067241258919239, -0.001993518089875579, 0.010450263507664204, -0.03480244800448418, -0.020020855590701103, -0.006459059193730354, -0.035224076360464096, 0.018351297825574875, -0.031157176941633224, -0.019228637218475342, -0.00718246353790164, -0.026844486594200134, -0.04533830285072327, 0.016565056517720222, 0.02604019083082676, 0.009118949994444847, -0.002097806893289089, -0.022277679294347763, -0.008094063960015774, 0.04642283171415329, 0.03121061809360981, -0.031429603695869446, 0.00731107871979475, -0.02281344309449196, 0.0029596786480396986, 0.027910180389881134, 0.022158917039632797, -0.0005122438888065517, 0.007663507014513016, 0.019759884104132652, -0.016589190810918808, -0.009756733663380146, -0.012754121795296669, 0.029227949678897858, -0.019023071974515915, 0.0046928138472139835, -0.024810051545500755, 0.01457793079316616, 0.01666591316461563, -0.027777498587965965, 0.007514887023717165, -0.006517350673675537, 0.011378118768334389, -0.02274593897163868, -0.02596626803278923, 0.027108779177069664, 0.020715244114398956, 0.03069928102195263, -0.012247388251125813, -0.015279388055205345, 0.039664048701524734, -0.01218299102038145, -0.02984551340341568, -0.0074920873157680035, -0.010592705570161343, -0.011629190295934677, 0.026859458535909653, 0.02365599200129509, 0.003500593127682805, 0.014631446450948715, 0.011885641142725945, 0.016447503119707108, -0.023040246218442917, -0.03620330989360809, -0.0410599410533905, -0.029475772753357887, -0.018805453553795815, -0.03503592312335968, -0.012559749186038971, 0.007530358154326677, 0.043360672891139984, 0.01021717768162489, -0.008951446041464806, 0.0025619438383728266, 0.018454741686582565, -0.013959408737719059, 0.034963253885507584, 0.03784794360399246, -0.024572152644395828, -0.003333844244480133, 0.009380499832332134, -0.006432036869227886, 0.025152284651994705, 4.5340471842791885e-05, 0.033369239419698715, 0.021918198093771935, 0.0348200760781765, 0.003237917320802808, -0.027598977088928223, -0.003012129571288824, -0.026065872982144356, -0.035196978598833084, -0.022398004308342934, -0.0010860577458515763, 0.03135326877236366, -0.015904920175671577, -0.0009421836584806442, 0.0026358638424426317, 0.04340887442231178, 0.04519446939229965, -0.028399858623743057, -0.025729896500706673, 0.03351452574133873, 0.016131926327943802, 0.00888402946293354, -0.027406372129917145, 0.01898745633661747, -0.002191489329561591, -0.026567859575152397, -0.00361733534373343, 0.03293319419026375, -0.0071233478374779224, 0.02394493669271469, -0.020034119486808777, -0.008626049384474754, 0.022310452535748482, -0.009192652069032192, 0.0036720414645969868, -0.0024259404744952917, -0.01661020517349243, 0.002971847541630268, 0.025746498256921768, -0.01988389529287815, 0.011996121145784855, 0.022502508014440536, -0.0070199379697442055, -0.0020895986817777157, 0.005755887366831303, 0.0038634869270026684, -0.0009263132815249264, 0.014104696922004223, 0.00022996505140326917, 0.011934011243283749, 0.02977929450571537, 0.02669127844274044, 0.017922446131706238, 0.012725962325930595, -0.02563856914639473, -0.03000704012811184, -0.009536360390484333, -0.024729685857892036, 0.012208634056150913, 0.00030693362350575626, 0.005643100012093782, -0.028507422655820847, 0.0005509558250196278, -0.03762257844209671, 0.01669371873140335, 0.0032144838478416204, 0.004954784642904997, -0.009268763475120068, 0.022998668253421783, -0.009663749486207962, 0.016744190827012062, 0.012913328595459461, 0.012576463632285595, -0.010806909762322903, 0.00923989899456501, 0.022459272295236588, 0.006129564251750708, 0.045002833008766174, 0.03377678990364075, 0.013731143437325954, 0.0037384317256510258, -0.01369894202798605, -0.015759535133838654, -0.011810640804469585, 0.036174483597278595, 0.018431978300213814, 0.002499355236068368, 0.006866259500384331, 0.022023743018507957, -0.013920522294938564, -0.01326594315469265, -0.0360180102288723, 0.012075901962816715, -0.046025101095438004, -0.041724998503923416, -0.0040618558414280415, 0.009691321291029453, 0.03614998236298561, 0.006446140352636576, 0.027274399995803833, 0.013914601877331734, -0.040010254830121994, 0.015915431082248688, -0.003991569858044386, -0.020483387634158134, -0.0002745320671238005, -0.0007146360003389418, 0.006136843003332615, -0.021056262776255608, -0.009274827316403389, 0.020428743213415146, -0.0008662738837301731, -0.03348810225725174, -0.00016334748943336308, 0.007845298387110233, 0.03434339538216591, 0.03412161394953728, -0.015578596852719784, 0.014728263951838017, -0.03544552996754646, 0.0022175712510943413, 0.012481410056352615, -0.04530863091349602, -0.02629264071583748, 0.00026203534798696637, 0.03338659554719925, -0.012578046880662441, 0.010537208989262581, 0.03198941797018051, -0.0026199067942798138, -0.020701831206679344, 0.008501442149281502, 0.013487468473613262, 0.011491512879729271, -0.015615303069353104, 0.023592226207256317, 0.029346564784646034, -0.006466432474553585, -0.006847826763987541, 0.01014396920800209, 0.03217174485325813, -0.006468886509537697, 0.03698199242353439, 0.019234826788306236, -0.0004181589756626636, -0.03267804905772209, -0.023220790550112724, 0.015486527234315872, 0.03206787630915642, -0.018450934439897537, -0.026482384651899338, 0.006419888697564602, 0.01485731266438961, 0.026335403323173523, 0.03166520595550537, 0.028065241873264313, 0.021444614976644516, 0.017301447689533234, 0.02555474080145359, -0.02431342378258705, 0.013823110610246658, -0.0033337995409965515, -0.03089127317070961, -0.02844398282468319, 0.02903556078672409, -4.160492608207278e-05, 0.013733841478824615, 0.001529706409201026, 0.004447855520993471, 0.005201763939112425, -0.017750311642885208, 0.025573184713721275, 0.009857553988695145, 0.023554399609565735, -0.023633932694792747, 0.02279571071267128, -0.027166062965989113, 0.004043528810143471, -0.03499384969472885, -0.032006941735744476, -0.010648229159414768, 0.03727618232369423, 0.04067779704928398, 0.013995524495840073, -0.002245865063741803, -0.003999439533799887, 0.03359449654817581, 0.03161414712667465, -0.02804267592728138, 0.032881975173950195, -0.019577400758862495, 0.02233760431408882, 0.03235602751374245, -0.030051330104470253, -0.01751767098903656, 0.01899896003305912, 0.025296228006482124, -0.015452580526471138, 0.004823531024158001, 0.0035595237277448177, -0.010923503898084164, 0.01030665636062622, 0.02569848857820034, -0.0038982650730758905, -0.021047934889793396, -0.02089293673634529, -0.044613733887672424, -0.0038405791856348515, 0.003092031693086028, 0.010062191635370255, 0.03250255435705185, 0.0224557314068079, 0.025925707072019577, 0.013873742893338203, 0.005868876352906227, 0.01962769217789173, -0.015672385692596436, 0.027251841500401497, -0.0001419360050931573, 0.0019743621814996004, 0.02370561473071575, 0.018588732928037643, 1.1930074833799154e-05, -0.012398743070662022, 0.0071811615489423275, -0.003148638876155019, 0.027785615995526314, 0.04231078922748566, 0.029896819964051247, 0.014485230669379234, 0.01246306300163269, -0.0015646632527932525, 0.039799198508262634, -0.015757594257593155, 0.018808146938681602, 0.00736213056370616, 0.0403127558529377, 0.02772574871778488, 0.05034109205007553, 0.007956973277032375, 0.0386965349316597, 0.014891834929585457, 0.008002569898962975, 0.009075464680790901, 0.009657773189246655, 0.013291110284626484, 0.0327778160572052, -0.0036304383538663387, -0.010469776578247547, -0.023330233991146088, 0.03880397602915764, 0.03616529330611229, 0.0016668541356921196, 0.028882326558232307, 0.02899339608848095, 0.012554725632071495, 0.007755574304610491, -0.0034464639611542225, 0.02952009066939354, 0.006451418157666922, 0.02021513506770134, -0.01082503329962492, 0.008966385386884212, 0.04665915668010712, 0.010873829014599323, 0.031195932999253273, 0.005234580021351576, 0.04156569018959999, -0.01366390660405159, -0.01964411698281765, -0.009446777403354645, 0.008499945513904095, -0.011130253784358501, 0.02238273248076439, -0.012681874446570873, 0.037326328456401825, -0.00010411597759230062, 0.042515527456998825, 0.05949508771300316, 0.00746160140261054, 0.02177945338189602, 0.002520530251786113, 0.03459319472312927, 0.03339824080467224, 0.010025033727288246, -0.007244040723890066, 0.01525045745074749, -0.004344861023128033, 0.028334030881524086, 0.024934077635407448, 0.0015536908758804202, 0.002991264220327139, 0.03442688658833504, 0.015954995527863503, 0.03505344316363335, 0.04001111164689064, 0.018236787989735603, 0.013837029226124287, 0.014121592976152897, 0.019867483526468277, 0.02673243172466755, 0.0018125339411199093, -0.00817581545561552, 0.003482476808130741, -0.020926201716065407, -0.012780995108187199, 0.017527097836136818, 0.031296417117118835, 0.010471506975591183, -0.002755331341177225, 0.05344213545322418, 0.04137422889471054, 0.020410588011145592, 0.05077117308974266, -0.00732996454462409, 0.013350228779017925, 0.02367504872381687, -0.023284250870347023, -0.0011472590267658234, -0.012836765497922897, 0.025548702105879784, 0.023049170151352882, 0.03187728673219681, 0.009830292314291, 0.006821755785495043, -0.0018284106627106667, 0.0014236422721296549, -0.026590047404170036, 0.009885775856673717, -0.00257421494461596, -0.013377079740166664, -0.005479353480041027, 0.03562212362885475, -0.0027838603127747774, -0.009800724685192108, 0.008281854912638664, 0.01615079864859581, 0.028735654428601265, 0.009901347570121288, 0.023782530799508095, 0.061413802206516266, 0.002167020458728075, 0.039470598101615906, 0.023467950522899628, -0.019627587869763374, -0.02779507264494896, 0.025083670392632484, -0.021522706374526024, -0.016635777428746223, 0.008303669281303883, 0.016169121488928795, 0.05222903564572334, 0.02831096015870571, -0.04461749643087387, -0.027719752863049507, 0.0035022094380110502, -0.033628299832344055, -0.017988475039601326, -0.03381878510117531, -0.029643429443240166, 0.012303479947149754, 0.005849095992743969, 0.0031625262927263975, 0.007159620523452759, 0.03179433196783066, -0.019575530663132668, -0.0017052054172381759, 0.021493302658200264, 0.05026863142848015, -0.026484083384275436, -0.0004374064737930894, -0.02820422127842903, 0.029325976967811584, -0.041680820286273956, 0.010951396077871323, -0.03961881250143051, -0.0080207334831357, 0.01631150394678116, 0.007187261246144772, 0.036710225045681, -0.026132259517908096, -0.03542788326740265, -0.001452997443266213, -0.021416693925857544, -0.043061185628175735, -0.0327284038066864, -0.02959996461868286, -0.01694895699620247, -0.04673481360077858, 0.015797754749655724, 0.010456507094204426, -0.04172135889530182, 0.0004319419094827026, -0.031592957675457, -0.01453136745840311, 0.010046892799437046, -0.012253304943442345, -0.011522794142365456, -0.028697041794657707, -0.020635612308979034, 0.0030036810785531998, 0.029040370136499405, 0.02628658153116703, -0.027265816926956177, -0.0046131848357617855, -0.009304607287049294, 0.027261344715952873, -0.019854992628097534, -0.025569023564457893, -0.015298036858439445, -0.0015396007802337408, -0.0599045492708683, -0.05316273868083954, -0.051948558539152145, -0.046656716614961624, -0.06055501848459244, 0.0002626149507705122, -0.010837224312126637, 0.01517614908516407, -0.03620997071266174, 0.006986828055232763, -0.01239441242069006, 0.050650425255298615, -0.005481458734720945, 0.04625222459435463, 0.020835483446717262, -0.03733433037996292, 0.02153920754790306, 0.0029465523548424244, 0.03649331256747246, 0.010408631525933743, -0.02220231294631958, 0.026291374117136, 0.003142409259453416, -0.006696551572531462, 0.020480237901210785, 0.0032595437951385975, -0.0008523896685801446, 0.020643053576350212, -0.003103009657934308, 0.0007352537359111011, -0.024260064586997032, -0.025752877816557884, 0.007651049643754959, -0.021075749769806862, 0.008143615908920765, -0.023191329091787338, -0.04239804670214653, -0.04686164855957031, -0.01973314955830574, -0.013482893817126751, -0.002331513911485672, -0.002991196932271123, 0.03310433402657509, -0.0031503525096923113, 0.00839513074606657, -0.02025945857167244], "bias": -0.043953318148851395, "activation_function": "RELU"}, {"weights": [-0.005669757258147001, -0.021444721147418022, -0.015205780044198036, -0.03236163780093193, -0.005442595575004816, 0.019772550091147423, 0.020819388329982758, 0.013309000059962273, -0.03192564845085144, -0.018090104684233665, -0.020512646064162254, 0.016773276031017303, 0.025397486984729767, -0.024545816704630852, -0.02099393680691719, -0.032405681908130646, 0.005773962941020727, 0.009854746051132679, -0.027144957333803177, 0.022444766014814377, 0.004147241357713938, 0.0014177215052768588, 0.03144349157810211, -0.028716204687952995, -0.0018535950221121311, 0.017148790881037712, -0.020905638113617897, 0.017381979152560234, -0.009541495703160763, 0.010654368437826633, 0.01430648285895586, 0.01479052472859621, -0.003740455489605665, -0.02890508808195591, -0.00550360232591629, 0.024141017347574234, 0.0032933573238551617, 0.03033127449452877, 0.004179698880761862, 0.02776307612657547, 0.027732104063034058, 0.008819394744932652, -0.0048189484514296055, -0.014304901473224163, 0.026395253837108612, -0.009863329119980335, -0.035686854273080826, -0.012104034423828125, -0.007342731114476919, -0.017200574278831482, 0.00197115121409297, -0.005137912463396788, 0.027399633079767227, 0.021862691268324852, -0.017873629927635193, -0.020182106643915176, -0.032570090144872665, 0.019412126392126083, 0.027272099629044533, 0.006258880719542503, 0.02178112044930458, -0.034731846302747726, -0.013657853938639164, -0.04106539115309715, -0.0089347492903471, 0.016212010756134987, 0.01885097473859787, 0.011729053221642971, 0.01783665642142296, 0.012638585641980171, 0.025803320109844208, -0.009766791947185993, 0.02062697522342205, 0.025631899014115334, -0.01424025185406208, 0.01990646868944168, -0.013620167970657349, -0.028607606887817383, -0.001150657655671239, 0.02073567919433117, 0.020854488015174866, -0.02787548303604126, 0.007997977547347546, -0.0009297611541114748, -0.018594609573483467, -0.019659580662846565, 0.002014636993408203, -0.03503337502479553, 0.005926626734435558, -0.03819400072097778, -0.036443959921598434, 0.010206136852502823, -0.02760584093630314, 0.024082867428660393, 0.014732521958649158, 0.027645757421851158, -0.008988277986645699, -0.008189155720174313, -0.0017200392903760076, 0.010657448321580887, 0.04482763633131981, -0.007923120632767677, -0.0027277562767267227, 0.014879439026117325, -0.0010466733947396278, -0.02508390322327614, 0.006178960669785738, 0.01079338788986206, -0.02543310634791851, 0.02347291260957718, 0.012380650267004967, -0.028979036957025528, -0.02280581183731556, -0.017097841948270798, 0.010902225971221924, -0.014394570142030716, 0.008632267825305462, -0.029543742537498474, -0.016907475888729095, 0.009553935378789902, -0.003993296530097723, 0.0009129676618613303, 0.045397233217954636, 0.04366239532828331, 0.026213601231575012, 0.01747960038483143, 0.012537104077637196, 0.0436994805932045, 0.019445016980171204, 0.013922369107604027, 0.00044951544259674847, 0.005217723548412323, 0.007056351751089096, -0.010235201567411423, 0.005893091205507517, -0.0018567807273939252, 0.026747815310955048, 0.006365976762026548, 0.025343501940369606, 0.031881630420684814, 0.00399828003719449, 0.0059364973567426205, 0.03039977140724659, -0.00858108326792717, 0.009415104053914547, -0.013523290865123272, -0.013155637308955193, -0.028306378051638603, 0.017508093267679214, 0.01444940734654665, 0.006978699937462807, 0.008868359960615635, 0.04240644723176956, 0.007905949838459492, -0.007156585808843374, 0.035535506904125214, 0.023738566786050797, 0.02459246665239334, -0.0038857690524309874, 0.03282492607831955, -0.004858705215156078, -0.010436749085783958, 0.01351076178252697, 0.00439068116247654, -0.005687618628144264, 0.027861338108778, -0.02356918342411518, -0.030292268842458725, 0.027004744857549667, 0.004887566901743412, -0.006243571639060974, -0.023504553362727165, -0.04295959323644638, 0.02109246701002121, -0.001692572026513517, 0.01945679634809494, 0.025134116411209106, 0.03898218646645546, 0.05426932871341705, 0.021276649087667465, 0.0036809102166444063, 0.014383066445589066, -0.00892321951687336, -0.016362031921744347, -0.008664535358548164, 0.028295524418354034, 0.007295877207070589, -0.02215307392179966, -0.004722344223409891, -0.009499998763203621, 0.027862433344125748, 0.010490072891116142, 0.033132683485746384, -0.011464196257293224, -0.03116084821522236, -0.004470566287636757, -0.02495061419904232, 0.03185192495584488, -0.01607684977352619, 0.005286001600325108, -0.007310162298381329, 0.00905289314687252, 0.002133740345016122, -0.00675257109105587, 0.026321493089199066, 0.009151401929557323, 0.005335957743227482, -0.0034775466192513704, -0.007004762999713421, 0.016629749909043312, 0.013945162296295166, -0.00424576411023736, 0.023084798827767372, -0.020460113883018494, 0.001260074321180582, -0.0013059248449280858, 0.0074445451609790325, -0.03759775683283806, -0.007866314612329006, -0.03798207640647888, 0.026183363050222397, -0.004771522246301174, 0.016246555373072624, -0.030626175925135612, -0.022614941000938416, 0.02338673546910286, -0.0067436713725328445, -0.00543584069237113, -0.009803315624594688, -0.023009197786450386, -0.025378864258527756, 0.023181794211268425, 0.03718020021915436, -0.008688952773809433, -0.014633064158260822, 0.03931335359811783, 0.009993772022426128, -0.02655821479856968, -0.014010563492774963, 0.010911324061453342, 0.0027908680494874716, 4.95713647978846e-05, 0.028507322072982788, 0.005274344701319933, 0.03681601211428642, -0.03190424665808678, -0.005824397783726454, 0.004756431095302105, -0.0008135678945109248, 0.018235545605421066, 0.004802849609404802, -0.015142521820962429, -0.010481130331754684, -0.01796797662973404, 0.004246184602379799, -0.005350722931325436, -0.01741660013794899, -0.03176073357462883, 0.01584607921540737, -0.016137460246682167, 0.0035138141829520464, 0.02350994199514389, -0.009173579514026642, 0.011923952959477901, 0.02454487606883049, 0.024062389507889748, -0.014440200291574001, 0.039630498737096786, 0.01532149687409401, -0.011130288243293762, -0.018161587417125702, 0.0505853071808815, -0.014806533232331276, 0.02138233557343483, 0.00342876766808331, -0.013528628274798393, 0.0021036905236542225, -0.010878348723053932, 0.03386809304356575, -0.014306468889117241, -0.022682752460241318, -0.0031436490826308727, -0.0033033411018550396, -0.006017653271555901, -0.020631523802876472, -0.003955868538469076, -0.020397167652845383, 0.018973922356963158, 0.013936921954154968, -0.01596028357744217, 0.029479868710041046, 0.019526155665516853, 0.01280443649739027, -0.0005077999085187912, -0.004573718644678593, 0.00140293687582016, 0.017422238364815712, 0.028953250497579575, -0.02003217674791813, 0.006103812716901302, -0.003911971114575863, 0.020888641476631165, 0.017557663843035698, -0.017130384221673012, 0.005263188853859901, 0.00403263745829463, -0.01252210233360529, 0.027487071231007576, 0.002932194387540221, 0.004533496219664812, 0.011030388996005058, 0.014325514435768127, -0.0500158928334713, -0.011871647089719772, 0.005409340839833021, -0.028144005686044693, 0.011815761215984821, 0.02201271429657936, 0.01847384311258793, -0.0019636910874396563, 0.034711576998233795, -0.012283082120120525, -0.015174311585724354, 0.013242265209555626, 0.04964014142751694, 0.013610903173685074, 0.01730918698012829, 0.0009238080820068717, 0.0271647609770298, 0.003577709197998047, -0.026534082368016243, -0.02757999300956726, -0.01855948381125927, -0.02335168421268463, 0.010441570542752743, -0.023736542090773582, 0.022780943661928177, -0.018588481470942497, 0.0011107994941994548, -0.04057364538311958, -0.048845741897821426, -0.016127856448292732, 0.004979135934263468, 0.004349473863840103, 0.03849495202302933, -0.014666502363979816, -0.021619537845253944, -0.01017074380069971, 0.025846322998404503, 0.0006812597857788205, -0.017564255744218826, 0.0033983371686190367, -0.004105264786630869, 0.04866251349449158, -0.026528136804699898, 0.027209753170609474, 0.0144351189956069, 0.023929212242364883, -0.0056802574545145035, -0.0024625889491289854, -0.03147080913186073, 0.007201729342341423, 0.00012164881627541035, -0.0014665338676422834, 0.009603542275726795, -0.0010895517189055681, -0.0034397998824715614, -0.015066779218614101, -0.009129922837018967, -0.02178795449435711, 0.003900761716067791, 0.03152916952967644, 0.020473282784223557, 0.02723177708685398, 0.016661614179611206, -0.024221988394856453, 0.014209041371941566, -0.03326905518770218, -0.001177405472844839, 0.01884225197136402, -0.007175420876592398, 0.0210807416588068, 0.004485713317990303, -0.01748046465218067, 0.01771068014204502, -0.021315699443221092, -0.016714317724108696, 0.011002978309988976, -0.016913240775465965, -0.0019888035021722317, 0.0075730932876467705, -0.014460258185863495, 0.0052850209176540375, 0.013859115540981293, 0.02725181169807911, -0.026427587494254112, -0.0021475390531122684, 0.016764556989073753, -0.02201307751238346, 0.02026011236011982, 0.020797859877347946, 0.01094136293977499, 0.024383293464779854, -0.03844122961163521, -0.022542040795087814, 0.002325842622667551, 0.028202632442116737, 0.015987293794751167, 0.02069781720638275, 0.03555717319250107, 0.0215345099568367, 0.016614969819784164, 0.02203117497265339, 0.00021671137074008584, -0.004647230263799429, 0.011330002918839455, -0.009277882054448128, -0.012044187635183334, 0.008000162430107594, 0.0210620928555727, 0.002649801317602396, -0.005499653518199921, -0.022824430838227272, -0.01191652286797762, 0.006900093052536249, -0.01855587586760521, -0.004632354713976383, 0.0057967486791312695, 0.014248836785554886, 0.009670287370681763, -0.021037358790636063, -0.016711153090000153, -0.003004310419782996, 0.0024887893814593554, 0.014050531201064587, 0.03862639516592026, -0.0060454485937952995, 0.015042527578771114, 0.003272149944677949, 0.0013288881164044142, 0.030598636716604233, 0.020226573571562767, 0.047459572553634644, -0.029761947691440582, 0.001264986814931035, 0.014658943749964237, 0.014086926355957985, -0.021828757598996162, 0.005031861364841461, -0.029386386275291443, -0.039531219750642776, -0.005400361027568579, -0.012799211777746677, -0.046539679169654846, 0.00759660080075264, -0.016632402315735817, 0.008499031886458397, -0.03879673406481743, 0.003262487705796957, -0.004883481655269861, 0.028773460537195206, -0.014659814536571503, 0.028833581134676933, 0.03930157795548439, 0.02738695777952671, 0.024521155282855034, 0.007819927297532558, 0.018536929041147232, -0.0016771407099440694, 0.01999114453792572, -0.03238513320684433, -0.0491521991789341, -0.03991539776325226, -0.04856377840042114, 0.024075794965028763, 0.019049447029829025, -0.030916089192032814, -0.04820796847343445, 0.002466473961248994, -0.04870130866765976, 0.002740025520324707, -0.015225176699459553, 0.024907292798161507, -0.004681773483753204, 0.012595005333423615, 0.002455252455547452, -0.014577950350940228, -0.0020707370713353157, -0.012771716341376305, -0.007610754109919071, 0.04233330488204956, 0.05025096610188484, 0.021975265815854073, -0.006404681596904993, 0.022680893540382385, -0.012944156304001808, -0.007461299188435078, 0.0006892955861985683, -0.0060907346196472645, -0.045552488416433334, -0.0026778478641062975, -0.00835834164172411, 0.016481993719935417, -0.0006190412095747888, 0.03852742165327072, -0.004124457482248545, -0.0037923019845038652, -0.05983016639947891, -0.003997930325567722, -0.048157867044210434, 0.009327525272965431, 0.008930246345698833, -0.011074960231781006, 0.022981038317084312, -0.02283249795436859, 0.020862476900219917, 0.026803288608789444, -0.004118022508919239, 0.010635933838784695, 0.0507369227707386, 0.0026696459390223026, -0.0027532612439244986, 0.035230718553066254, 0.04041453078389168, 0.023905497044324875, 0.035268887877464294, -0.009380714036524296, -0.023752685636281967, -0.03069908544421196, -0.011391743086278439, -0.017169423401355743, 0.012790287844836712, 0.0054322476498782635, -0.02930322289466858, -0.019598565995693207, -0.040901731699705124, -0.044701579958200455, -0.0031217325013130903, 0.02440643683075905, -0.003448647679761052, -0.015775511041283607, 0.014993460848927498, 0.0035135354846715927, 0.02653994783759117, -0.0005087234894745052, -0.011388113722205162, -0.0012504757614806294, 0.0012431659270077944, 0.0431109294295311, 0.005802466068416834, 0.01715283840894699, -0.019035939127206802, 0.01934683509171009, -0.02339841052889824, -0.007824026979506016, -0.028369970619678497, -0.005655951332300901, 0.0014676632126793265, 0.03551790863275528, 0.034512534737586975, 0.020137976855039597, 0.014133187010884285, -0.036162782460451126, -0.03238549456000328, 0.007327802013605833, -0.005842489190399647, -0.0013313762610778213, -0.0022610400337725878, 0.019079897552728653, 0.016984017565846443, -0.012781050987541676, -0.00488661415874958, -0.004301551263779402, -0.01828855462372303, -0.018678884953260422, 0.011643080040812492, 0.047907207161188126, 0.037281814962625504, -0.026318315416574478, -0.023123029619455338, 0.02832742966711521, 0.033040422946214676, 0.024784818291664124, -0.03144014626741409, 0.022965768352150917, -0.004424123093485832, -0.029946554452180862, 0.023881204426288605, -0.0005689561949111521, -0.015021013095974922, -0.003888174658641219, -0.010034401901066303, -0.03516622260212898, 0.021520178765058517, 0.02831176668405533, -0.011366946622729301, -0.011984569951891899, -0.026074253022670746, -0.006498388014733791, -0.001982903340831399, -0.022698143497109413, 0.008012356236577034, -0.01668855920433998, 0.048621222376823425, 0.007267073728144169, 0.0012866746401414275, 0.006536860018968582, -0.013710612431168556, -0.049022577702999115, 0.01950915716588497, -0.003363565308973193, 0.032683879137039185, 0.017653750255703926, 0.009426186792552471, 0.02441154047846794, -0.010140051133930683, 0.03729764744639397, 0.022419294342398643, -0.003098366316407919, -0.02325451746582985, 0.002941075013950467, 0.0015370262553915381, -0.024126248434185982, 0.02537410892546177, 0.006571040488779545, -0.026812788099050522, 0.04310990124940872, 0.011938504874706268, -0.007184874732047319, -0.016166510060429573, 0.03400776907801628, -0.014219054952263832, -0.0043935575522482395, -0.009109487757086754, 0.007776170503348112, -0.005948400590568781, -0.012279280461370945, -0.0030793813057243824, -0.023497169837355614, 0.02329353801906109, 0.00016175280325114727, 0.0005629971856251359, -0.012669889256358147, 0.02718701958656311, -0.032232217490673065, -0.011150035075843334, 0.017757195979356766, -0.02725931815803051, -0.008547434583306313, 0.004175438079982996, 0.046349894255399704, 0.018327362835407257, -0.018904611468315125, -0.01169150322675705, 0.030233945697546005, -0.023923160508275032, 0.03853883966803551, -0.007084252312779427, -0.007117311004549265, 0.028979811817407608, -0.020590754225850105, -0.006102161481976509, -0.023473389446735382, -0.005455009639263153, 0.009527921676635742, 0.009572848677635193, 0.011419400572776794, 0.032110393047332764, 0.00038565683644264936, -0.006267787888646126, -0.01992330141365528, 0.006970038637518883, -0.0036958889104425907, -0.00914322305470705, 0.015670061111450195, 0.0010429616086184978, -0.007776802871376276, 0.0415840819478035, 0.03713332116603851, 0.05422811955213547, -0.03207186982035637, 0.011265702545642853, 0.019059540703892708, 0.044463638216257095, 0.014571021310985088, -0.010042129084467888, 0.03986057639122009, -0.018670614808797836, -0.01976644992828369, -0.002808531280606985, -0.021738212555646896, -0.004339966457337141, -0.04320173338055611, 0.03208017721772194, 0.03325750306248665, 0.030313074588775635, 0.0012469651410356164, 0.022565480321645737, 0.0073958938010036945, 0.005533969029784203, 0.009640054777264595, -0.004382355138659477, 0.008366230875253677, -0.037040356546640396, -0.004602581262588501, -0.0036908737383782864, 0.05767986178398132, 0.053546905517578125, -0.008075213991105556, 0.05034269392490387, 0.005074711050838232, 0.0006830009515397251, 0.04078265279531479, -0.00261319219134748, 0.028554359450936317, 0.03458104655146599, 0.001657160115428269, 0.035867318511009216, 0.011966613121330738, -0.034918081015348434, 0.004513802472501993, -0.0055847070179879665, -0.008264408446848392, -0.028912702575325966, -0.014823030680418015, 0.027382224798202515, 0.007459631189703941, 0.03395587578415871, 0.02913934923708439, 0.022328238934278488, -0.0034621176309883595, -0.026507485657930374, -0.028327947482466698, 0.008458905853331089, 0.00325321638956666, 0.0005647492362186313, 0.026071207597851753, 0.00823301076889038, 0.015692392364144325, 0.015627145767211914, 0.05680805817246437, 0.034486424177885056, 0.03850358724594116, 0.027384351938962936, 0.032237615436315536, -0.01415901631116867, -0.011285603977739811, 0.009192402474582195, 0.009134551510214806, -0.006251879967749119, -0.01771874912083149, -0.005172187928110361, -0.02254463918507099, 0.00017621136794332415, -0.012079151347279549, -0.02073979750275612, -0.021767495200037956, -0.030692175030708313, -0.011917178519070148, -0.02694397233426571, -0.008981921710073948, -0.03249887004494667, -0.0003332927299197763, 0.009766528382897377, -0.018540337681770325, -0.013481136411428452, 0.03932483494281769, 0.037569910287857056, 0.004077088553458452, 0.002295746235176921, 0.026004226878285408, 0.010297155007719994, 0.013475833460688591, 0.015084188431501389, 0.04265918955206871, 0.0408659428358078, -0.008306722156703472, 0.023134812712669373, 0.005256341304630041, 0.006153171416372061, -0.04669438302516937, 0.02587909996509552, 0.0026162066496908665, -0.026768354699015617], "bias": 0.04544675350189209, "activation_function": "RELU"}, {"weights": [-0.014770539477467537, 0.02463877946138382, 0.0007070075953379273, -0.03119814395904541, 0.020874809473752975, -0.008298011496663094, -0.03633721172809601, -0.03584766015410423, -0.008926400914788246, -0.026842312887310982, -0.013558178208768368, -0.02883647009730339, 0.006186391226947308, 0.020019089803099632, 0.002146788639947772, 0.013906651176512241, 0.00747646251693368, -0.031192217022180557, -0.014050071127712727, -0.030312588438391685, -0.030340546742081642, 0.0028715617954730988, -0.03466656431555748, -0.028933703899383545, -0.02457968331873417, 0.02524026669561863, 0.01211850717663765, 0.010048276744782925, -0.01915973238646984, -0.01427234522998333, -0.017418643459677696, 0.0009335876093246043, -0.01315206941217184, -0.01662968285381794, -0.023361388593912125, -0.0003953396517317742, -0.035236239433288574, 0.004105318803340197, -0.02693684957921505, -0.007076178211718798, -0.012711274437606335, -0.015211285091936588, 0.023693859577178955, -0.014014514163136482, -0.008070997893810272, 0.010003055445849895, -0.024595389142632484, -0.009003286249935627, -0.02168460376560688, 0.015917208045721054, 0.003674465464428067, 0.012569298967719078, 0.011763215996325016, 0.011953100562095642, -0.023976488038897514, -0.009405823424458504, -0.014123094268143177, 0.01957477629184723, -0.020639630034565926, -0.0006273890030570328, 0.0008754301234148443, -0.030700551345944405, -0.018846750259399414, -0.045918360352516174, -0.047233279794454575, -0.011340313591063023, -0.012928387150168419, -0.02552584558725357, 0.0041515640914440155, -0.018014296889305115, 0.02108335681259632, -0.02154644951224327, -0.016703791916370392, 0.02568516694009304, -0.02508012019097805, -0.05500699207186699, -0.023889604955911636, -0.013098235242068768, 0.017901906743645668, -0.017402371391654015, 0.0091239670291543, -0.026339493691921234, -0.027298009023070335, -0.025236517190933228, -0.03234309330582619, -0.03189743310213089, -0.01028098352253437, -0.033769603818655014, -0.01681947335600853, -0.014963516034185886, 0.00020928779849782586, -0.030446890741586685, -0.003043440170586109, -0.04514041915535927, 0.017415905371308327, 0.0019893019925802946, 0.00022852425172459334, 0.0024587074294686317, -0.019993597641587257, 0.014909081161022186, -0.04853060096502304, -0.018064390867948532, 0.00419475557282567, -0.02700849622488022, -0.03561663627624512, -0.03674210608005524, -0.0006959203747101128, 0.008111190982162952, -0.022072482854127884, 0.0008188511128537357, -0.0029003547970205545, 0.022754738107323647, -0.0029497076757252216, -0.01558557990938425, -0.02880282513797283, -0.01885736919939518, -0.024986304342746735, -0.034022390842437744, 0.01241361629217863, -0.009053868241608143, 0.0069635831750929356, -0.02342560701072216, 0.014996050857007504, 0.01863809861242771, 0.0070999241434037685, -0.03851492330431938, -0.02814347669482231, 0.01422219816595316, -0.0387091226875782, 0.021525675430893898, -0.02936186082661152, -0.03644469007849693, -0.02624068595468998, -0.03858782351016998, -0.006396487820893526, -0.041667625308036804, 0.024499420076608658, -0.012246285565197468, -0.0033421190455555916, 0.007433764170855284, 0.025732416659593582, 0.01762240193784237, 0.007502319291234016, -0.026084261015057564, 0.012530160136520863, 0.011924021877348423, -0.038345880806446075, -0.011613776907324791, -0.003244793275371194, -0.04158912971615791, 0.02134067378938198, 0.03296917676925659, 0.020574258640408516, -0.0032616807147860527, -0.032553531229496, -0.008871751837432384, 0.010966481640934944, -0.045044705271720886, -0.016351798549294472, -0.05101170763373375, 0.014854214154183865, -0.049675192683935165, -0.007063903845846653, 0.007082053460180759, -0.03490066900849342, 0.018108222633600235, 0.019302688539028168, 0.01517073716968298, -0.030340051278471947, 0.013591508381068707, 0.019926708191633224, 0.003246918087825179, 0.008679615333676338, -0.013300076127052307, -0.04469120129942894, -0.03718472272157669, -0.04599301517009735, -0.031500186771154404, -0.013904268853366375, 0.007456859108060598, -0.028688417747616768, 0.002457653870806098, -0.0635472759604454, -0.04947257041931152, -0.01798768900334835, -0.037000734359025955, -0.016253938898444176, -0.061269428580999374, -0.006771270651370287, -0.06891867518424988, -0.010297456756234169, -0.04039204865694046, -0.0016549021238461137, -0.008798716589808464, -0.0055707162246108055, -0.01647484302520752, 0.022377384826540947, 0.032658327370882034, -0.009906589053571224, -0.013126464560627937, 0.006934495642781258, -0.0437471866607666, -0.014654457569122314, -0.009199699386954308, -0.04780878499150276, -0.04691503942012787, 0.004116498865187168, -0.011298243887722492, -0.03413272649049759, -0.006911119446158409, -0.01660224422812462, -0.04299995303153992, -0.023558147251605988, 0.002804688410833478, -0.035895489156246185, -0.04093431308865547, -0.05704127624630928, -0.03276624530553818, -0.012155688367784023, -0.03308989107608795, -0.02452673390507698, 0.010262318886816502, -0.0105268070474267, 0.014446902088820934, -0.01075711939483881, 0.0034664515405893326, 0.008428117260336876, -0.012757888063788414, -0.028467535972595215, -0.030162179842591286, -0.018672334030270576, 0.002808513818308711, -0.016971129924058914, -0.03244680166244507, -0.018537255004048347, 0.03997034579515457, -0.021980922669172287, -0.05452380329370499, -0.06753545254468918, -0.05884705111384392, 0.004664530046284199, -0.03895047307014465, -0.0034210518933832645, -0.042394403368234634, -0.015301818959414959, -0.020911728963255882, -0.04075135663151741, 0.01684841327369213, -0.012645117938518524, 0.007986949756741524, -0.03477983549237251, 0.021490290760993958, 0.007425145711749792, -0.03381488844752312, -0.01460149697959423, 0.01574079692363739, -0.040997352451086044, -0.05455285683274269, -0.05292025953531265, -0.02575988695025444, -0.035896118730306625, -0.002234175568446517, -0.042267777025699615, 0.015974925830960274, -0.025640256702899933, -0.010439641773700714, -0.045480888336896896, -0.023442942649126053, -0.017864122986793518, 0.012556466273963451, -0.02325461618602276, 0.004694398492574692, 0.02376515418291092, -0.020053325220942497, -0.0060427226126194, 0.019969625398516655, 0.030981523916125298, -0.038775164633989334, -0.03421802446246147, -0.03724576532840729, -0.004350712057203054, 0.017549872398376465, -0.006040739826858044, -0.005983179900795221, -0.007835956290364265, -0.0531190000474453, -0.00720989191904664, 0.0036510222125798464, -0.0571509450674057, -0.05723509192466736, 0.00028530575218610466, -0.003959215246140957, -0.014131608419120312, -0.07506873458623886, -0.022039134055376053, -0.01112570520490408, -0.0020351007115095854, -0.02395082823932171, -0.0540066622197628, -0.02529582753777504, -0.01136084459722042, -0.01101414579898119, 0.010155975818634033, 0.011341044679284096, 0.02204883098602295, 0.010607792064547539, -0.05076153948903084, 6.704522820655257e-05, -0.0038138371892273426, 0.02929949201643467, -0.0377059243619442, -0.030321432277560234, -0.030802253633737564, -0.05597766861319542, -0.04278932884335518, -0.026428701356053352, -0.03256353735923767, -0.0340602807700634, -0.01852928288280964, -0.022282162681221962, -0.015233001671731472, -0.03513985872268677, -0.017782244831323624, -0.008485959842801094, 0.0037527442909777164, 0.018882112577557564, -0.025949425995349884, -0.03216347470879555, -0.03159627318382263, 0.006212894804775715, 0.00024159479653462768, -0.008040009066462517, -0.012252546846866608, -0.024216774851083755, -0.04930926859378815, -0.019236188381910324, -0.022534294053912163, 0.006195375230163336, -0.005221095867455006, -0.06602868437767029, -0.07249356806278229, -0.034909117966890335, -0.015059185214340687, -0.01724470593035221, -0.05156175419688225, -0.014102408662438393, -0.00016031802806537598, -0.06152524799108505, -0.04079500958323479, -0.07945562154054642, -0.005383524112403393, -0.00014541379641741514, 0.018583552911877632, 0.036879297345876694, -0.003645646385848522, 0.025740815326571465, 0.021600985899567604, -0.01371384784579277, 0.02320185676217079, -0.01892002671957016, 0.039488114416599274, -0.002877055434510112, -0.0357230082154274, -0.009740046225488186, 0.0057103452272713184, -0.0447377972304821, -0.011523609049618244, -0.009202038869261742, -0.03816528990864754, -0.053125955164432526, -0.049656279385089874, -0.04921905696392059, -0.040825795382261276, -0.049185533076524734, -0.018597394227981567, -0.0756949707865715, -0.05480227246880531, -0.06685449182987213, -0.005936869885772467, 0.021798623725771904, 0.023855941370129585, -0.02324254997074604, -0.028235914185643196, 0.008809816092252731, 0.0005259070312604308, 0.017963416874408722, -0.021404339000582695, -0.003934434149414301, 0.01918422058224678, 0.01599818654358387, -0.04406793415546417, 0.0043115159496665, 0.0001397097803419456, 0.0006486590136773884, -0.04253452643752098, -0.07529688626527786, -0.01903676800429821, -0.06555430591106415, -0.039804138243198395, -0.046755529940128326, -0.08566071093082428, -0.0615944042801857, -0.048997554928064346, -0.06168195605278015, -0.07472062855958939, -0.04893429949879646, 0.019822970032691956, 0.023747431114315987, -0.031366195529699326, 0.013894912786781788, 0.0018027916084975004, -0.021789107471704483, 0.000962605990935117, -0.012884574942290783, -0.013985966332256794, 0.0019364452455192804, -0.00132710428442806, -0.033304229378700256, -0.004960293881595135, -0.014112169854342937, 0.01669282093644142, -0.007424650248140097, -0.003928234335035086, -0.07465220242738724, -0.09111589193344116, -0.025331025943160057, -0.027597228065133095, -0.05831526219844818, -0.08842969685792923, -0.07734471559524536, -0.05185176804661751, -0.057747840881347656, -0.03291325271129608, 0.0026662780437618494, 0.012507595121860504, -0.017407801002264023, -0.030944056808948517, -0.014386875554919243, 0.02094077505171299, 0.007827992551028728, 0.01661955751478672, 0.002188882790505886, -0.010412640869617462, 0.0009587215608917177, -0.006509144324809313, 0.03610276058316231, 0.007184704300016165, -0.005787632428109646, -0.022103991359472275, -0.042160987854003906, -0.02835588902235031, -0.021497949957847595, -0.0881664827466011, -0.017374422401189804, -0.07736553251743317, -0.06896678358316422, -0.05306439474225044, -0.06359600275754929, -0.03126804903149605, -0.03360649570822716, -0.011987854726612568, -0.008731147274374962, -0.009212799370288849, 0.008914068341255188, -0.026277028024196625, 0.029820607975125313, 0.019454700872302055, 0.029496416449546814, -0.019584817811846733, 0.022876553237438202, -0.012617865577340126, 0.027420006692409515, 0.012437408789992332, 0.014908052049577236, 0.029686830937862396, 0.024362167343497276, 0.022999698296189308, -0.003147739451378584, -0.013383783400058746, -0.06363771110773087, -0.028309039771556854, -0.046145789325237274, -0.0027059547137469053, -0.01853242702782154, -0.033953484147787094, -0.020822325721383095, -0.0385308638215065, -0.020361682400107384, -0.03758517652750015, 0.021319227293133736, 0.02095821127295494, 0.006284014787524939, 0.016453849151730537, 0.030200274661183357, 0.03888953477144241, 0.0627729520201683, 0.018471689894795418, 0.04562912881374359, 0.08160429447889328, 0.08119550347328186, 0.06428138166666031, 0.04836850240826607, 0.10301504284143448, 0.03812030702829361, -0.002829978708177805, 0.0038230991922318935, -0.05546415224671364, -0.024529481306672096, -0.011231631971895695, -0.027330204844474792, -0.04288313165307045, 0.024030297994613647, -0.00685507757589221, -0.023944297805428505, -0.010766015388071537, 0.03107275813817978, 0.010605729185044765, -0.013486416079103947, 0.016780521720647812, 0.01499126199632883, 0.06612905114889145, 0.018805284053087234, 0.04382525756955147, -0.01711830124258995, 0.04887472093105316, 0.03616461157798767, 0.05446784570813179, 0.0473744235932827, 0.0839971974492073, 0.05281699821352959, 0.04485452547669411, 0.002918712794780731, 0.010605338029563427, -0.02589927427470684, -0.020579088479280472, -0.04305129498243332, -0.018108757212758064, -0.024130670353770256, -0.0008055132930167019, -0.025989597663283348, 0.008352221921086311, 0.003582597244530916, -0.008022517897188663, -0.02281857095658779, 0.016818774864077568, -0.00320717366412282, 0.04177304729819298, 0.031851112842559814, 0.009182315319776535, 